0.93124,-0.64886,0.050815,-0.15542,0.58808,0.48157,-0.31203,0.48778,-0.10121,0.57555,-0.29518,-0.14213,0.60042,-0.5606,0.63658,-0.43032,0.39934,0.38461,0.48326,0.073823,0.59836,0.4663,-0.27667,0.28694,0.18623,0.2749,0.4277,-0.13167,0.22085,0.37591,0.024127,-0.12835,0.041379,-0.19367,0.15492,-0.18984,-0.16956,-0.25085,-0.28456,0.26581,0.21369,-0.34116,0.3112,0.47144,-0.1654,0.33292,0.057652,-0.26103,-0.059417,0.38597,0.19773,-0.26392,0.2096,0.20489,-0.1376,0.39327,-0.3002,-0.2498,-0.48137,-0.013214,0.16977,0.023293,-0.34889,-0.2544,0.12072,0.21161,0.34701,0.080627,0.32463,-0.10792,0.11916,-0.16318,0.1229,0.10339,0.034482,0.35859,0.18245,0.2768,0.37128,-0.15144,-0.36009,-0.088555,0.18691,-0.11242,0.35447,0.18451,-0.34949,-0.014434,0.17531,0.22182,0.023048,-0.034641,-0.25749,-0.15654,0.11056,-0.26167,-0.32871,-0.055131,-0.038337,-0.094366
-0.64886,1.0261,0.44963,0.23745,-0.59912,-0.47071,0.71344,-0.45422,0.26501,-0.60193,0.20634,-0.20016,-0.4644,0.73779,-0.59294,0.72416,-0.46923,-0.48191,-0.59836,-0.25807,-0.61134,-0.44672,0.51118,-0.25541,-0.16504,-0.21239,-0.3817,0.29646,-0.25477,-0.33388,-0.33667,-0.19912,-0.29819,0.28571,-0.24653,0.060268,0.4521,0.45566,0.32732,-0.30677,-0.38802,0.31545,-0.35904,-0.50258,0.24654,-0.41009,-0.12782,0.41173,-0.18228,-0.53244,-0.39062,0.37989,-0.27596,-0.30937,0.20718,-0.38072,0.39181,0.15403,0.56145,-0.075566,-0.2657,-0.15054,0.55899,0.28406,-0.23327,-0.24386,-0.33517,-0.058957,-0.32695,0.058844,-0.35573,0.04569,-0.22732,-0.36102,-0.15319,-0.52054,-0.16918,-0.38642,-0.42385,0.11273,0.31811,0.094784,-0.29821,-0.039044,-0.29593,-0.25251,0.25323,-0.2532,-0.27481,-0.46801,-0.31811,-0.0060405,0.080879,-0.044124,-0.14233,0.28551,0.46019,0.20801,-0.11782,-0.038087
0.050815,0.44963,1.2666,0.48772,-0.21872,-0.13453,-0.034159,-0.19366,0.66892,-0.11759,-0.25163,-0.46835,-0.27254,0.15081,-0.26233,0.064067,-0.10536,-0.18969,0.071961,0.073999,-0.24082,-0.21817,0.11418,-0.23368,0.040329,-0.14637,-0.14275,0.5964,-0.26808,-0.19003,0.0065929,-0.11488,-0.15525,0.14141,-0.28247,0.62866,0.3525,0.1131,0.25531,-0.19868,-0.01013,0.096452,-0.013718,-0.17298,0.29643,-0.085715,-0.027016,0.11058,-0.14271,-0.23903,-0.074949,0.28815,0.021377,0.12308,0.19758,-0.032925,0.063661,0.023683,0.2634,-0.30808,-0.28708,-0.052277,0.15702,0.1667,-0.045719,-0.1284,-0.082898,-0.32458,-0.17068,0.042319,-0.079915,0.15884,-0.075656,-0.20262,0.14173,-0.23679,-0.10968,-0.08175,-0.24932,0.31932,0.17665,0.072623,-0.11727,0.10814,-0.37192,-0.21402,0.13211,0.041406,-0.19572,-0.082392,0.22498,0.057958,0.18036,0.33951,-0.30105,0.10025,0.050885,-0.13488,0.0311,-0.0072135
-0.15542,0.23745,0.48772,1.064,-0.14868,-0.13194,-0.080195,-0.12144,0.42023,-0.17585,-0.2515,-0.53479,-0.23422,0.10341,-0.23356,0.025572,-0.24747,-0.014795,0.056935,-0.156,-0.1567,-0.21225,-0.022773,-0.2719,0.1026,-0.16564,-0.14856,0.42594,-0.41622,-0.1249,-0.21381,-0.13209,-0.37086,0.12199,-0.20096,0.25172,0.46688,0.12705,0.35227,-0.18542,0.011809,-0.029558,0.13177,-0.126,0.41721,-0.16466,-0.037943,0.13409,-0.27284,-0.22546,-0.083056,0.28913,0.04952,0.063379,0.35291,0.025574,-0.03061,-0.17832,0.10594,-0.38272,-0.31776,-0.14604,0.18803,0.085326,-0.047072,-0.23909,-0.11249,-0.17383,-0.1902,0.027589,-0.30942,-0.024112,-0.30073,-0.19859,0.16444,-0.20104,0.008313,-0.091583,-0.17287,0.26927,0.094644,0.13361,-0.18118,-0.02076,-0.2992,-0.24392,-0.12324,-0.24022,-0.21081,-0.24048,-0.016607,-0.031654,0.23028,0.19846,-0.27353,0.04159,0.050297,-0.084978,-0.10944,-0.17787
0.58808,-0.59912,-0.21872,-0.14868,0.94989,0.55869,-0.30011,0.46428,-0.046428,0.46866,-0.38313,-0.24824,0.50055,-0.53624,0.46612,-0.44383,0.25637,0.38704,0.40084,0.045447,0.58804,0.40518,-0.36491,0.20172,0.33945,0.23795,0.41359,0.042499,0.13804,0.33064,-0.0094892,-0.026771,-0.051937,-0.15917,0.12767,-0.11872,0.00077181,-0.25896,-0.16879,0.17097,0.3169,-0.34688,0.30283,0.48018,0.018331,0.2647,0.17914,-0.22605,-0.12615,0.41484,0.25515,-0.11703,0.2641,0.22569,-0.023093,0.32154,-0.30209,-0.28523,-0.39975,-0.071151,0.055194,-0.0074466,-0.23235,-0.21719,0.12819,0.09829,0.33841,0.060672,0.2532,-0.025159,0.033588,-0.12255,-0.011372,-0.0064873,0.21836,0.22386,0.24033,0.22918,0.34828,-0.039411,-0.3342,-0.030511,0.08406,-0.094485,0.27733,0.084681,-0.38327,-0.030877,0.092763,0.092341,-0.048399,0.087184,-0.18525,-0.013832,-0.040925,-0.2453,-0.33385,-0.12189,-0.15464,-0.18625
0.48157,-0.47071,-0.13453,-0.13194,0.55869,0.95424,-0.18463,0.46664,0.081124,0.36718,-0.34063,-0.12216,0.41349,-0.45817,0.41484,-0.43052,0.23947,0.22444,0.33043,0.014429,0.46396,0.34777,-0.20335,0.20709,0.41166,0.32432,0.42955,0.090974,0.2012,0.30634,-0.04643,0.012343,-0.018255,-0.066962,0.11001,-0.037325,0.046597,-0.10385,-0.12686,0.14842,0.23152,-0.22534,0.32185,0.37902,0.12244,0.37336,0.1475,-0.08901,-0.062469,0.28004,0.15467,-0.14785,0.21604,0.23179,0.069026,0.22448,-0.21813,-0.23531,-0.30546,-0.071063,0.011747,-0.079446,-0.18435,-0.23516,0.12053,0.16125,0.29375,0.092518,0.2509,0.026316,0.015008,-0.15156,-0.079623,-0.0062076,0.11734,0.14928,0.25731,0.18306,0.21079,0.0041643,-0.25066,0.047269,0.074311,-0.13321,0.27064,-0.011055,-0.1658,-0.030855,0.095399,0.096286,-0.051834,0.11068,-0.20937,-0.024472,-0.084835,-0.18858,-0.26442,-0.064184,-0.12838,-0.11774
-0.31203,0.71344,-0.034159,-0.080195,-0.30011,-0.18463,1.0456,-0.21614,0.099202,-0.41084,0.18534,-0.070069,-0.2276,0.58004,-0.38432,0.57262,-0.29511,-0.3297,-0.4918,-0.25197,-0.39812,-0.30599,0.41696,-0.13117,-0.12846,-0.10199,-0.27391,0.098369,-0.014528,-0.23773,-0.23397,-0.1676,-0.22633,0.18395,-0.075887,-0.038052,0.18608,0.35188,0.14408,-0.14076,-0.36163,0.29065,-0.31141,-0.32716,0.079283,-0.23339,-0.089705,0.32067,-0.1579,-0.39727,-0.22649,0.25252,-0.24592,-0.30029,0.026569,-0.33121,0.31361,0.20015,0.40318,0.048176,-0.089708,-0.062751,0.44031,0.16217,-0.18039,-0.11265,-0.28922,0.029498,-0.17882,0.035826,-0.24726,0.03444,-0.10795,-0.1494,-0.25735,-0.30177,-0.12809,-0.25772,-0.27826,-0.042651,0.23458,0.0081173,-0.15277,-0.0042914,-0.092942,-0.080052,0.21538,-0.18784,-0.19723,-0.223,-0.31222,-0.046806,0.033155,-0.088872,-0.0066345,0.20161,0.3289,0.1979,-0.083674,-0.013053
0.48778,-0.45422,-0.19366,-0.12144,0.46428,0.46664,-0.21614,0.95552,0.066236,0.37224,-0.25913,-0.069908,0.38374,-0.42257,0.40435,-0.3327,0.28818,0.27586,0.3789,0.12178,0.38343,0.37038,-0.21949,0.27224,0.28363,0.31831,0.4027,-0.0004721,0.20971,0.30495,0.052492,-0.029752,0.043456,-0.036295,0.1949,-0.099718,-0.035746,-0.065902,-0.14719,0.20965,0.19108,-0.11085,0.29385,0.30471,0.11252,0.31622,0.14372,-0.15237,0.003509,0.27035,0.21907,-0.13315,0.1337,0.29518,-0.028317,0.19723,-0.21273,-0.20594,-0.29619,0.021798,0.093831,-0.015344,-0.19869,-0.17069,0.18834,0.20658,0.27877,0.12067,0.27123,-0.07943,0.044597,-0.084956,-0.048904,0.057576,0.090288,0.19214,0.057337,0.2669,0.20829,-0.027419,-0.15482,-0.035173,0.18665,-0.035641,0.19178,0.092775,-0.2472,0.080563,0.11549,0.11361,-0.00095928,0.16505,-0.12672,-0.037666,-0.017803,-0.13011,-0.27566,-0.048677,-0.048274,0.013174
-0.10121,0.26501,0.66892,0.42023,-0.046428,0.081124,0.099202,0.066236,1.0979,-0.097058,-0.23611,-0.41469,-0.26969,0.13398,-0.18765,0.083673,0.00053014,-0.18031,0.039254,0.083046,-0.18158,-0.14227,0.097446,-0.17035,0.054602,-0.093839,-0.086223,0.49977,-0.13703,-0.12154,0.025011,-0.094495,-0.23131,0.10461,-0.23745,0.48232,0.27544,0.12737,0.25102,-0.21437,0.013102,0.03084,-0.055739,-0.15829,0.3434,-0.078947,-0.033252,0.1138,-0.087707,-0.15825,-0.068738,0.2516,-0.018054,0.1543,0.2476,-0.034649,0.056804,0.058525,0.25436,-0.27894,-0.27407,-0.02025,0.19508,0.10862,-0.11221,-0.099361,-0.1374,-0.16914,-0.20076,0.10085,-0.089065,0.12016,-0.024476,-0.13411,0.090271,-0.12052,-0.084497,-0.11352,-0.25441,0.19609,0.13071,0.048777,-0.14064,0.0783,-0.29589,-0.23091,0.12121,0.11021,-0.13603,-0.14072,0.12589,0.058965,0.082596,0.2874,-0.18621,0.1236,0.10242,-0.085164,0.017458,0.050186
0.57555,-0.60193,-0.11759,-0.17585,0.46866,0.36718,-0.41084,0.37224,-0.097058,0.95002,-0.27316,-0.16476,0.44504,-0.47844,0.50624,-0.39899,0.40868,0.25601,0.46218,0.20508,0.45124,0.39039,-0.19874,0.21725,0.11126,0.26134,0.35878,-0.02323,0.18615,0.24249,0.25621,-0.013167,0.14511,-0.041141,0.17332,0.047121,-0.15717,-0.17745,-0.25142,0.28534,0.26304,-0.22473,0.19639,0.40022,-0.099873,0.29556,0.054094,-0.2476,0.011739,0.32748,0.11227,-0.25409,0.18212,0.25188,-0.080409,0.26086,-0.23935,-0.17515,-0.26907,-0.024855,0.13258,-0.018308,-0.27209,-0.20217,0.16961,0.18692,0.32302,0.014535,0.2613,0.0033969,0.10136,-0.02739,0.039773,0.14287,0.11707,0.32368,0.043913,0.2762,0.29149,-0.049813,-0.2499,-0.02606,0.1398,0.0031555,0.18111,0.15673,-0.19427,0.13637,0.16895,0.21316,0.139,0.036985,-0.2063,0.011581,0.081348,-0.15745,-0.30869,-0.11687,0.059267,-0.0013971
-0.29518,0.20634,-0.25163,-0.2515,-0.38313,-0.34063,0.18534,-0.25913,-0.23611,-0.27316,0.77622,0.058453,-0.09538,0.35745,-0.18694,0.4397,-0.12482,-0.29445,-0.23331,-0.13199,-0.22943,-0.11282,0.3536,0.041558,-0.086517,0.011459,-0.12954,0.18847,-0.011915,-0.08702,-0.11044,-0.15817,-0.085366,0.18161,-0.092485,-0.015181,0.066837,0.2439,0.084726,0.076687,-0.19571,0.15086,-0.13521,-0.1187,-0.055281,-0.19645,-0.099185,0.11398,0.032029,-0.23236,-0.26139,0.10677,-0.28585,-0.12072,-0.056697,-0.16405,0.18236,0.16992,0.36713,0.098843,0.047075,0.0086878,0.14869,0.13821,-0.12509,0.093943,-0.13514,-0.0092142,-0.08015,0.020867,-0.087217,0.077069,0.077037,-0.023554,-0.13444,-0.21504,-0.14792,-0.12464,-0.15558,-0.089956,0.12787,-0.093319,0.0030566,-0.010851,0.042441,0.089833,0.18199,-0.1083,-0.09926,-0.17064,-0.15349,-0.082416,-0.048019,-0.15104,0.11219,0.10503,0.2884,0.15349,-0.016646,0.087215
-0.14213,-0.20016,-0.46835,-0.53479,-0.24824,-0.12216,-0.070069,-0.069908,-0.41469,-0.16476,0.058453,0.71933,-0.0077803,0.13069,0.043719,0.085081,0.053008,-0.18224,-0.098505,-0.055825,-0.026809,0.044365,0.23168,0.19056,-0.037734,0.053544,0.079661,-0.012534,0.22814,-0.032086,-0.048965,-0.15177,-0.044278,-0.035464,0.065548,-0.080577,-0.069167,0.20384,-0.034518,0.13705,-0.18205,0.17242,-0.14445,-0.035514,-0.20426,0.061802,-0.13328,0.11246,0.014146,-0.07785,-0.22416,0.037409,-0.25126,-0.14998,-0.029162,-0.11331,0.13516,0.10212,0.19624,0.065569,0.078542,-0.10386,-0.035959,-0.091255,0.0023808,0.14772,-0.0069768,0.12265,0.11428,-0.11199,-0.038167,-0.022753,0.0061474,-0.055202,-0.21378,0.00056123,-0.094817,-0.10887,-0.003944,-0.069868,0.080034,-0.12634,0.0069529,-0.021785,0.069689,0.13017,0.23218,0.038655,-0.042791,0.00055603,-0.087053,-0.019684,-0.095696,-0.17202,0.048037,-0.082948,0.11184,0.10766,0.019282,0.067266
0.60042,-0.4644,-0.27254,-0.23422,0.50055,0.41349,-0.2276,0.38374,-0.26969,0.44504,-0.09538,-0.0077803,0.94204,-0.37144,0.4318,-0.29255,0.27055,0.28573,0.32213,-0.0075233,0.47587,0.35388,-0.20478,0.25244,0.16713,0.2561,0.32714,-0.054765,0.19008,0.35617,-0.0004814,-0.1338,0.026775,-0.060549,0.10953,-0.16481,-0.060193,-0.1163,-0.22038,0.26051,0.13588,-0.27356,0.24889,0.39465,-0.083217,0.31113,0.11065,-0.1397,-0.069534,0.27256,0.12594,-0.18508,0.25732,0.19089,-0.071497,0.31029,-0.22439,-0.23126,-0.38088,-0.0018975,0.046068,-0.019063,-0.19365,-0.20763,0.062953,0.17172,0.27123,0.044731,0.27796,-0.03615,-0.03043,-0.094026,0.042645,0.099835,0.051125,0.22719,0.19632,0.28262,0.22659,-0.12717,-0.33992,-0.061725,0.085244,-0.068617,0.20694,0.18288,-0.28258,-0.017464,0.11597,0.10481,-0.024792,0.008461,-0.19774,-0.12793,0.061378,-0.17444,-0.28223,-0.034377,-0.034056,-0.15841
-0.5606,0.73779,0.15081,0.10341,-0.53624,-0.45817,0.58004,-0.42257,0.13398,-0.47844,0.35745,0.13069,-0.37144,1.0299,-0.56201,0.58112,-0.41833,-0.47211,-0.52238,-0.25009,-0.58777,-0.40828,0.51376,-0.2406,-0.19661,-0.33474,-0.39142,0.24927,-0.11148,-0.38152,-0.30465,-0.28121,-0.35217,0.15503,-0.23287,0.10301,0.29,0.46929,0.37561,-0.26779,-0.40132,0.31649,-0.41106,-0.47016,0.088254,-0.39974,-0.21511,0.40134,-0.20078,-0.51627,-0.46084,0.41215,-0.2803,-0.35599,0.16928,-0.38197,0.43563,0.15382,0.54821,-0.14577,-0.25554,-0.18808,0.38737,0.23525,-0.23223,-0.18259,-0.41251,-0.12821,-0.3785,-0.017956,-0.30437,0.042354,-0.10693,-0.25405,-0.22377,-0.37785,-0.12097,-0.4223,-0.41444,0.034715,0.29546,-0.042417,-0.26784,0.031006,-0.23578,-0.20197,0.38079,-0.18277,-0.26522,-0.25409,-0.23922,-0.071964,0.17893,0.013836,-0.089471,0.15218,0.48497,0.17146,-0.0099566,-0.057403
0.63658,-0.59294,-0.26233,-0.23356,0.46612,0.41484,-0.38432,0.40435,-0.18765,0.50624,-0.18694,0.043719,0.4318,-0.56201,0.95095,-0.36821,0.33969,0.30062,0.42424,0.17852,0.51625,0.39862,-0.26306,0.24936,0.13686,0.20165,0.34948,-0.104,0.14793,0.28626,0.061565,-0.068735,0.0089565,-0.12624,0.13026,-0.05888,-0.11181,-0.22292,-0.16224,0.17056,0.19175,-0.22293,0.25335,0.4422,-0.081907,0.31187,0.075707,-0.23212,-0.020872,0.32337,0.16351,-0.22767,0.18761,0.2005,-0.067784,0.28068,-0.27888,-0.2076,-0.38481,-0.026392,0.13416,-0.026582,-0.26479,-0.21681,0.12469,0.1654,0.27301,0.026515,0.27299,-0.1024,0.12017,-0.085909,0.059358,0.063551,0.1188,0.24486,0.13725,0.24876,0.2774,-0.12927,-0.30151,-0.082898,0.12543,-0.046677,0.22646,0.11155,-0.24434,0.032892,0.18377,0.2063,0.043367,-0.0060515,-0.25032,-0.091768,0.077765,-0.21015,-0.27882,-0.087406,-0.029505,-0.046932
-0.43032,0.72416,0.064067,0.025572,-0.44383,-0.43052,0.57262,-0.3327,0.083673,-0.39899,0.4397,0.085081,-0.29255,0.58112,-0.36821,1.0376,-0.33859,-0.43072,-0.50536,-0.2353,-0.4974,-0.37204,0.49753,-0.17708,-0.11014,-0.24523,-0.37461,0.22749,-0.26466,-0.29284,-0.26484,-0.21397,-0.24583,0.18242,-0.22221,0.031807,0.24869,0.29463,0.22067,-0.22674,-0.36351,0.18998,-0.31081,-0.40859,0.083524,-0.37793,-0.15243,0.29468,-0.20895,-0.44815,-0.29748,0.35734,-0.32875,-0.29449,0.077356,-0.24957,0.30589,0.21582,0.57902,0.0096979,-0.14059,-0.13989,0.45933,0.29485,-0.2414,-0.10645,-0.32721,-0.13056,-0.27521,0.035691,-0.25403,0.078074,-0.029639,-0.27309,-0.1556,-0.31898,-0.24003,-0.31125,-0.29351,-0.056398,0.26222,0.055682,-0.15315,0.014678,-0.24212,-0.18118,0.17571,-0.20887,-0.10807,-0.36795,-0.23921,-0.11424,0.051604,-0.098937,-0.023618,0.22562,0.35432,0.1827,-0.061321,0.025509
0.39934,-0.46923,-0.10536,-0.24747,0.25637,0.23947,-0.29511,0.28818,0.00053014,0.40868,-0.12482,0.053008,0.27055,-0.41833,0.33969,-0.33859,0.94635,0.11258,0.33704,0.20706,0.25519,0.28239,-0.06537,0.29055,0.077589,0.19863,0.27509,0.03597,0.1831,0.2543,0.2264,-0.050121,0.11083,-0.081584,0.096282,0.088176,-0.13088,-0.16563,-0.19984,0.14041,0.13778,-0.09104,0.13709,0.23751,-0.014704,0.28481,0.084892,-0.21442,0.13345,0.19221,0.1317,-0.19151,0.06854,0.17386,-0.046509,0.22357,-0.14423,-0.026826,-0.088804,0.12228,0.09579,0.097962,-0.13192,-0.08118,0.052413,0.25016,0.22367,0.047265,0.17834,0.014405,0.16684,0.11113,0.073305,0.053406,0.046965,0.19926,-0.096194,0.24006,0.21134,-0.0015769,-0.045199,0.00020335,0.18063,0.08554,0.0084121,0.061853,-0.048809,0.1643,0.23899,0.1772,0.17515,0.051431,-0.078107,-0.081298,0.034763,-0.042282,-0.18402,-0.1619,0.15256,0.21058
0.38461,-0.48191,-0.18969,-0.014795,0.38704,0.22444,-0.3297,0.27586,-0.18031,0.25601,-0.29445,-0.18224,0.28573,-0.47211,0.30062,-0.43072,0.11258,0.90175,0.32307,0.084901,0.3749,0.22734,-0.25807,0.21368,0.20932,0.11381,0.22248,0.018235,0.029432,0.26113,-0.056254,-0.1146,-0.11401,-0.060347,0.10221,-0.13092,0.13341,-0.12063,-0.082735,0.10973,0.19389,-0.17298,0.25109,0.32128,0.079297,0.11879,0.043685,-0.14516,-0.14731,0.21846,0.14043,-0.041747,0.18164,0.22417,0.038112,0.36142,-0.17956,-0.20838,-0.2596,-0.12264,-0.010172,-0.02522,-0.11848,-0.076471,0.08439,0.058158,0.20839,0.013668,0.13987,-0.087458,0.021841,-0.101,-0.067976,-0.039212,0.13926,0.18678,0.087905,0.18783,0.2279,0.03199,-0.20838,-0.005944,0.016324,-0.10944,0.0070786,0.042363,-0.38865,-0.060604,0.015755,0.027717,-0.064798,-0.024217,-0.040464,-0.0044576,-0.092515,-0.12925,-0.26785,-0.046733,-0.10125,-0.093245
0.48326,-0.59836,0.071961,0.056935,0.40084,0.33043,-0.4918,0.3789,0.039254,0.46218,-0.23331,-0.098505,0.32213,-0.52238,0.42424,-0.50536,0.33704,0.32307,0.94972,0.13922,0.38723,0.33287,-0.2782,0.17181,0.19441,0.1695,0.3541,0.14283,0.013896,0.23409,0.14682,-0.073373,0.02736,-0.059601,0.089614,0.16834,-0.046187,-0.16946,-0.11936,0.16389,0.30963,-0.29738,0.29355,0.33078,0.0068422,0.29592,0.067616,-0.25005,-0.066742,0.27594,0.24026,-0.1927,0.16155,0.31169,0.079076,0.3345,-0.24619,-0.22959,-0.35593,-0.15324,0.064609,-0.027653,-0.32313,-0.16876,0.1567,0.10053,0.25246,-0.054389,0.15358,-0.053111,0.084109,0.0052199,0.0024772,0.11064,0.16694,0.18913,0.046864,0.21886,0.21655,0.084204,-0.20374,0.0059525,0.17938,0.079649,0.022484,0.065781,-0.25843,0.002737,0.083791,0.19406,0.16336,0.017992,-0.15708,0.11267,-0.11229,-0.14713,-0.36855,-0.19748,0.0060237,-0.033534
0.073823,-0.25807,0.073999,-0.156,0.045447,0.014429,-0.25197,0.12178,0.083046,0.20508,-0.13199,-0.055825,-0.0075233,-0.25009,0.17852,-0.2353,0.20706,0.084901,0.13922,0.91753,0.075693,0.10196,-0.0048732,0.077298,-0.04683,0.074649,0.040882,0.15134,0.058217,0.023954,0.24492,-0.026944,0.0087982,0.093584,0.030629,0.17688,-0.044257,-0.10479,0.0093995,0.0065924,0.086068,0.086872,-0.045116,0.071685,0.0020363,0.083484,-0.039939,-0.097532,-0.004684,0.12565,0.044838,-0.070658,0.068066,0.16599,-0.035849,0.00016981,-0.04263,0.11428,-0.026093,-0.087715,0.012005,0.12412,-0.076841,-0.012407,0.090951,0.074591,-0.025787,-0.024308,0.069467,0.040618,0.0073582,0.1454,-0.022663,0.018665,0.058336,-0.073611,-0.12393,0.041019,0.053677,0.014593,0.039202,-0.020481,0.055648,0.12805,-0.10235,-0.060036,-0.013402,0.20728,0.009291,0.050816,0.20721,0.046923,-0.027806,0.065947,0.023739,-0.010752,-0.066406,-0.061711,0.16975,0.094726
0.59836,-0.61134,-0.24082,-0.1567,0.58804,0.46396,-0.39812,0.38343,-0.18158,0.45124,-0.22943,-0.026809,0.47587,-0.58777,0.51625,-0.4974,0.25519,0.3749,0.38723,0.075693,0.94323,0.36906,-0.24408,0.19008,0.23801,0.24102,0.33559,-0.010991,0.1446,0.32324,-0.035125,-0.085218,-0.069554,-0.13752,0.065082,-0.1188,-0.075559,-0.22292,-0.16408,0.24012,0.2529,-0.27717,0.30059,0.43822,-0.042069,0.25986,0.059302,-0.1908,-0.16549,0.32035,0.17502,-0.1454,0.25303,0.19341,0.0018307,0.32397,-0.27498,-0.2503,-0.32899,-0.11306,0.096358,-0.049904,-0.26325,-0.24047,0.076639,0.10739,0.27662,0.043645,0.26144,-0.030884,0.058879,-0.14809,0.071007,0.0036623,0.14254,0.24894,0.19593,0.22901,0.30328,-0.091141,-0.33595,-0.035545,0.10079,-0.15344,0.25879,0.11391,-0.32574,-0.053311,0.091706,0.10833,-0.0025619,0.011326,-0.20837,-0.034877,0.066849,-0.21645,-0.24907,-0.051599,-0.089532,-0.17706
0.4663,-0.44672,-0.21817,-0.21225,0.40518,0.34777,-0.30599,0.37038,-0.14227,0.39039,-0.11282,0.044365,0.35388,-0.40828,0.39862,-0.37204,0.28239,0.22734,0.33287,0.10196,0.36906,0.94745,-0.14274,0.21812,0.19085,0.23868,0.33438,0.018747,0.10413,0.28668,0.012674,-0.021409,-0.028641,-0.13694,0.048824,-0.090453,0.033666,-0.12545,-0.11668,0.24431,0.13057,-0.23438,0.2281,0.34099,-0.0235,0.20433,0.037406,-0.12511,-0.042363,0.17505,0.11757,-0.13054,0.13793,0.20146,-0.0084618,0.18581,-0.17341,-0.17421,-0.21894,-0.020524,0.12187,-0.036804,-0.16193,-0.12133,0.084754,0.15825,0.20168,0.020116,0.22955,-0.04784,0.0435,-0.080064,0.078355,0.079178,0.12586,0.21966,0.074691,0.23557,0.21669,-0.065423,-0.27731,-0.017269,0.07776,-0.024087,0.19188,0.12232,-0.23134,0.016677,0.16047,0.15403,-0.017108,0.0054454,-0.083995,-0.12246,0.021333,-0.12791,-0.23545,-0.025211,-0.091591,-0.031686
-0.27667,0.51118,0.11418,-0.022773,-0.36491,-0.20335,0.41696,-0.21949,0.097446,-0.19874,0.3536,0.23168,-0.20478,0.51376,-0.26306,0.49753,-0.06537,-0.25807,-0.2782,-0.0048732,-0.24408,-0.14274,1.0379,-0.068066,-0.21542,-0.14561,-0.23572,0.13905,-0.071224,-0.23055,-0.20007,-0.19269,-0.20304,0.047011,-0.13102,0.10291,0.15273,0.29776,0.25938,-0.087925,-0.25264,0.2684,-0.39134,-0.25488,-0.012175,-0.19856,-0.13376,0.42433,-0.089472,-0.40474,-0.32884,0.32492,-0.33415,-0.2972,0.085823,-0.33381,0.29558,0.23149,0.52176,-0.029826,-0.14321,-0.1408,0.223,0.25007,-0.20388,-0.059509,-0.26527,-0.013788,-0.1383,-0.013079,-0.17327,0.10889,0.075616,-0.1644,-0.25167,-0.19916,-0.1344,-0.25206,-0.19961,-0.041371,0.24518,-0.041633,-0.12593,-0.057091,-0.030836,-0.014096,0.41144,-0.14507,-0.19815,-0.14923,-0.17786,-0.050249,0.086762,-0.11452,0.12077,0.080078,0.41611,0.14517,0.010881,0.084985
0.28694,-0.25541,-0.23368,-0.2719,0.20172,0.20709,-0.13117,0.27224,-0.17035,0.21725,0.041558,0.19056,0.25244,-0.2406,0.24936,-0.17708,0.29055,0.21368,0.17181,0.077298,0.19008,0.21812,-0.068066,0.94277,0.10701,0.16068,0.28855,-0.056726,0.20061,0.13546,0.042933,-0.14196,0.0089969,0.035967,0.123,-0.12982,0.029582,0.037749,-0.17423,0.17772,0.041301,-0.0064271,0.12004,0.16679,0.005242,0.15803,0.039031,-0.080848,0.0010275,0.14732,0.010728,-0.0072742,0.0031078,0.10663,-0.049183,0.044874,0.029689,-0.012817,0.012597,0.18723,0.1196,-0.014102,-0.056305,0.012461,0.041438,0.27376,0.094126,0.12229,0.13125,-0.12745,0.035984,-0.055492,0.050017,0.0013807,-0.041608,0.11663,-0.061551,0.079633,0.14351,-0.032354,0.0079053,-0.079508,0.2007,-0.021541,0.042633,0.083519,-0.059641,0.056374,0.13379,-0.0037672,-0.046367,0.09231,-0.15573,-0.093404,0.018978,-0.019094,-0.07149,-0.075558,0.093291,0.10318
0.18623,-0.16504,0.040329,0.1026,0.33945,0.41166,-0.12846,0.28363,0.054602,0.11126,-0.086517,-0.037734,0.16713,-0.19661,0.13686,-0.11014,0.077589,0.20932,0.19441,-0.04683,0.23801,0.19085,-0.21542,0.10701,0.94746,0.14192,0.23291,0.28522,0.063705,0.18333,-0.1877,-0.053487,-0.078017,0.054519,0.016855,-0.063902,0.20234,0.020238,-0.025872,0.062889,0.17207,-0.1153,0.23161,0.1335,0.26158,0.074794,0.099305,-0.041396,-0.23288,0.067854,0.034515,0.10773,0.04359,0.1607,0.18379,0.22858,-0.092441,-0.19367,-0.092227,-0.1684,-0.074173,-0.13039,-0.067072,-0.049843,0.031908,0.079709,0.16653,-0.0093236,0.071954,-0.023282,-0.14017,-0.0019498,-0.055178,-0.1983,0.13326,-0.018544,0.29233,0.075538,0.020382,0.075632,-0.071647,0.11894,-0.036642,-0.097221,0.11438,-0.18682,-0.16371,-0.079812,0.059134,-0.13377,-0.080554,0.092653,0.047283,0.053747,-0.17076,-0.12908,-0.12159,-0.012977,-0.094081,-0.099363
0.2749,-0.21239,-0.14637,-0.16564,0.23795,0.32432,-0.10199,0.31831,-0.093839,0.26134,0.011459,0.053544,0.2561,-0.33474,0.20165,-0.24523,0.19863,0.11381,0.1695,0.074649,0.24102,0.23868,-0.14561,0.16068,0.14192,0.94571,0.28867,0.099709,0.1617,0.26404,-0.0056194,0.064018,0.017637,0.031734,0.10762,-0.016962,0.064568,-0.0040257,-0.17034,0.13125,0.05979,-0.059526,0.20006,0.18373,0.082962,0.29712,0.14997,-0.10553,0.010308,0.14152,0.049105,-0.094848,0.044163,0.19538,-0.10494,0.16372,-0.16504,-0.14235,-0.096497,0.0024968,0.083872,0.05411,-0.022254,-0.11495,0.16438,0.14168,0.22069,0.10657,0.20669,0.064746,-0.018198,-0.014706,-0.041993,0.01396,0.019697,0.068745,0.065748,0.09173,0.063073,-0.01821,-0.12955,0.044342,0.067174,0.0044494,0.13677,0.096829,-0.091209,0.091892,0.0088567,-0.029782,0.0050458,0.093391,-0.17518,-0.02186,-0.039001,-0.096283,-0.19176,-0.03812,0.049798,0.062015
0.4277,-0.3817,-0.14275,-0.14856,0.41359,0.42955,-0.27391,0.4027,-0.086223,0.35878,-0.12954,0.079661,0.32714,-0.39142,0.34948,-0.37461,0.27509,0.22248,0.3541,0.040882,0.33559,0.33438,-0.23572,0.28855,0.23291,0.28867,0.9504,0.059152,0.16442,0.28692,-0.013989,0.011191,-0.053392,-0.078495,0.072151,-0.072832,0.033726,-0.099619,-0.13299,0.11036,0.16758,-0.13533,0.28951,0.3174,0.12712,0.30911,0.10882,-0.085093,-0.026593,0.23732,0.13262,-0.21055,0.1569,0.15246,0.019699,0.12357,-0.24303,-0.18855,-0.2055,-0.05823,0.099611,-0.02542,-0.17451,-0.20258,0.095487,0.079495,0.26882,0.077853,0.2009,0.0045868,-0.034474,-0.09951,-0.049849,-0.02851,0.066374,0.12081,0.13176,0.17742,0.19562,0.1088,-0.15463,0.045027,0.11435,0.0079919,0.18746,0.072933,-0.13581,-0.012634,0.059366,0.049905,-0.04674,0.12002,-0.1716,-0.001282,-0.035453,-0.13409,-0.23477,-0.14104,-0.043032,-0.044478
-0.13167,0.29646,0.5964,0.42594,0.042499,0.090974,0.098369,-0.0004721,0.49977,-0.02323,0.18847,-0.012534,-0.054765,0.24927,-0.104,0.22749,0.03597,0.018235,0.14283,0.15134,-0.010991,0.018747,0.13905,-0.056726,0.28522,0.099709,0.059152,1.026,-0.23584,-0.08796,-0.13036,-0.13187,-0.25598,0.14077,-0.26362,0.39294,0.31901,0.15023,0.2036,-0.15363,0.033476,0.08096,-0.011836,-0.10257,0.29907,-0.1105,-0.04419,0.10224,-0.13114,-0.20101,-0.053598,0.25447,-0.045301,0.07808,0.23865,-0.048518,0.078707,0.036075,0.25476,-0.28054,-0.27366,-0.040701,0.17832,0.054269,-0.014034,-0.10254,-0.044458,-0.22117,-0.15809,0.017188,-0.18769,0.14323,-0.10476,-0.22636,0.14101,-0.32444,0.00013101,-0.1628,-0.20367,0.25992,0.16171,0.044793,-0.11388,-0.014617,-0.17597,-0.28413,0.12245,-0.056214,-0.16694,-0.24724,0.048821,0.012358,0.076009,0.27402,-0.20738,0.10139,0.14129,-0.051571,-0.038918,-0.062021
0.22085,-0.25477,-0.26808,-0.41622,0.13804,0.2012,-0.014528,0.20971,-0.13703,0.18615,-0.011915,0.22814,0.19008,-0.11148,0.14793,-0.26466,0.1831,0.029432,0.013896,0.058217,0.1446,0.10413,-0.071224,0.20061,0.063705,0.1617,0.16442,-0.23584,0.92149,0.16174,0.045646,-0.10852,-0.069356,-0.065353,0.21456,-0.031346,-0.1367,0.17878,-0.17376,0.11962,0.019812,0.018843,0.020633,0.1003,-0.026625,0.17795,0.011175,0.11221,0.042286,0.14421,-0.08501,-0.02997,-0.00098136,-0.057738,-0.0086769,-0.0056491,-0.008464,0.020778,-0.050324,-0.0057481,0.042496,0.0060482,-0.052238,-0.15862,0.074839,0.20319,-0.024206,0.14497,0.08547,-0.12939,0.0010244,-0.067633,0.036902,0.033837,0.00048638,0.13021,0.066288,-0.049192,0.06018,-0.093869,0.074424,-0.042507,-0.051379,-0.067301,0.1665,0.038238,0.069392,0.149,0.017153,0.088204,-0.062095,0.066813,-0.082573,-0.07783,0.023707,-0.11738,-0.055685,0.072312,0.025972,0.053952
0.37591,-0.33388,-0.19003,-0.1249,0.33064,0.30634,-0.23773,0.30495,-0.12154,0.24249,-0.08702,-0.032086,0.35617,-0.38152,0.28626,-0.29284,0.2543,0.26113,0.23409,0.023954,0.32324,0.28668,-0.23055,0.13546,0.18333,0.26404,0.28692,-0.08796,0.16174,0.94158,-0.02626,-0.14308,-0.013431,-0.03051,0.060607,-0.056948,-0.017536,-0.082131,-0.16722,0.23969,0.1215,-0.15143,0.16976,0.24651,0.11466,0.26762,0.098015,-0.094629,-0.065328,0.17605,0.10181,-0.078912,0.077844,0.14743,-0.00194,0.17694,-0.16145,-0.093084,-0.20562,0.059524,0.041649,-0.01387,-0.074649,-0.12623,0.071196,0.17012,0.2354,0.082223,0.13519,-0.027684,0.047135,-0.0077276,-0.046967,0.023162,0.074156,0.10137,0.060362,0.23342,0.16814,-0.065811,-0.12814,-0.033536,0.066637,-0.010222,0.080008,0.076816,-0.24907,-0.036644,0.27055,-0.010917,-0.027651,0.025595,-0.033149,-0.056835,-0.0035557,-0.07696,-0.18758,-0.093153,0.045225,-0.0029631
0.024127,-0.33667,0.0065929,-0.21381,-0.0094892,-0.04643,-0.23397,0.052492,0.025011,0.25621,-0.11044,-0.048965,-0.0004814,-0.30465,0.061565,-0.26484,0.2264,-0.056254,0.14682,0.24492,-0.035125,0.012674,-0.20007,0.042933,-0.1877,-0.0056194,-0.013989,-0.13036,0.045646,-0.02626,0.90144,-0.052768,0.044352,0.076891,-0.026017,0.22263,-0.061681,-0.0060064,-0.0093005,0.027665,0.16093,0.051209,-0.029546,0.053211,-0.0024034,0.054206,-0.0081776,-0.089695,0.063221,0.1024,-0.042993,-0.10065,-0.013176,0.084562,-0.04252,0.010518,-0.055358,0.09675,0.082598,-0.025266,-0.032124,0.027533,-0.062629,-0.0047084,-0.0041599,0.10059,-0.028449,-0.069078,0.050627,-0.013523,0.069095,0.12865,-0.0033762,0.10886,0.059587,-0.0384,-0.078121,0.1309,0.042458,0.12633,0.061188,-0.040507,0.060508,0.074848,-0.1471,-0.067733,0.051633,0.19381,-0.016178,0.075675,0.12643,-0.013359,-0.044205,0.10995,0.022814,0.023577,-0.063481,-0.15466,0.17656,0.17986
-0.12835,-0.19912,-0.11488,-0.13209,-0.026771,0.012343,-0.1676,-0.029752,-0.094495,-0.013167,-0.15817,-0.15177,-0.1338,-0.28121,-0.068735,-0.21397,-0.050121,-0.1146,-0.073373,-0.026944,-0.085218,-0.021409,-0.19269,-0.14196,-0.053487,0.064018,0.011191,-0.13187,-0.10852,-0.14308,-0.052768,0.7988,-0.093519,0.13675,0.0011735,0.12292,0.13619,-0.039194,0.083843,-0.029586,0.022237,0.014643,0.11164,0.016286,0.11861,0.096693,0.054171,0.042691,-0.052308,-0.0090232,-0.049513,-0.021317,-0.033049,0.11482,0.10391,-0.046115,-0.070887,0.023807,0.16117,-0.077264,-0.04485,0.05677,0.0041013,-0.020447,0.094913,0.054734,0.03621,-0.02041,0.033814,0.10209,-0.050741,0.022913,-0.17748,-0.050656,0.11199,-0.046821,-0.063461,-0.038528,0.0007696,0.089347,-0.053415,0.091885,-0.018151,0.11007,-0.054462,0.030976,-0.04195,0.023421,-0.12286,-0.042244,0.04231,0.049981,-0.049446,0.1101,-0.022406,-0.013848,-0.058517,-0.091472,-0.061152,0.087375
0.041379,-0.29819,-0.15525,-0.37086,-0.051937,-0.018255,-0.22633,0.043456,-0.23131,0.14511,-0.085366,-0.044278,0.026775,-0.35217,0.0089565,-0.24583,0.11083,-0.11401,0.02736,0.0087982,-0.069554,-0.028641,-0.20304,0.0089969,-0.078017,0.017637,-0.053392,-0.25598,-0.069356,-0.013431,0.044352,-0.093519,0.82385,0.087648,-0.008972,0.083857,-0.0070769,-0.046638,-0.092539,0.086963,0.035344,-0.030584,-0.0066019,0.023883,-0.024652,0.16167,-0.0035458,-0.17565,0.012149,0.071568,-0.07229,-0.018124,-0.073228,0.10131,-0.078765,0.024138,-0.083843,-0.023652,0.020232,0.071982,-0.016031,-0.033236,-0.031537,0.021096,-0.017074,0.10667,0.081396,0.025603,0.11879,0.019833,0.035411,0.11825,0.035409,-0.012,0.0068155,-0.047935,-0.065288,0.10978,0.14909,-0.058265,-0.017045,-0.022951,0.074892,0.10453,-0.056909,-0.0062658,-0.030836,0.0038083,0.072142,-0.044566,0.0033002,0.0032037,-0.11605,0.0010182,-0.017815,-0.055893,-0.072583,-0.10598,0.055011,0.17215
-0.19367,0.28571,0.14141,0.12199,-0.15917,-0.066962,0.18395,-0.036295,0.10461,-0.041141,0.18161,-0.035464,-0.060549,0.15503,-0.12624,0.18242,-0.081584,-0.060347,-0.059601,0.093584,-0.13752,-0.13694,0.047011,0.035967,0.054519,0.031734,-0.078495,0.14077,-0.065353,-0.03051,0.076891,0.13675,0.087648,1.0162,-0.12507,0.092794,0.20073,0.14135,0.10455,-0.034641,-0.080412,0.088741,-0.066342,-0.21978,0.17764,-0.086825,0.041602,0.00051055,-0.19413,-0.19077,-0.15503,0.17028,-0.034873,0.05689,0.058312,-0.056632,0.099622,0.0052757,0.21638,-0.10858,-0.18114,-0.093095,0.21122,0.13631,-0.069795,-0.024162,-0.079927,-0.13165,-0.20537,0.11827,-0.1936,0.10656,-0.18871,-0.1549,0.028908,-0.24507,-0.076191,-0.10246,-0.16875,0.19059,0.13878,0.10472,-0.041004,0.053929,-0.19588,-0.15275,0.014136,-0.0060038,-0.13417,-0.22988,-0.015538,0.020676,0.0085303,0.13606,-0.17574,0.0722,0.047101,0.00047234,0.0065529,0.018272
0.15492,-0.24653,-0.28247,-0.20096,0.12767,0.11001,-0.075887,0.1949,-0.23745,0.17332,-0.092485,0.065548,0.10953,-0.23287,0.13026,-0.22221,0.096282,0.10221,0.089614,0.030629,0.065082,0.048824,-0.13102,0.123,0.016855,0.10762,0.072151,-0.26362,0.21456,0.060607,-0.026017,0.0011735,-0.008972,-0.12507,0.88637,-0.084984,-0.027969,0.12463,-0.037005,0.094809,0.06347,0.027028,0.048498,0.16838,-0.006335,0.11047,0.045711,0.017635,-0.054745,0.069552,-0.1328,0.0027989,0.01187,0.020389,-0.012814,0.054004,0.048013,-0.067066,-0.018404,-0.045506,-0.041857,-0.10728,-0.11451,-0.040136,0.07724,0.061033,0.12586,0.11991,0.066873,-0.068721,-0.087728,-0.0085424,0.0030176,-0.071016,0.0089874,0.098639,0.037623,0.055913,0.07276,-0.050552,-0.021591,0.015954,0.040068,-0.074422,0.042193,0.057322,-0.072842,-0.083766,0.037623,0.060161,-0.032648,0.013627,-0.065058,-0.050785,-0.011434,-0.10687,-0.10222,0.1049,-0.016864,0.050161
-0.18984,0.060268,0.62866,0.25172,-0.11872,-0.037325,-0.038052,-0.099718,0.48232,0.047121,-0.015181,-0.080577,-0.16481,0.10301,-0.05888,0.031807,0.088176,-0.13092,0.16834,0.17688,-0.1188,-0.090453,0.10291,-0.12982,-0.063902,-0.016962,-0.072832,0.39294,-0.031346,-0.056948,0.22263,0.12292,0.083857,0.092794,-0.084984,0.98908,0.16951,0.11638,0.13843,-0.17302,0.0077561,0.044308,-0.086568,-0.12492,0.21943,-0.025585,-0.074894,0.099906,-0.1633,-0.14741,-0.127,0.22098,-0.048771,0.043333,0.19261,-0.12482,0.080626,0.098541,0.21472,-0.30621,-0.27629,-0.093101,0.11496,0.15533,-0.10292,-0.11893,-0.057139,-0.19079,-0.17111,0.052879,-0.029449,0.22386,-0.065675,-0.18245,0.17353,-0.17487,-0.1321,-0.065487,-0.16933,0.23202,0.16167,0.041158,-0.059254,0.05982,-0.31381,-0.19457,0.16025,0.069227,-0.17267,-0.051391,0.24053,0.024057,0.065431,0.34766,-0.15262,0.13267,0.023213,-0.13829,0.07538,0.031676
-0.16956,0.4521,0.3525,0.46688,0.00077181,0.046597,0.18608,-0.035746,0.27544,-0.15717,0.066837,-0.069167,-0.060193,0.29,-0.11181,0.24869,-0.13088,0.13341,-0.046187,-0.044257,-0.075559,0.033666,0.15273,0.029582,0.20234,0.064568,0.033726,0.31901,-0.1367,-0.017536,-0.061681,0.13619,-0.0070769,0.20073,-0.027969,0.16951,1.105,0.11081,0.32654,-0.1743,-0.10546,0.016295,0.0027851,-0.19821,0.35334,-0.31227,0.0076358,0.08101,-0.24218,-0.22972,-0.078603,0.37422,-0.0047311,-0.034627,0.31926,-0.039588,0.13893,-0.073484,0.17791,-0.21545,-0.291,-0.20004,0.30341,0.2222,-0.09822,-0.24668,-0.11854,-0.12325,-0.1861,-0.027409,-0.24347,0.023997,-0.21903,-0.25169,0.058467,-0.25475,-0.064927,-0.1858,-0.19385,0.16909,0.083699,0.14032,-0.17709,-0.086122,-0.31094,-0.21877,-0.12167,-0.22779,-0.12486,-0.2596,-0.11769,0.092496,0.10159,0.016777,-0.28023,0.16121,0.076878,-0.036118,-0.22925,-0.19684
-0.25085,0.45566,0.1131,0.12705,-0.25896,-0.10385,0.35188,-0.065902,0.12737,-0.17745,0.2439,0.20384,-0.1163,0.46929,-0.22292,0.29463,-0.16563,-0.12063,-0.16946,-0.10479,-0.22292,-0.12545,0.29776,0.037749,0.020238,-0.0040257,-0.099619,0.15023,0.17878,-0.082131,-0.0060064,-0.039194,-0.046638,0.14135,0.12463,0.11638,0.11081,1.0463,0.18296,-0.1086,-0.21701,0.21967,-0.2238,-0.25051,0.028633,-0.20654,-0.092324,0.33002,-0.14841,-0.30149,-0.28887,0.30571,-0.22453,-0.28327,0.13491,-0.2405,0.23327,0.054303,0.29474,-0.15416,-0.15962,-0.16236,0.2048,0.15238,-0.10468,-0.028474,-0.2628,-0.011222,-0.17939,-0.085252,-0.24422,0.0088379,-0.085493,-0.061975,-0.17349,-0.16865,-0.018499,-0.21127,-0.25119,0.048903,0.17679,-0.024937,-0.21007,0.027383,-0.069777,-0.090518,0.2267,-0.1444,-0.23411,-0.16769,-0.17356,0.013119,0.023248,0.0086554,-0.01162,0.050178,0.26097,0.21382,-0.034291,-0.069642
-0.28456,0.32732,0.25531,0.35227,-0.16879,-0.12686,0.14408,-0.14719,0.25102,-0.25142,0.084726,-0.034518,-0.22038,0.37561,-0.16224,0.22067,-0.19984,-0.082735,-0.11936,0.0093995,-0.16408,-0.11668,0.25938,-0.17423,-0.025872,-0.17034,-0.13299,0.2036,-0.17376,-0.16722,-0.0093005,0.083843,-0.092539,0.10455,-0.037005,0.13843,0.32654,0.18296,1.0698,-0.29454,-0.09585,0.16823,-0.1615,-0.26811,0.14969,-0.31493,-0.042853,0.25812,-0.21523,-0.28776,-0.30135,0.33408,-0.1435,-0.1731,0.30358,-0.09284,0.087753,0.028208,0.24263,-0.31316,-0.28493,-0.21793,0.060137,0.15902,-0.11512,-0.26219,-0.23765,-0.1695,-0.2017,0.049492,-0.25377,0.015057,-0.10045,-0.17956,-0.0056606,-0.24791,0.11014,-0.23145,-0.27486,0.076966,0.17279,0.058099,-0.23424,-0.093398,-0.13848,-0.16391,0.15547,-0.27929,-0.34414,-0.13109,-0.16398,-0.061355,0.18966,0.047088,-0.1322,0.028111,0.33416,0.058832,-0.19842,-0.07463
0.26581,-0.30677,-0.19868,-0.18542,0.17097,0.14842,-0.14076,0.20965,-0.21437,0.28534,0.076687,0.13705,0.26051,-0.26779,0.17056,-0.22674,0.14041,0.10973,0.16389,0.0065924,0.24012,0.24431,-0.087925,0.17772,0.062889,0.13125,0.11036,-0.15363,0.11962,0.23969,0.027665,-0.029586,0.086963,-0.034641,0.094809,-0.17302,-0.1743,-0.1086,-0.29454,0.92318,0.036913,-0.048713,0.10246,0.31625,-0.037842,0.11419,-0.05563,-0.03917,-0.015016,0.069252,0.061754,0.0061082,-0.0015378,0.13067,-0.016768,0.19359,-0.072539,-0.067093,-0.051151,0.036234,0.15814,-0.11458,-0.092703,-0.12036,0.08555,0.14608,0.18186,0.096756,0.20304,-0.11979,0.0053498,-0.070331,0.045007,-0.03839,-0.068118,0.10363,0.05099,0.1789,0.13928,-0.052064,-0.12596,-0.019155,0.02705,-0.076283,0.15951,0.12309,-0.088693,-0.048058,0.044128,-0.035239,-0.016706,-0.013295,-0.11348,-0.15636,0.04798,-0.17069,-0.15193,0.073893,-0.032978,-0.029534
0.21369,-0.38802,-0.01013,0.011809,0.3169,0.23152,-0.36163,0.19108,0.013102,0.26304,-0.19571,-0.18205,0.13588,-0.40132,0.19175,-0.36351,0.13778,0.19389,0.30963,0.086068,0.2529,0.13057,-0.25264,0.041301,0.17207,0.05979,0.16758,0.033476,0.019812,0.1215,0.16093,0.022237,0.035344,-0.080412,0.06347,0.0077561,-0.10546,-0.21701,-0.09585,0.036913,0.9392,-0.1395,0.11463,0.21969,0.13889,0.063649,0.059204,-0.19808,-0.077291,0.19792,0.019725,-0.087081,0.16171,0.18627,0.088038,0.22465,-0.10969,-0.16295,-0.10965,-0.22365,-0.027592,0.0070219,-0.1487,-0.056907,0.10012,0.024753,0.16109,-0.086854,0.037858,-0.067005,0.06432,-0.0034357,-0.060197,-0.0098295,0.18895,0.0021751,0.096676,0.085247,0.14779,0.09184,-0.095691,0.12638,-0.020183,0.026575,0.075673,-0.071295,-0.14168,-0.086453,-0.0062288,0.012435,0.075015,0.048694,0.0052926,0.1103,-0.12812,-0.076276,-0.13278,-0.16324,-0.033621,-0.070802
-0.34116,0.31545,0.096452,-0.029558,-0.34688,-0.22534,0.29065,-0.11085,0.03084,-0.22473,0.15086,0.17242,-0.27356,0.31649,-0.22293,0.18998,-0.09104,-0.17298,-0.29738,0.086872,-0.27717,-0.23438,0.2684,-0.0064271,-0.1153,-0.059526,-0.13533,0.08096,0.018843,-0.15143,0.051209,0.014643,-0.030584,0.088741,0.027028,0.044308,0.016295,0.21967,0.16823,-0.048713,-0.1395,0.95421,-0.33138,-0.25769,0.0576,-0.13387,-0.08194,0.26645,0.012196,-0.233,-0.29379,0.10369,-0.18629,-0.21505,0.055406,-0.24111,0.20051,0.24764,0.35549,-0.043545,-0.1161,-0.091681,0.19518,0.12799,-0.045032,-0.037455,-0.16851,0.034639,-0.10306,0.031078,-0.21374,0.153,-0.034686,-0.12727,-0.11868,-0.25724,-0.16338,-0.22284,-0.21735,0.033806,0.24757,0.0095509,-0.16271,0.011826,-0.17399,-0.066537,0.31404,-0.019627,-0.15254,-0.088347,-0.10059,0.018215,0.13288,0.070976,0.0021797,0.11438,0.2797,0.014071,0.02143,0.14028
0.3112,-0.35904,-0.013718,0.13177,0.30283,0.32185,-0.31141,0.29385,-0.055739,0.19639,-0.13521,-0.14445,0.24889,-0.41106,0.25335,-0.31081,0.13709,0.25109,0.29355,-0.045116,0.30059,0.2281,-0.39134,0.12004,0.23161,0.20006,0.28951,-0.011836,0.020633,0.16976,-0.029546,0.11164,-0.0066019,-0.066342,0.048498,-0.086568,0.0027851,-0.2238,-0.1615,0.10246,0.11463,-0.33138,0.93123,0.24167,0.17259,0.23416,0.12787,-0.060067,-0.1069,0.15633,0.14453,-0.034105,0.16151,0.19896,0.092782,0.27514,-0.20865,-0.17717,-0.16947,-0.12997,0.054857,-0.022962,-0.096542,-0.12874,0.11596,0.11682,0.25569,0.035488,0.12378,-0.021334,-0.020588,-0.094892,-0.058591,-0.045713,0.13461,0.13554,0.10373,0.2332,0.062817,-0.0053261,-0.11026,0.096111,-0.017487,-0.10887,0.11625,0.0056947,-0.25319,-0.13187,0.0006918,0.051327,0.031966,-0.010672,-0.050545,0.012894,-0.10009,-0.13641,-0.19243,-0.041093,-0.11713,-0.073694
0.47144,-0.50258,-0.17298,-0.126,0.48018,0.37902,-0.32716,0.30471,-0.15829,0.40022,-0.1187,-0.035514,0.39465,-0.47016,0.4422,-0.40859,0.23751,0.32128,0.33078,0.071685,0.43822,0.34099,-0.25488,0.16679,0.1335,0.18373,0.3174,-0.10257,0.1003,0.24651,0.053211,0.016286,0.023883,-0.21978,0.16838,-0.12492,-0.19821,-0.25051,-0.26811,0.31625,0.21969,-0.25769,0.24167,0.94282,-0.0040415,0.2182,0.072216,-0.14867,-0.13771,0.26839,0.15055,-0.12305,0.17247,0.16094,0.02651,0.25885,-0.20775,-0.13992,-0.25268,-0.067531,0.072566,-0.061107,-0.2049,-0.16954,0.057331,0.14145,0.31588,0.038848,0.21592,-0.051071,0.073046,-0.10725,0.062907,0.011545,0.061211,0.15783,0.16916,0.26506,0.24487,-0.022365,-0.31173,-0.050236,0.050026,-0.10828,0.24422,0.16568,-0.20909,-0.049457,0.1099,0.11344,-0.059886,-0.078104,-0.1715,-0.026792,0.093683,-0.22828,-0.26192,-0.040332,-0.056458,-0.14547
-0.1654,0.24654,0.29643,0.41721,0.018331,0.12244,0.079283,0.11252,0.3434,-0.099873,-0.055281,-0.20426,-0.083217,0.088254,-0.081907,0.083524,-0.014704,0.079297,0.0068422,0.0020363,-0.042069,-0.0235,-0.012175,0.005242,0.26158,0.082962,0.12712,0.29907,-0.026625,0.11466,-0.0024034,0.11861,-0.024652,0.17764,-0.006335,0.21943,0.35334,0.028633,0.14969,-0.037842,0.13889,0.0576,0.17259,-0.0040415,1.0226,-0.087557,0.10523,0.08838,-0.2044,-0.13289,0.0021842,0.21517,0.0061557,0.14442,0.2472,0.017776,0.029877,-0.026161,0.12226,-0.21586,-0.24892,-0.079858,0.26081,0.20366,-0.074925,-0.081566,-0.038009,-0.086247,-0.063692,0.049797,-0.24039,-0.0087618,-0.17674,-0.25238,0.090806,-0.18993,-0.0075962,-0.091188,-0.19455,0.28977,0.096692,0.16233,-0.10994,-0.075107,-0.29734,-0.26714,-0.14265,-0.17065,-0.11612,-0.29583,-0.15541,0.059675,0.17083,0.15576,-0.28989,0.14279,0.035107,-0.085802,-0.053144,-0.10696
0.33292,-0.41009,-0.085715,-0.16466,0.2647,0.37336,-0.23339,0.31622,-0.078947,0.29556,-0.19645,0.061802,0.31113,-0.39974,0.31187,-0.37793,0.28481,0.11879,0.29592,0.083484,0.25986,0.20433,-0.19856,0.15803,0.074794,0.29712,0.30911,-0.1105,0.17795,0.26762,0.054206,0.096693,0.16167,-0.086825,0.11047,-0.025585,-0.31227,-0.20654,-0.31493,0.11419,0.063649,-0.13387,0.23416,0.2182,-0.087557,0.93686,0.066106,-0.088295,-0.056501,0.19207,0.1618,-0.1702,0.13464,0.1685,-0.072497,0.14636,-0.18044,-0.12121,-0.19481,-0.054229,0.087659,-0.10829,-0.13959,-0.10074,0.059173,0.17803,0.18754,0.030861,0.20353,-0.033977,0.023845,-0.012508,0.021266,-0.010976,-0.037305,0.11974,0.11203,0.18933,0.11159,-0.049885,-0.1466,-0.035123,0.086571,0.036512,0.10598,0.091336,-0.073953,-0.0083015,0.051442,0.071873,-0.051826,-0.012151,-0.11961,-0.01983,-0.022326,-0.13911,-0.26549,-0.10022,0.063909,0.0075633
0.057652,-0.12782,-0.027016,-0.037943,0.17914,0.1475,-0.089705,0.14372,-0.033252,0.054094,-0.099185,-0.13328,0.11065,-0.21511,0.075707,-0.15243,0.084892,0.043685,0.067616,-0.039939,0.059302,0.037406,-0.13376,0.039031,0.099305,0.14997,0.10882,-0.04419,0.011175,0.098015,-0.0081776,0.054171,-0.0035458,0.041602,0.045711,-0.074894,0.0076358,-0.092324,-0.042853,-0.05563,0.059204,-0.08194,0.12787,0.072216,0.10523,0.066106,0.92195,-0.0072924,-0.013398,0.040158,-0.05562,0.078846,0.052195,0.083216,0.077442,0.060596,-0.13572,-0.058378,-0.054102,-0.10067,-0.15309,-0.008398,-0.047191,-0.080224,0.14456,0.014191,0.15585,0.012654,0.039566,0.078796,-0.1429,-0.021992,-0.19272,-0.047743,0.12776,-0.044238,0.1453,0.0149,-0.0028337,0.10118,-0.034908,0.060448,-0.030132,-0.023333,0.043046,-0.033814,-0.088588,-0.10507,0.029169,-0.04619,-0.10435,0.13161,0.027173,0.054816,-0.12485,-0.019663,-0.10682,0.011403,-0.082044,-0.11619
-0.26103,0.41173,0.11058,0.13409,-0.22605,-0.08901,0.32067,-0.15237,0.1138,-0.2476,0.11398,0.11246,-0.1397,0.40134,-0.23212,0.29468,-0.21442,-0.14516,-0.25005,-0.097532,-0.1908,-0.12511,0.42433,-0.080848,-0.041396,-0.10553,-0.085093,0.10224,0.11221,-0.094629,-0.089695,0.042691,-0.17565,0.00051055,0.017635,0.099906,0.08101,0.33002,0.25812,-0.03917,-0.19808,0.26645,-0.060067,-0.14867,0.08838,-0.088295,-0.0072924,0.98363,-0.14327,-0.33701,-0.23775,0.29916,-0.16788,-0.29552,0.2721,-0.19637,0.20998,0.1357,0.28629,-0.11459,-0.2274,-0.21492,0.27249,0.17764,-0.14737,-0.18327,-0.23825,0.014292,-0.16532,0.055794,-0.22643,-0.043161,-0.15158,-0.19231,-0.10748,-0.18251,-0.042498,-0.21742,-0.25877,-0.025327,0.04093,0.042479,-0.28662,-0.10216,-0.10776,-0.0095863,0.25016,-0.14532,-0.22867,-0.15906,-0.22602,-0.1223,0.078623,0.031508,0.0021947,0.012547,0.22268,0.10248,-0.11448,-0.071565
-0.059417,-0.18228,-0.14271,-0.27284,-0.12615,-0.062469,-0.1579,0.003509,-0.087707,0.011739,0.032029,0.014146,-0.069534,-0.20078,-0.020872,-0.20895,0.13345,-0.14731,-0.066742,-0.004684,-0.16549,-0.042363,-0.089472,0.0010275,-0.23288,0.010308,-0.026593,-0.13114,0.042286,-0.065328,0.063221,-0.052308,0.012149,-0.19413,-0.054745,-0.1633,-0.24218,-0.14841,-0.21523,-0.015016,-0.077291,0.012196,-0.1069,-0.13771,-0.2044,-0.056501,-0.013398,-0.14327,0.84273,-0.049811,-0.10319,-0.040049,-0.080329,0.13295,-0.01341,-0.043065,0.038274,0.089951,0.10395,0.13568,0.012172,0.045567,0.028964,0.043384,0.035817,0.20858,0.024421,0.057441,-0.034255,0.085239,0.082256,0.13915,0.021257,0.0086736,0.083439,-0.052531,-0.10894,0.046605,-0.043409,0.026357,0.087312,-0.015122,0.013901,0.11259,0.003652,-0.040444,0.10505,0.061535,0.039301,-0.012541,0.024612,0.084368,-0.076785,-0.11532,-0.028584,0.0095896,-0.013333,-0.0073057,0.10932,0.15975
0.38597,-0.53244,-0.23903,-0.22546,0.41484,0.28004,-0.39727,0.27035,-0.15825,0.32748,-0.23236,-0.07785,0.27256,-0.51627,0.32337,-0.44815,0.19221,0.21846,0.27594,0.12565,0.32035,0.17505,-0.40474,0.14732,0.067854,0.14152,0.23732,-0.20101,0.14421,0.17605,0.1024,-0.0090232,0.071568,-0.19077,0.069552,-0.14741,-0.22972,-0.30149,-0.28776,0.069252,0.19792,-0.233,0.15633,0.26839,-0.13289,0.19207,0.040158,-0.33701,-0.049811,0.91367,0.074104,-0.13262,0.096228,0.14898,-0.064708,0.24278,-0.22517,-0.15188,-0.28824,-0.033782,0.056785,-0.017313,-0.21291,-0.11638,0.10258,0.091735,0.21692,-0.024154,0.16609,-0.028108,0.057013,-0.056994,-0.012151,0.064476,0.1021,0.17044,0.1384,0.19348,0.24988,-0.12932,-0.19774,0.02961,0.053133,0.025567,0.14959,0.06175,-0.21557,0.036401,0.11474,0.14636,0.048839,0.030952,-0.19573,-0.07031,-0.003713,-0.11984,-0.25171,-0.12867,-0.0026158,-0.098089
0.19773,-0.39062,-0.074949,-0.083056,0.25515,0.15467,-0.22649,0.21907,-0.068738,0.11227,-0.26139,-0.22416,0.12594,-0.46084,0.16351,-0.29748,0.1317,0.14043,0.24026,0.044838,0.17502,0.11757,-0.32884,0.010728,0.034515,0.049105,0.13262,-0.053598,-0.08501,0.10181,-0.042993,-0.049513,-0.07229,-0.15503,-0.1328,-0.127,-0.078603,-0.28887,-0.30135,0.061754,0.019725,-0.29379,0.14453,0.15055,0.0021842,0.1618,-0.05562,-0.23775,-0.10319,0.074104,0.88441,-0.053659,0.19093,0.20141,0.036344,0.27958,-0.2053,-0.12566,-0.21877,-0.10236,-0.05633,-0.0061105,0.052205,-0.030694,-0.025161,0.096042,0.19091,-0.1025,0.12402,0.010361,0.019287,0.026373,0.03285,-0.045177,0.081295,0.086846,0.070183,0.219,0.16541,-0.038107,-0.18228,0.11134,0.11283,0.034948,0.052512,-0.011088,-0.22386,0.019264,0.048653,-0.012654,0.039903,0.044305,-0.077953,0.0011453,-0.10645,0.03713,-0.20159,-0.13327,-0.000878,-0.11504
-0.26392,0.37989,0.28815,0.28913,-0.11703,-0.14785,0.25252,-0.13315,0.2516,-0.25409,0.10677,0.037409,-0.18508,0.41215,-0.22767,0.35734,-0.19151,-0.041747,-0.1927,-0.070658,-0.1454,-0.13054,0.32492,-0.0072742,0.10773,-0.094848,-0.21055,0.25447,-0.02997,-0.078912,-0.10065,-0.021317,-0.018124,0.17028,0.0027989,0.22098,0.37422,0.30571,0.33408,0.0061082,-0.087081,0.10369,-0.034105,-0.12305,0.21517,-0.1702,0.078846,0.29916,-0.040049,-0.13262,-0.053659,1.0934,-0.16965,-0.141,0.1448,-0.17787,0.10307,-0.012433,0.29056,-0.19819,-0.27211,-0.14198,0.33551,0.29265,-0.19749,-0.12322,-0.25255,-0.10291,-0.20351,-0.057809,-0.2315,-0.011744,-0.017496,-0.25253,-0.054524,-0.19631,0.0054787,-0.27944,-0.24647,0.029662,0.19623,-0.033656,-0.23839,-0.035123,-0.25458,-0.13663,0.096516,-0.21024,-0.25805,-0.27525,-0.21891,-0.079145,0.21201,0.024415,-0.12401,0.04384,0.2284,0.078096,-0.064587,-0.17423
0.2096,-0.27596,0.021377,0.04952,0.2641,0.21604,-0.24592,0.1337,-0.018054,0.18212,-0.28585,-0.25126,0.25732,-0.2803,0.18761,-0.32875,0.06854,0.18164,0.16155,0.068066,0.25303,0.13793,-0.33415,0.0031078,0.04359,0.044163,0.1569,-0.045301,-0.00098136,0.077844,-0.013176,-0.033049,-0.073228,-0.034873,0.01187,-0.048771,-0.0047311,-0.22453,-0.1435,-0.0015378,0.16171,-0.18629,0.16151,0.17247,0.0061557,0.13464,0.052195,-0.16788,-0.080329,0.096228,0.19093,-0.16965,0.95244,0.19616,0.081113,0.20451,-0.18438,-0.1982,-0.24801,-0.16321,-0.17902,-0.090654,-0.017347,-0.068865,0.028759,0.027621,0.12041,-0.053302,0.039096,0.021823,0.019933,-0.055482,-0.10176,-0.049664,0.051552,0.028958,0.14786,0.11999,0.0087347,0.11829,-0.30843,0.11939,-0.045305,-0.0011761,0.010414,-0.093846,-0.21859,0.0055434,0.065211,-0.018787,0.027351,0.0031932,-0.020348,0.13123,-0.081476,-0.046277,-0.26034,-0.17544,-0.091088,-0.14959
0.20489,-0.30937,0.12308,0.063379,0.22569,0.23179,-0.30029,0.29518,0.1543,0.25188,-0.12072,-0.14998,0.19089,-0.35599,0.2005,-0.29449,0.17386,0.22417,0.31169,0.16599,0.19341,0.20146,-0.2972,0.10663,0.1607,0.19538,0.15246,0.07808,-0.057738,0.14743,0.084562,0.11482,0.10131,0.05689,0.020389,0.043333,-0.034627,-0.28327,-0.1731,0.13067,0.18627,-0.21505,0.19896,0.16094,0.14442,0.1685,0.083216,-0.29552,0.13295,0.14898,0.20141,-0.141,0.19616,0.94284,0.071673,0.22727,-0.12535,-0.16966,-0.10843,-0.0070248,0.036362,0.022212,0.011482,0.017495,0.099666,0.19351,0.18351,-0.033093,0.049285,0.043263,0.083493,-0.003955,-0.0352,0.019887,0.1581,0.061403,0.0090752,0.13461,0.060029,0.15325,-0.10665,0.16215,0.1208,-0.00201,-0.14563,-0.027327,-0.26292,0.081896,0.072236,-0.029731,0.099685,0.063586,0.019548,0.09909,-0.13642,0.017911,-0.17837,-0.13596,0.069872,-0.017104
-0.1376,0.20718,0.19758,0.35291,-0.023093,0.069026,0.026569,-0.028317,0.2476,-0.080409,-0.056697,-0.029162,-0.071497,0.16928,-0.067784,0.077356,-0.046509,0.038112,0.079076,-0.035849,0.0018307,-0.0084618,0.085823,-0.049183,0.18379,-0.10494,0.019699,0.23865,-0.0086769,-0.00194,-0.04252,0.10391,-0.078765,0.058312,-0.012814,0.19261,0.31926,0.13491,0.30358,-0.016768,0.088038,0.055406,0.092782,0.02651,0.2472,-0.072497,0.077442,0.2721,-0.01341,-0.064708,0.036344,0.1448,0.081113,0.071673,1.06,-0.0045537,0.079863,-0.051008,0.10024,-0.2349,-0.29972,-0.23702,0.094676,0.043977,-0.095846,-0.18457,-0.10938,-0.080347,-0.12648,-0.076948,-0.20161,0.02446,-0.18432,-0.22979,0.17061,-0.12931,0.03077,-0.12825,-0.17066,0.11462,0.019146,0.038356,-0.1783,-0.05832,-0.18085,-0.14718,0.023165,-0.23734,-0.18054,-0.17504,-0.086021,-0.036585,0.10336,0.070062,-0.17501,0.051868,0.032661,-0.019877,-0.18204,-0.12782
0.39327,-0.38072,-0.032925,0.025574,0.32154,0.22448,-0.33121,0.19723,-0.034649,0.26086,-0.16405,-0.11331,0.31029,-0.38197,0.28068,-0.24957,0.22357,0.36142,0.3345,0.00016981,0.32397,0.18581,-0.33381,0.044874,0.22858,0.16372,0.12357,-0.048518,-0.0056491,0.17694,0.010518,-0.046115,0.024138,-0.056632,0.054004,-0.12482,-0.039588,-0.2405,-0.09284,0.19359,0.22465,-0.24111,0.27514,0.25885,0.017776,0.14636,0.060596,-0.19637,-0.043065,0.24278,0.27958,-0.17787,0.20451,0.22727,-0.0045537,0.98712,-0.25146,-0.22111,-0.19977,-0.23456,-0.076122,-0.11775,-0.13135,-0.060241,-0.021295,0.048137,0.23803,-0.1835,0.10297,-0.10108,-0.031055,-0.14711,0.043758,-0.1328,0.04946,0.1158,0.14023,0.17171,0.10855,-0.0092588,-0.28556,0.077389,0.01694,-0.10889,-0.010975,-0.047268,-0.33373,-0.1361,0.03641,-0.029326,0.0074034,-0.055077,-0.1403,-0.021594,-0.08627,-0.15758,-0.21015,-0.11012,-0.1065,-0.071767
-0.3002,0.39181,0.063661,-0.03061,-0.30209,-0.21813,0.31361,-0.21273,0.056804,-0.23935,0.18236,0.13516,-0.22439,0.43563,-0.27888,0.30589,-0.14423,-0.17956,-0.24619,-0.04263,-0.27498,-0.17341,0.29558,0.029689,-0.092441,-0.16504,-0.24303,0.078707,-0.008464,-0.16145,-0.055358,-0.070887,-0.083843,0.099622,0.048013,0.080626,0.13893,0.23327,0.087753,-0.072539,-0.10969,0.20051,-0.20865,-0.20775,0.029877,-0.18044,-0.13572,0.20998,0.038274,-0.22517,-0.2053,0.10307,-0.18438,-0.12535,0.079863,-0.25146,0.95138,0.21171,0.39929,-0.035712,-0.19177,-0.12858,0.24801,0.22028,-0.21522,-0.081602,-0.18176,-0.012584,-0.18603,-0.010564,-0.076529,0.050456,-0.020565,-0.20131,-0.13244,-0.21974,-0.16245,-0.18433,-0.23265,-0.028151,0.23364,0.025381,-0.080958,0.037724,-0.11809,-0.13085,0.23314,-0.056893,-0.06246,-0.18245,-0.078247,-0.028848,0.035529,0.039959,-0.083145,0.17515,0.29971,0.12725,-0.012898,0.033108
-0.2498,0.15403,0.023683,-0.17832,-0.28523,-0.23531,0.20015,-0.20594,0.058525,-0.17515,0.16992,0.10212,-0.23126,0.15382,-0.2076,0.21582,-0.026826,-0.20838,-0.22959,0.11428,-0.2503,-0.17421,0.23149,-0.012817,-0.19367,-0.14235,-0.18855,0.036075,0.020778,-0.093084,0.09675,0.023807,-0.023652,0.0052757,-0.067066,0.098541,-0.073484,0.054303,0.028208,-0.067093,-0.16295,0.24764,-0.17717,-0.13992,-0.026161,-0.12121,-0.058378,0.1357,0.089951,-0.15188,-0.12566,-0.012433,-0.1982,-0.16966,-0.051008,-0.22111,0.21171,0.96307,0.34627,0.0029948,-0.074917,-0.02368,0.1072,0.20914,-0.11268,-0.030578,-0.13423,-0.065476,-0.017635,0.095306,-0.022495,0.11804,0.10175,-0.021312,-0.097688,-0.15624,-0.23705,-0.15767,-0.14737,-0.028421,0.17105,-0.032293,-0.012055,0.072081,-0.14129,0.047124,0.21185,-0.032579,-0.052993,-0.12465,-0.02461,-0.095309,0.021722,-0.014254,0.066214,0.13524,0.12748,-0.008715,0.096848,0.082705
-0.48137,0.56145,0.2634,0.10594,-0.39975,-0.30546,0.40318,-0.29619,0.25436,-0.26907,0.36713,0.19624,-0.38088,0.54821,-0.38481,0.57902,-0.088804,-0.2596,-0.35593,-0.026093,-0.32899,-0.21894,0.52176,0.012597,-0.092227,-0.096497,-0.2055,0.25476,-0.050324,-0.20562,0.082598,0.16117,0.020232,0.21638,-0.018404,0.21472,0.17791,0.29474,0.24263,-0.051151,-0.10965,0.35549,-0.16947,-0.25268,0.12226,-0.19481,-0.054102,0.28629,0.10395,-0.28824,-0.21877,0.29056,-0.24801,-0.10843,0.10024,-0.19977,0.39929,0.34627,1.0621,-0.092023,-0.20069,-0.10732,0.32803,0.27817,-0.17278,-0.023239,-0.29999,-0.15603,-0.22614,-0.036298,-0.15526,0.1254,-0.038012,-0.25022,-0.19588,-0.34665,-0.26948,-0.31824,-0.4046,0.12232,0.36564,-0.05887,-0.18258,0.02716,-0.25573,-0.13363,0.38256,-0.11657,-0.17702,-0.27424,-0.14341,-0.1031,0.17868,0.017607,-0.12015,0.1585,0.40791,0.083091,-0.061632,0.19534
-0.013214,-0.075566,-0.30808,-0.38272,-0.071151,-0.071063,0.048176,0.021798,-0.27894,-0.024855,0.098843,0.065569,-0.0018975,-0.14577,-0.026392,0.0096979,0.12228,-0.12264,-0.15324,-0.087715,-0.11306,-0.020524,-0.029826,0.18723,-0.1684,0.0024968,-0.05823,-0.28054,-0.0057481,0.059524,-0.025266,-0.077264,0.071982,-0.10858,-0.045506,-0.30621,-0.21545,-0.15416,-0.31316,0.036234,-0.22365,-0.043545,-0.12997,-0.067531,-0.21586,-0.054229,-0.10067,-0.11459,0.13568,-0.033782,-0.10236,-0.19819,-0.16321,-0.0070248,-0.2349,-0.23456,-0.035712,0.0029948,-0.092023,0.83619,0.078114,-0.0065654,0.060838,0.072414,-0.01669,0.18348,0.026958,-0.026655,0.04149,0.045114,0.078425,0.10125,-0.065725,0.047939,-0.052164,-0.077798,-0.13209,0.09353,0.057123,-0.086676,0.039534,0.0060863,0.083629,0.10571,0.0060721,0.098946,0.002338,0.034844,0.19841,0.025741,-0.027185,0.037506,-0.1406,-0.13582,0.054955,0.011396,-0.011227,0.0092071,0.10606,0.081714
0.16977,-0.2657,-0.28708,-0.31776,0.055194,0.011747,-0.089708,0.093831,-0.27407,0.13258,0.047075,0.078542,0.046068,-0.25554,0.13416,-0.14059,0.09579,-0.010172,0.064609,0.012005,0.096358,0.12187,-0.14321,0.1196,-0.074173,0.083872,0.099611,-0.27366,0.042496,0.041649,-0.032124,-0.04485,-0.016031,-0.18114,-0.041857,-0.27629,-0.291,-0.15962,-0.28493,0.15814,-0.027592,-0.1161,0.054857,0.072566,-0.24892,0.087659,-0.15309,-0.2274,0.012172,0.056785,-0.05633,-0.27211,-0.17902,0.036362,-0.29972,-0.076122,-0.19177,-0.074917,-0.20069,0.078114,0.86766,0.030724,-0.070582,-0.0077801,0.065269,0.2423,0.082161,0.094932,0.13292,-0.0048636,0.10766,-0.040944,0.084622,0.040251,-0.084209,0.069951,0.0072157,0.097666,0.076604,-0.19801,-0.055531,-0.079292,-0.021073,0.020902,0.13419,0.13646,-0.083417,0.021363,0.063111,-0.02197,-0.043711,-0.026038,-0.18925,-0.1883,0.074001,-0.078457,-0.008352,0.058972,0.026228,0.07149
0.023293,-0.15054,-0.052277,-0.14604,-0.0074466,-0.079446,-0.062751,-0.015344,-0.02025,-0.018308,0.0086878,-0.10386,-0.019063,-0.18808,-0.026582,-0.13989,0.097962,-0.02522,-0.027653,0.12412,-0.049904,-0.036804,-0.1408,-0.014102,-0.13039,0.05411,-0.02542,-0.040701,0.0060482,-0.01387,0.027533,0.05677,-0.033236,-0.093095,-0.10728,-0.093101,-0.20004,-0.16236,-0.21793,-0.11458,0.0070219,-0.091681,-0.022962,-0.061107,-0.079858,-0.10829,-0.008398,-0.21492,0.045567,-0.017313,-0.0061105,-0.14198,-0.090654,0.022212,-0.23702,-0.11775,-0.12858,-0.02368,-0.10732,-0.0065654,0.030724,0.86634,0.10063,0.099124,0.011205,0.12777,0.027028,0.037709,0.079138,0.1029,-0.014995,0.012695,-0.017095,0.077928,0.013248,-0.020694,-0.041491,0.030734,0.038728,-0.0014123,0.11095,0.034067,-0.01213,0.045925,-0.075841,0.0092679,0.023539,0.03718,-0.09324,0.00037405,0.09524,0.096794,0.05635,0.072009,-0.015091,0.040101,0.041522,-0.069203,0.064368,0.14909
-0.34889,0.55899,0.15702,0.18803,-0.23235,-0.18435,0.44031,-0.19869,0.19508,-0.27209,0.14869,-0.035959,-0.19365,0.38737,-0.26479,0.45933,-0.13192,-0.11848,-0.32313,-0.076841,-0.26325,-0.16193,0.223,-0.056305,-0.067072,-0.022254,-0.17451,0.17832,-0.052238,-0.074649,-0.062629,0.0041013,-0.031537,0.21122,-0.11451,0.11496,0.30341,0.2048,0.060137,-0.092703,-0.1487,0.19518,-0.096542,-0.2049,0.26081,-0.13959,-0.047191,0.27249,0.028964,-0.21291,0.052205,0.33551,-0.017347,0.011482,0.094676,-0.13135,0.24801,0.1072,0.32803,0.060838,-0.070582,0.10063,1.0334,0.29304,-0.2178,-0.045857,-0.20059,-0.025174,-0.19754,0.10762,-0.16677,0.037373,-0.17426,-0.2828,-0.10622,-0.35172,-0.16842,-0.20482,-0.20763,0.086915,0.16255,0.10944,-0.22603,-0.028879,-0.34747,-0.18183,0.084556,-0.11736,-0.10547,-0.38624,-0.17527,-0.018653,0.14471,0.076473,-0.15149,0.28379,0.19562,0.056052,-0.074768,-0.049017
-0.2544,0.28406,0.1667,0.085326,-0.21719,-0.23516,0.16217,-0.17069,0.10862,-0.20217,0.13821,-0.091255,-0.20763,0.23525,-0.21681,0.29485,-0.08118,-0.076471,-0.16876,-0.012407,-0.24047,-0.12133,0.25007,0.012461,-0.049843,-0.11495,-0.20258,0.054269,-0.15862,-0.12623,-0.0047084,-0.020447,0.021096,0.13631,-0.040136,0.15533,0.2222,0.15238,0.15902,-0.12036,-0.056907,0.12799,-0.12874,-0.16954,0.20366,-0.10074,-0.080224,0.17764,0.043384,-0.11638,-0.030694,0.29265,-0.068865,0.017495,0.043977,-0.060241,0.22028,0.20914,0.27817,0.072414,-0.0077801,0.099124,0.29304,1.0221,-0.20845,-0.013564,-0.15386,-0.13905,-0.17467,0.033981,-0.17672,0.14244,0.020194,-0.2109,-0.038341,-0.14736,-0.16954,-0.12417,-0.20535,0.063371,0.11851,0.077359,-0.042284,0.0036596,-0.3772,-0.11363,0.056585,-0.099506,-0.10518,-0.22365,-0.12611,-0.02402,0.14159,0.0065061,-0.084716,0.22843,0.17814,-0.027848,0.053877,0.012513
0.12072,-0.23327,-0.045719,-0.047072,0.12819,0.12053,-0.18039,0.18834,-0.11221,0.16961,-0.12509,0.0023808,0.062953,-0.23223,0.12469,-0.2414,0.052413,0.08439,0.1567,0.090951,0.076639,0.084754,-0.20388,0.041438,0.031908,0.16438,0.095487,-0.014034,0.074839,0.071196,-0.0041599,0.094913,-0.017074,-0.069795,0.07724,-0.10292,-0.09822,-0.10468,-0.11512,0.08555,0.10012,-0.045032,0.11596,0.057331,-0.074925,0.059173,0.14456,-0.14737,0.035817,0.10258,-0.025161,-0.19749,0.028759,0.099666,-0.095846,-0.021295,-0.21522,-0.11268,-0.17278,-0.01669,0.065269,0.011205,-0.2178,-0.20845,0.91401,0.076306,0.12433,0.095425,0.10204,-0.036543,-0.085092,0.07149,-0.090829,0.027874,0.039513,0.09029,0.023832,0.039475,0.0073624,0.020439,-0.0076742,0.12265,0.020595,-0.023298,0.032563,0.0039182,-0.10856,-0.0024743,0.0278,0.052231,0.046719,0.093533,-0.044282,0.031875,-0.04764,-0.090413,-0.15383,-0.071453,0.033047,0.0028168
0.21161,-0.24386,-0.1284,-0.23909,0.09829,0.16125,-0.11265,0.20658,-0.099361,0.18692,0.093943,0.14772,0.17172,-0.18259,0.1654,-0.10645,0.25016,0.058158,0.10053,0.074591,0.10739,0.15825,-0.059509,0.27376,0.079709,0.14168,0.079495,-0.10254,0.20319,0.17012,0.10059,0.054734,0.10667,-0.024162,0.061033,-0.11893,-0.24668,-0.028474,-0.26219,0.14608,0.024753,-0.037455,0.11682,0.14145,-0.081566,0.17803,0.014191,-0.18327,0.20858,0.091735,0.096042,-0.12322,0.027621,0.19351,-0.18457,0.048137,-0.081602,-0.030578,-0.023239,0.18348,0.2423,0.12777,-0.045857,-0.013564,0.076306,0.93509,0.13543,-0.015517,0.13729,0.035245,0.053354,0.021781,0.099271,0.080567,-0.049227,0.09894,-0.11408,0.12281,0.060238,-0.051118,0.018735,-0.0050918,0.084853,0.11233,0.018863,0.11094,-0.039034,0.069297,0.21375,0.065518,0.01652,0.074013,-0.078428,-0.048194,0.0097138,0.10116,-0.059122,-0.035937,0.11931,0.1379
0.34701,-0.33517,-0.082898,-0.11249,0.33841,0.29375,-0.28922,0.27877,-0.1374,0.32302,-0.13514,-0.0069768,0.27123,-0.41251,0.27301,-0.32721,0.22367,0.20839,0.25246,-0.025787,0.27662,0.20168,-0.26527,0.094126,0.16653,0.22069,0.26882,-0.044458,-0.024206,0.2354,-0.028449,0.03621,0.081396,-0.079927,0.12586,-0.057139,-0.11854,-0.2628,-0.23765,0.18186,0.16109,-0.16851,0.25569,0.31588,-0.038009,0.18754,0.15585,-0.23825,0.024421,0.21692,0.19091,-0.25255,0.12041,0.18351,-0.10938,0.23803,-0.18176,-0.13423,-0.29999,0.026958,0.082161,0.027028,-0.20059,-0.15386,0.12433,0.13543,0.93689,0.020288,0.24401,0.086878,0.054253,-0.0054803,-0.0041546,-0.083401,0.063172,0.096608,0.075496,0.19525,0.12611,0.011424,-0.18066,0.068599,0.088023,-0.086824,0.0777,0.060792,-0.13235,-0.021968,0.1183,0.034569,0.031393,0.013702,-0.14518,-0.017058,-0.066727,-0.095306,-0.21299,-0.046194,-0.012748,-0.026935
0.080627,-0.058957,-0.32458,-0.17383,0.060672,0.092518,0.029498,0.12067,-0.16914,0.014535,-0.0092142,0.12265,0.044731,-0.12821,0.026515,-0.13056,0.047265,0.013668,-0.054389,-0.024308,0.043645,0.020116,-0.013788,0.12229,-0.0093236,0.10657,0.077853,-0.22117,0.14497,0.082223,-0.069078,-0.02041,0.025603,-0.13165,0.11991,-0.19079,-0.12325,-0.011222,-0.1695,0.096756,-0.086854,0.034639,0.035488,0.038848,-0.086247,0.030861,0.012654,0.014292,0.057441,-0.024154,-0.1025,-0.10291,-0.053302,-0.033093,-0.080347,-0.1835,-0.012584,-0.065476,-0.15603,-0.026655,0.094932,0.037709,-0.025174,-0.13905,0.095425,-0.015517,0.020288,0.91218,0.069452,-0.029401,-0.025837,-0.046627,-0.082748,-0.14418,-0.079121,0.004999,0.087276,-0.015272,0.033822,-0.066623,0.0013983,0.030807,-0.086156,-0.062496,0.094219,-0.027074,-0.008643,-0.022175,-0.050438,-0.067782,-0.10898,0.053926,-0.10808,-0.044262,0.026818,-0.068995,0.016941,0.063236,-0.039589,0.016612
0.32463,-0.32695,-0.17068,-0.1902,0.2532,0.2509,-0.17882,0.27123,-0.20076,0.2613,-0.08015,0.11428,0.27796,-0.3785,0.27299,-0.27521,0.17834,0.13987,0.15358,0.069467,0.26144,0.22955,-0.1383,0.13125,0.071954,0.20669,0.2009,-0.15809,0.08547,0.13519,0.050627,0.033814,0.11879,-0.20537,0.066873,-0.17111,-0.1861,-0.17939,-0.2017,0.20304,0.037858,-0.10306,0.12378,0.21592,-0.063692,0.20353,0.039566,-0.16532,-0.034255,0.16609,0.12402,-0.20351,0.039096,0.049285,-0.12648,0.10297,-0.18603,-0.017635,-0.22614,0.04149,0.13292,0.079138,-0.19754,-0.17467,0.10204,0.13729,0.24401,0.069452,0.92967,0.017709,0.041559,-0.078229,0.10486,0.01893,0.01666,0.047661,0.044517,0.1349,0.2125,-0.08728,-0.057702,-0.06663,0.05342,-0.037099,0.15256,0.14276,-0.011111,-0.05701,0.044123,0.045959,-0.04648,0.040878,-0.065054,-0.12198,0.050653,-0.19574,-0.13547,0.0052028,-0.049504,-0.085122
-0.10792,0.058844,0.042319,0.027589,-0.025159,0.026316,0.035826,-0.07943,0.10085,0.0033969,0.020867,-0.11199,-0.03615,-0.017956,-0.1024,0.035691,0.014405,-0.087458,-0.053111,0.040618,-0.030884,-0.04784,-0.013079,-0.12745,-0.023282,0.064746,0.0045868,0.017188,-0.12939,-0.027684,-0.013523,0.10209,0.019833,0.11827,-0.068721,0.052879,-0.027409,-0.085252,0.049492,-0.11979,-0.067005,0.031078,-0.021334,-0.051071,0.049797,-0.033977,0.078796,0.055794,0.085239,-0.028108,0.010361,-0.057809,0.021823,0.043263,-0.076948,-0.10108,-0.010564,0.095306,-0.036298,0.045114,-0.0048636,0.1029,0.10762,0.033981,-0.036543,0.035245,0.086878,-0.029401,0.017709,0.9437,-0.16586,0.11672,-0.0822,-0.042685,0.048172,-0.13635,-0.018359,0.020001,-0.11312,0.022452,-0.007159,0.20438,-0.025042,0.11098,-0.065237,-0.11698,0.064021,-0.009587,0.013787,-0.10218,-0.050948,0.024475,-0.060078,0.16501,-0.063667,0.087032,-0.0032381,-0.023042,-0.003552,-0.002918
0.11916,-0.35573,-0.079915,-0.30942,0.033588,0.015008,-0.24726,0.044597,-0.089065,0.10136,-0.087217,-0.038167,-0.03043,-0.30437,0.12017,-0.25403,0.16684,0.021841,0.084109,0.0073582,0.058879,0.0435,-0.17327,0.035984,-0.14017,-0.018198,-0.034474,-0.18769,0.0010244,0.047135,0.069095,-0.050741,0.035411,-0.1936,-0.087728,-0.029449,-0.24347,-0.24422,-0.25377,0.0053498,0.06432,-0.21374,-0.020588,0.073046,-0.24039,0.023845,-0.1429,-0.22643,0.082256,0.057013,0.019287,-0.2315,0.019933,0.083493,-0.20161,-0.031055,-0.076529,-0.022495,-0.15526,0.078425,0.10766,-0.014995,-0.16677,-0.17672,-0.085092,0.053354,0.054253,-0.025837,0.041559,-0.16586,0.87109,0.052756,0.1561,0.02326,0.095388,0.026697,-0.081751,0.13974,0.051418,-0.026928,-0.042185,0.0049057,0.098156,0.040824,0.035094,0.16452,0.0086417,0.092179,0.05252,0.07069,0.1554,0.014888,-0.038747,-0.077429,-0.0058026,0.012788,-0.093758,-0.090618,0.050276,0.10246
-0.16318,0.04569,0.15884,-0.024112,-0.12255,-0.15156,0.03444,-0.084956,0.12016,-0.02739,0.077069,-0.022753,-0.094026,0.042354,-0.085909,0.078074,0.11113,-0.101,0.0052199,0.1454,-0.14809,-0.080064,0.10889,-0.055492,-0.0019498,-0.014706,-0.09951,0.14323,-0.067633,-0.0077276,0.12865,0.022913,0.11825,0.10656,-0.0085424,0.22386,0.023997,0.0088379,0.015057,-0.070331,-0.0034357,0.153,-0.094892,-0.10725,-0.0087618,-0.012508,-0.021992,-0.043161,0.13915,-0.056994,0.026373,-0.011744,-0.055482,-0.003955,0.02446,-0.14711,0.050456,0.11804,0.1254,0.10125,-0.040944,0.012695,0.037373,0.14244,0.07149,0.021781,-0.0054803,-0.046627,-0.078229,0.11672,0.052756,0.97449,-0.00016816,-0.1885,0.036818,-0.23897,-0.14048,-0.07276,-0.032489,0.10175,0.16367,0.0046433,-0.096048,0.20731,-0.27518,-0.19882,0.14043,0.012325,-0.067782,-0.091206,0.10155,-0.0040234,0.040032,0.043509,-0.11999,0.083053,-0.017703,-0.094643,0.07395,0.074361
0.1229,-0.22732,-0.075656,-0.30073,-0.011372,-0.079623,-0.10795,-0.048904,-0.024476,0.039773,0.077037,0.0061474,0.042645,-0.10693,0.059358,-0.029639,0.073305,-0.067976,0.0024772,-0.022663,0.071007,0.078355,0.075616,0.050017,-0.055178,-0.041993,-0.049849,-0.10476,0.036902,-0.046967,-0.0033762,-0.17748,0.035409,-0.18871,0.0030176,-0.065675,-0.21903,-0.085493,-0.10045,0.045007,-0.060197,-0.034686,-0.058591,0.062907,-0.17674,0.021266,-0.19272,-0.15158,0.021257,-0.012151,0.03285,-0.017496,-0.10176,-0.0352,-0.18432,0.043758,-0.020565,0.10175,-0.038012,-0.065725,0.084622,-0.017095,-0.17426,0.020194,-0.090829,0.099271,-0.0041546,-0.082748,0.10486,-0.0822,0.1561,-0.00016816,0.92881,0.0013824,-0.061119,0.092927,0.0063096,0.0719,0.041068,-0.093319,0.010906,-0.11062,0.12798,-0.054576,0.16107,0.097338,0.098678,-0.0026964,-0.024972,-0.0034245,0.00055254,-0.061997,-0.019327,-0.14675,0.12376,-0.11657,0.096308,-0.011923,0.045126,0.053129
0.10339,-0.36102,-0.20262,-0.19859,-0.0064873,-0.0062076,-0.1494,0.057576,-0.13411,0.14287,-0.023554,-0.055202,0.099835,-0.25405,0.063551,-0.27309,0.053406,-0.039212,0.11064,0.018665,0.0036623,0.079178,-0.1644,0.0013807,-0.1983,0.01396,-0.02851,-0.22636,0.033837,0.023162,0.10886,-0.050656,-0.012,-0.1549,-0.071016,-0.18245,-0.25169,-0.061975,-0.17956,-0.03839,-0.0098295,-0.12727,-0.045713,0.011545,-0.25238,-0.010976,-0.047743,-0.19231,0.0086736,0.064476,-0.045177,-0.25253,-0.049664,0.019887,-0.22979,-0.1328,-0.20131,-0.021312,-0.25022,0.047939,0.040251,0.077928,-0.2828,-0.2109,0.027874,0.080567,-0.083401,-0.14418,0.01893,-0.042685,0.02326,-0.1885,0.0013824,0.85952,0.019114,0.16352,0.016996,0.056458,0.037268,-0.059976,-0.048868,-0.032535,0.098451,0.031921,0.04541,0.085186,0.011548,0.056382,0.11321,0.13279,0.057687,0.016894,-0.014763,0.024416,0.12965,0.058696,-0.10656,-0.034409,0.15957,0.028417
0.034482,-0.15319,0.14173,0.16444,0.21836,0.11734,-0.25735,0.090288,0.090271,0.11707,-0.13444,-0.21378,0.051125,-0.22377,0.1188,-0.1556,0.046965,0.13926,0.16694,0.058336,0.14254,0.12586,-0.25167,-0.041608,0.13326,0.019697,0.066374,0.14101,0.00048638,0.074156,0.059587,0.11199,0.0068155,0.028908,0.0089874,0.17353,0.058467,-0.17349,-0.0056606,-0.068118,0.18895,-0.11868,0.13461,0.061211,0.090806,-0.037305,0.12776,-0.10748,0.083439,0.1021,0.081295,-0.054524,0.051552,0.1581,0.17061,0.04946,-0.13244,-0.097688,-0.19588,-0.052164,-0.084209,0.013248,-0.10622,-0.038341,0.039513,-0.049227,0.063172,-0.079121,0.01666,0.048172,0.095388,0.036818,-0.061119,0.019114,0.97044,-0.042807,0.0048977,-0.025601,-0.022793,0.16138,0.056524,0.11925,-0.046199,0.0018056,-0.097724,-0.1164,-0.16333,-0.052928,-0.13257,-0.10361,0.097468,0.0057861,0.033295,0.10008,-0.096531,-0.0064239,-0.1243,-0.083101,-0.064995,-0.12221
0.35859,-0.52054,-0.23679,-0.20104,0.22386,0.14928,-0.30177,0.19214,-0.12052,0.32368,-0.21504,0.00056123,0.22719,-0.37785,0.24486,-0.31898,0.19926,0.18678,0.18913,-0.073611,0.24894,0.21966,-0.19916,0.11663,-0.018544,0.068745,0.12081,-0.32444,0.13021,0.10137,-0.0384,-0.046821,-0.047935,-0.24507,0.098639,-0.17487,-0.25475,-0.16865,-0.24791,0.10363,0.0021751,-0.25724,0.13554,0.15783,-0.18993,0.11974,-0.044238,-0.18251,-0.052531,0.17044,0.086846,-0.19631,0.028958,0.061403,-0.12931,0.1158,-0.21974,-0.15624,-0.34665,-0.077798,0.069951,-0.020694,-0.35172,-0.14736,0.09029,0.09894,0.096608,0.004999,0.047661,-0.13635,0.026697,-0.23897,0.092927,0.16352,-0.042807,0.9105,0.061116,0.097065,0.14737,-0.14432,-0.096321,0.012055,0.032512,-0.1008,0.11206,0.1295,-0.13938,0.043692,0.10402,0.18326,0.12424,-0.094744,-0.002233,-0.0241,0.10497,-0.12387,-0.20031,-0.064712,-0.036059,0.016438
0.18245,-0.16918,-0.10968,0.008313,0.24033,0.25731,-0.12809,0.057337,-0.084497,0.043913,-0.14792,-0.094817,0.19632,-0.12097,0.13725,-0.24003,-0.096194,0.087905,0.046864,-0.12393,0.19593,0.074691,-0.1344,-0.061551,0.29233,0.065748,0.13176,0.00013101,0.066288,0.060362,-0.078121,-0.063461,-0.065288,-0.076191,0.037623,-0.1321,-0.064927,-0.018499,0.11014,0.05099,0.096676,-0.16338,0.10373,0.16916,-0.0075962,0.11203,0.1453,-0.042498,-0.10894,0.1384,0.070183,0.0054787,0.14786,0.0090752,0.03077,0.14023,-0.16245,-0.23705,-0.26948,-0.13209,0.0072157,-0.041491,-0.16842,-0.16954,0.023832,-0.11408,0.075496,0.087276,0.044517,-0.018359,-0.081751,-0.14048,0.0063096,0.016996,0.0048977,0.061116,0.96224,0.033113,0.055568,-0.089985,-0.17758,0.037469,-0.1808,-0.13557,0.37856,-0.10252,-0.028999,-0.15022,-0.13793,0.005848,-0.2666,-0.048204,-0.0076143,-0.0071523,0.14941,-0.17928,0.015923,0.057983,-0.16632,-0.22465
0.2768,-0.38642,-0.08175,-0.091583,0.22918,0.18306,-0.25772,0.2669,-0.11352,0.2762,-0.12464,-0.10887,0.28262,-0.4223,0.24876,-0.31125,0.24006,0.18783,0.21886,0.041019,0.22901,0.23557,-0.25206,0.079633,0.075538,0.09173,0.17742,-0.1628,-0.049192,0.23342,0.1309,-0.038528,0.10978,-0.10246,0.055913,-0.065487,-0.1858,-0.21127,-0.23145,0.1789,0.085247,-0.22284,0.2332,0.26506,-0.091188,0.18933,0.0149,-0.21742,0.046605,0.19348,0.219,-0.27944,0.11999,0.13461,-0.12825,0.17171,-0.18433,-0.15767,-0.31824,0.09353,0.097666,0.030734,-0.20482,-0.12417,0.039475,0.12281,0.19525,-0.015272,0.1349,0.020001,0.13974,-0.07276,0.0719,0.056458,-0.025601,0.097065,0.033113,0.91614,0.097598,-0.091764,-0.21055,0.040785,0.12887,0.060921,0.052933,0.08068,-0.21005,-0.013718,0.15816,0.072641,0.055267,0.027234,-0.1108,-0.027163,0.026717,-0.0366,-0.21957,-0.020296,-0.017811,0.024027
0.37128,-0.42385,-0.24932,-0.17287,0.34828,0.21079,-0.27826,0.20829,-0.25441,0.29149,-0.15558,-0.003944,0.22659,-0.41444,0.2774,-0.29351,0.21134,0.2279,0.21655,0.053677,0.30328,0.21669,-0.19961,0.14351,0.020382,0.063073,0.19562,-0.20367,0.06018,0.16814,0.042458,0.0007696,0.14909,-0.16875,0.07276,-0.16933,-0.19385,-0.25119,-0.27486,0.13928,0.14779,-0.21735,0.062817,0.24487,-0.19455,0.11159,-0.0028337,-0.25877,-0.043409,0.24988,0.16541,-0.24647,0.0087347,0.060029,-0.17066,0.10855,-0.23265,-0.14737,-0.4046,0.057123,0.076604,0.038728,-0.20763,-0.20535,0.0073624,0.060238,0.12611,0.033822,0.2125,-0.11312,0.051418,-0.032489,0.041068,0.037268,-0.022793,0.14737,0.055568,0.097598,0.94301,-0.090334,-0.20489,0.0052393,0.030837,-0.0057306,0.079632,0.029878,-0.16956,-0.0662,0.075917,0.031205,-0.016041,0.060283,-0.17332,-0.011616,-0.023151,-0.17939,-0.19397,-0.12754,0.041044,-0.14123
-0.15144,0.11273,0.31932,0.26927,-0.039411,0.0041643,-0.042651,-0.027419,0.19609,-0.049813,-0.089956,-0.069868,-0.12717,0.034715,-0.12927,-0.056398,-0.0015769,0.03199,0.084204,0.014593,-0.091141,-0.065423,-0.041371,-0.032354,0.075632,-0.01821,0.1088,0.25992,-0.093869,-0.065811,0.12633,0.089347,-0.058265,0.19059,-0.050552,0.23202,0.16909,0.048903,0.076966,-0.052064,0.09184,0.033806,-0.0053261,-0.022365,0.28977,-0.049885,0.10118,-0.025327,0.026357,-0.12932,-0.038107,0.029662,0.11829,0.15325,0.11462,-0.0092588,-0.028151,-0.028421,0.12232,-0.086676,-0.19801,-0.0014123,0.086915,0.063371,0.020439,-0.051118,0.011424,-0.066623,-0.08728,0.022452,-0.026928,0.10175,-0.093319,-0.059976,0.16138,-0.14432,-0.089985,-0.091764,-0.090334,1.0118,0.071843,0.14492,-0.059117,-0.020272,-0.2752,-0.20087,0.079175,-0.11088,-0.15977,-0.13298,-0.049609,0.024848,0.082186,0.21261,-0.24866,0.03422,-0.021885,-0.073811,0.0030861,-0.082588
-0.36009,0.31811,0.17665,0.094644,-0.3342,-0.25066,0.23458,-0.15482,0.13071,-0.2499,0.12787,0.080034,-0.33992,0.29546,-0.30151,0.26222,-0.045199,-0.20838,-0.20374,0.039202,-0.33595,-0.27731,0.24518,0.0079053,-0.071647,-0.12955,-0.15463,0.16171,0.074424,-0.12814,0.061188,-0.053415,-0.017045,0.13878,-0.021591,0.16167,0.083699,0.17679,0.17279,-0.12596,-0.095691,0.24757,-0.11026,-0.31173,0.096692,-0.1466,-0.034908,0.04093,0.087312,-0.19774,-0.18228,0.19623,-0.30843,-0.10665,0.019146,-0.28556,0.23364,0.17105,0.36564,0.039534,-0.055531,0.11095,0.16255,0.11851,-0.0076742,0.018735,-0.18066,0.0013983,-0.057702,-0.007159,-0.042185,0.16367,0.010906,-0.048868,0.056524,-0.096321,-0.17758,-0.21055,-0.20489,0.071843,0.98822,-0.037507,-0.14499,0.070198,-0.20465,-0.13735,0.24076,-0.078463,-0.19561,-0.14057,-0.0072379,-0.038786,0.17217,-0.055397,-0.10081,0.10364,0.31216,0.055367,0.025339,0.14451
-0.088555,0.094784,0.072623,0.13361,-0.030511,0.047269,0.0081173,-0.035173,0.048777,-0.02606,-0.093319,-0.12634,-0.061725,-0.042417,-0.082898,0.055682,0.00020335,-0.005944,0.0059525,-0.020481,-0.035545,-0.017269,-0.041633,-0.079508,0.11894,0.044342,0.045027,0.044793,-0.042507,-0.033536,-0.040507,0.091885,-0.022951,0.10472,0.015954,0.041158,0.14032,-0.024937,0.058099,-0.019155,0.12638,0.0095509,0.096111,-0.050236,0.16233,-0.035123,0.060448,0.042479,-0.015122,0.02961,0.11134,-0.033656,0.11939,0.16215,0.038356,0.077389,0.025381,-0.032293,-0.05887,0.0060863,-0.079292,0.034067,0.10944,0.077359,0.12265,-0.0050918,0.068599,0.030807,-0.06663,0.20438,0.0049057,0.0046433,-0.11062,-0.032535,0.11925,0.012055,0.037469,0.040785,0.0052393,0.14492,-0.037507,0.96108,-0.027694,-0.0004048,-0.21783,-0.1257,-0.019302,-0.085224,-0.10598,-0.17926,0.075675,0.01425,-0.026551,0.086071,-0.17444,0.10824,0.0025079,-0.081561,-0.10124,-0.084853
0.18691,-0.29821,-0.11727,-0.18118,0.08406,0.074311,-0.15277,0.18665,-0.14064,0.1398,0.0030566,0.0069529,0.085244,-0.26784,0.12543,-0.15315,0.18063,0.016324,0.17938,0.055648,0.10079,0.07776,-0.12593,0.2007,-0.036642,0.067174,0.11435,-0.11388,-0.051379,0.066637,0.060508,-0.018151,0.074892,-0.041004,0.040068,-0.059254,-0.17709,-0.21007,-0.23424,0.02705,-0.020183,-0.16271,-0.017487,0.050026,-0.10994,0.086571,-0.030132,-0.28662,0.013901,0.053133,0.11283,-0.23839,-0.045305,0.1208,-0.1783,0.01694,-0.080958,-0.012055,-0.18258,0.083629,-0.021073,-0.01213,-0.22603,-0.042284,0.020595,0.084853,0.088023,-0.086156,0.05342,-0.025042,0.098156,-0.096048,0.12798,0.098451,-0.046199,0.032512,-0.1808,0.12887,0.030837,-0.059117,-0.14499,-0.027694,0.90405,0.026191,0.025657,0.089677,-0.14625,0.052207,0.12814,-0.051256,0.091599,-0.02386,-0.10442,-0.001606,-0.066238,0.029318,-0.1251,-0.023183,0.12875,0.057755
-0.11242,-0.039044,0.10814,-0.02076,-0.094485,-0.13321,-0.0042914,-0.035641,0.0783,0.0031555,-0.010851,-0.021785,-0.068617,0.031006,-0.046677,0.014678,0.08554,-0.10944,0.079649,0.12805,-0.15344,-0.024087,-0.057091,-0.021541,-0.097221,0.0044494,0.0079919,-0.014617,-0.067301,-0.010222,0.074848,0.11007,0.10453,0.053929,-0.074422,0.05982,-0.086122,0.027383,-0.093398,-0.076283,0.026575,0.011826,-0.10887,-0.10828,-0.075107,0.036512,-0.023333,-0.10216,0.11259,0.025567,0.034948,-0.035123,-0.0011761,-0.00201,-0.05832,-0.10889,0.037724,0.072081,0.02716,0.10571,0.020902,0.045925,-0.028879,0.0036596,-0.023298,0.11233,-0.086824,-0.062496,-0.037099,0.11098,0.040824,0.20731,-0.054576,0.031921,0.0018056,-0.1008,-0.13557,0.060921,-0.0057306,-0.020272,0.070198,-0.0004048,0.026191,0.97658,-0.15831,-0.11327,0.096006,0.042129,-0.078971,-0.10965,0.078349,0.057153,-0.0096165,0.15531,-0.19123,0.033256,-0.071014,-0.15873,0.11693,0.011214
0.35447,-0.29593,-0.37192,-0.2992,0.27733,0.27064,-0.092942,0.19178,-0.29589,0.18111,0.042441,0.069689,0.20694,-0.23578,0.22646,-0.24212,0.0084121,0.0070786,0.022484,-0.10235,0.25879,0.19188,-0.030836,0.042633,0.11438,0.13677,0.18746,-0.17597,0.1665,0.080008,-0.1471,-0.054462,-0.056909,-0.19588,0.042193,-0.31381,-0.31094,-0.069777,-0.13848,0.15951,0.075673,-0.17399,0.11625,0.24422,-0.29734,0.10598,0.043046,-0.10776,0.003652,0.14959,0.052512,-0.25458,0.010414,-0.14563,-0.18085,-0.010975,-0.11809,-0.14129,-0.25573,0.0060721,0.13419,-0.075841,-0.34747,-0.3772,0.032563,0.018863,0.0777,0.094219,0.15256,-0.065237,0.035094,-0.27518,0.16107,0.04541,-0.097724,0.11206,0.37856,0.052933,0.079632,-0.2752,-0.20465,-0.21783,0.025657,-0.15831,0.9233,0.080001,0.073288,-0.12553,-0.017722,0.12556,-0.19305,-0.05456,-0.1702,-0.15515,0.2072,-0.29272,0.010173,0.067986,-0.1227,-0.13292
0.18451,-0.25251,-0.21402,-0.24392,0.084681,-0.011055,-0.080052,0.092775,-0.23091,0.15673,0.089833,0.13017,0.18288,-0.20197,0.11155,-0.18118,0.061853,0.042363,0.065781,-0.060036,0.11391,0.12232,-0.014096,0.083519,-0.18682,0.096829,0.072933,-0.28413,0.038238,0.076816,-0.067733,0.030976,-0.0062658,-0.15275,0.057322,-0.19457,-0.21877,-0.090518,-0.16391,0.12309,-0.071295,-0.066537,0.0056947,0.16568,-0.26714,0.091336,-0.033814,-0.0095863,-0.040444,0.06175,-0.011088,-0.13663,-0.093846,-0.027327,-0.14718,-0.047268,-0.13085,0.047124,-0.13363,0.098946,0.13646,0.0092679,-0.18183,-0.11363,0.0039182,0.11094,0.060792,-0.027074,0.14276,-0.11698,0.16452,-0.19882,0.097338,0.085186,-0.1164,0.1295,-0.10252,0.08068,0.029878,-0.20087,-0.13735,-0.1257,0.089677,-0.11327,0.080001,0.93292,-0.039455,-0.070492,-0.095007,0.017981,-0.024627,-0.029354,-0.070386,-0.1431,0.060146,-0.066898,-0.043721,-0.024526,-0.013359,0.0060815
-0.34949,0.25323,0.13211,-0.12324,-0.38327,-0.1658,0.21538,-0.2472,0.12121,-0.19427,0.18199,0.23218,-0.28258,0.38079,-0.24434,0.17571,-0.048809,-0.38865,-0.25843,-0.013402,-0.32574,-0.23134,0.41144,-0.059641,-0.16371,-0.091209,-0.13581,0.12245,0.069392,-0.24907,0.051633,-0.04195,-0.030836,0.014136,-0.072842,0.16025,-0.12167,0.2267,0.15547,-0.088693,-0.14168,0.31404,-0.25319,-0.20909,-0.14265,-0.073953,-0.088588,0.25016,0.10505,-0.21557,-0.22386,0.096516,-0.21859,-0.26292,0.023165,-0.33373,0.23314,0.21185,0.38256,0.002338,-0.083417,0.023539,0.084556,0.056585,-0.10856,-0.039034,-0.13235,-0.008643,-0.011111,0.064021,0.0086417,0.14043,0.098678,0.011548,-0.16333,-0.13938,-0.028999,-0.21005,-0.16956,0.079175,0.24076,-0.019302,-0.14625,0.096006,0.073288,-0.039455,0.97118,0.018408,-0.19319,0.022991,-0.049843,-0.077183,0.08463,0.021071,0.12143,-0.060027,0.30489,0.039308,0.10932,0.058206
-0.014434,-0.2532,0.041406,-0.24022,-0.030877,-0.030855,-0.18784,0.080563,0.11021,0.13637,-0.1083,0.038655,-0.017464,-0.18277,0.032892,-0.20887,0.1643,-0.060604,0.002737,0.20728,-0.053311,0.016677,-0.14507,0.056374,-0.079812,0.091892,-0.012634,-0.056214,0.149,-0.036644,0.19381,0.023421,0.0038083,-0.0060038,-0.083766,0.069227,-0.22779,-0.1444,-0.27929,-0.048058,-0.086453,-0.019627,-0.13187,-0.049457,-0.17065,-0.0083015,-0.10507,-0.14532,0.061535,0.036401,0.019264,-0.21024,0.0055434,0.081896,-0.23734,-0.1361,-0.056893,-0.032579,-0.11657,0.034844,0.021363,0.03718,-0.11736,-0.099506,-0.0024743,0.069297,-0.021968,-0.022175,-0.05701,-0.009587,0.092179,0.012325,-0.0026964,0.056382,-0.052928,0.043692,-0.15022,-0.013718,-0.0662,-0.11088,-0.078463,-0.085224,0.052207,0.042129,-0.12553,-0.070492,0.018408,0.89683,0.092526,0.0023463,0.20711,0.13485,-0.033297,0.05176,0.028308,0.049658,-0.074734,-0.18121,0.25337,0.16794
0.17531,-0.27481,-0.19572,-0.21081,0.092763,0.095399,-0.19723,0.11549,-0.13603,0.16895,-0.09926,-0.042791,0.11597,-0.26522,0.18377,-0.10807,0.23899,0.015755,0.083791,0.009291,0.091706,0.16047,-0.19815,0.13379,0.059134,0.0088567,0.059366,-0.16694,0.017153,0.27055,-0.016178,-0.12286,0.072142,-0.13417,0.037623,-0.17267,-0.12486,-0.23411,-0.34414,0.044128,-0.0062288,-0.15254,0.0006918,0.1099,-0.11612,0.051442,0.029169,-0.22867,0.039301,0.11474,0.048653,-0.25805,0.065211,0.072236,-0.18054,0.03641,-0.06246,-0.052993,-0.17702,0.19841,0.063111,-0.09324,-0.10547,-0.10518,0.0278,0.21375,0.1183,-0.050438,0.044123,0.013787,0.05252,-0.067782,-0.024972,0.11321,-0.13257,0.10402,-0.13793,0.15816,0.075917,-0.15977,-0.19561,-0.10598,0.12814,-0.078971,-0.017722,-0.095007,-0.19319,0.092526,0.91977,-0.026407,0.01006,0.0038696,-0.10776,-0.035383,0.029812,0.00020879,-0.13571,-0.13961,0.048346,0.0052278
0.22182,-0.46801,-0.082392,-0.24048,0.092341,0.096286,-0.223,0.11361,-0.14072,0.21316,-0.17064,0.00055603,0.10481,-0.25409,0.2063,-0.36795,0.1772,0.027717,0.19406,0.050816,0.10833,0.15403,-0.14923,-0.0037672,-0.13377,-0.029782,0.049905,-0.24724,0.088204,-0.010917,0.075675,-0.042244,-0.044566,-0.22988,0.060161,-0.051391,-0.2596,-0.16769,-0.13109,-0.035239,0.012435,-0.088347,0.051327,0.11344,-0.29583,0.071873,-0.04619,-0.15906,-0.012541,0.14636,-0.012654,-0.27525,-0.018787,-0.029731,-0.17504,-0.029326,-0.18245,-0.12465,-0.27424,0.025741,-0.02197,0.00037405,-0.38624,-0.22365,0.052231,0.065518,0.034569,-0.067782,0.045959,-0.10218,0.07069,-0.091206,-0.0034245,0.13279,-0.10361,0.18326,0.005848,0.072641,0.031205,-0.13298,-0.14057,-0.17926,-0.051256,-0.10965,0.12556,0.017981,0.022991,0.0023463,-0.026407,0.88488,0.070023,0.032156,-0.038134,0.030086,0.16888,-0.15827,-0.080826,-0.12274,0.085436,0.026349
0.023048,-0.31811,0.22498,-0.016607,-0.048399,-0.051834,-0.31222,-0.00095928,0.12589,0.139,-0.15349,-0.087053,-0.024792,-0.23922,0.043367,-0.23921,0.17515,-0.064798,0.16336,0.20721,-0.0025619,-0.017108,-0.17786,-0.046367,-0.080554,0.0050458,-0.04674,0.048821,-0.062095,-0.027651,0.12643,0.04231,0.0033002,-0.015538,-0.032648,0.24053,-0.11769,-0.17356,-0.16398,-0.016706,0.075015,-0.10059,0.031966,-0.059886,-0.15541,-0.051826,-0.10435,-0.22602,0.024612,0.048839,0.039903,-0.21891,0.027351,0.099685,-0.086021,0.0074034,-0.078247,-0.02461,-0.14341,-0.027185,-0.043711,0.09524,-0.17527,-0.12611,0.046719,0.01652,0.031393,-0.10898,-0.04648,-0.050948,0.1554,0.10155,0.00055254,0.057687,0.097468,0.12424,-0.2666,0.055267,-0.016041,-0.049609,-0.0072379,0.075675,0.091599,0.078349,-0.19305,-0.024627,-0.049843,0.20711,0.01006,0.070023,0.89033,0.068956,-0.0037205,0.13617,-0.039982,0.05394,-0.11406,-0.16528,0.12177,0.11428
-0.034641,-0.0060405,0.057958,-0.031654,0.087184,0.11068,-0.046806,0.16505,0.058965,0.036985,-0.082416,-0.019684,0.008461,-0.071964,-0.0060515,-0.11424,0.051431,-0.024217,0.017992,0.046923,0.011326,0.0054454,-0.050249,0.09231,0.092653,0.093391,0.12002,0.012358,0.066813,0.025595,-0.013359,0.049981,0.0032037,0.020676,0.013627,0.024057,0.092496,0.013119,-0.061355,-0.013295,0.048694,0.018215,-0.010672,-0.078104,0.059675,-0.012151,0.13161,-0.1223,0.084368,0.030952,0.044305,-0.079145,0.0031932,0.063586,-0.036585,-0.055077,-0.028848,-0.095309,-0.1031,0.037506,-0.026038,0.096794,-0.018653,-0.02402,0.093533,0.074013,0.013702,0.053926,0.040878,0.024475,0.014888,-0.0040234,-0.061997,0.016894,0.0057861,-0.094744,-0.048204,0.027234,0.060283,0.024848,-0.038786,0.01425,-0.02386,0.057153,-0.05456,-0.029354,-0.077183,0.13485,0.0038696,0.032156,0.068956,0.92961,-0.012858,0.029885,-0.1418,0.092921,-0.043979,-0.025647,0.091992,-0.045428
-0.25749,0.080879,0.18036,0.23028,-0.18525,-0.20937,0.033155,-0.12672,0.082596,-0.2063,-0.048019,-0.095696,-0.19774,0.17893,-0.25032,0.051604,-0.078107,-0.040464,-0.15708,-0.027806,-0.20837,-0.083995,0.086762,-0.15573,0.047283,-0.17518,-0.1716,0.076009,-0.082573,-0.033149,-0.044205,-0.049446,-0.11605,0.0085303,-0.065058,0.065431,0.10159,0.023248,0.18966,-0.11348,0.0052926,0.13288,-0.050545,-0.1715,0.17083,-0.11961,0.027173,0.078623,-0.076785,-0.19573,-0.077953,0.21201,-0.020348,0.019548,0.10336,-0.1403,0.035529,0.021722,0.17868,-0.1406,-0.18925,0.05635,0.14471,0.14159,-0.044282,-0.078428,-0.14518,-0.10808,-0.065054,-0.060078,-0.038747,0.040032,-0.019327,-0.014763,0.033295,-0.002233,-0.0076143,-0.1108,-0.17332,0.082186,0.17217,-0.026551,-0.10442,-0.0096165,-0.1702,-0.070386,0.08463,-0.033297,-0.10776,-0.038134,-0.0037205,-0.012858,0.89911,0.069412,-0.060815,0.10118,0.1077,-0.056297,0.054378,-0.083854
-0.15654,-0.044124,0.33951,0.19846,-0.013832,-0.024472,-0.088872,-0.037666,0.2874,0.011581,-0.15104,-0.17202,-0.12793,0.013836,-0.091768,-0.098937,-0.081298,-0.0044576,0.11267,0.065947,-0.034877,-0.12246,-0.11452,-0.093404,0.053747,-0.02186,-0.001282,0.27402,-0.07783,-0.056835,0.10995,0.1101,0.0010182,0.13606,-0.050785,0.34766,0.016777,0.0086554,0.047088,-0.15636,0.1103,0.070976,0.012894,-0.026792,0.15576,-0.01983,0.054816,0.031508,-0.11532,-0.07031,0.0011453,0.024415,0.13123,0.09909,0.070062,-0.021594,0.039959,-0.014254,0.017607,-0.13582,-0.1883,0.072009,0.076473,0.0065061,0.031875,-0.048194,-0.017058,-0.044262,-0.12198,0.16501,-0.077429,0.043509,-0.14675,0.024416,0.10008,-0.0241,-0.0071523,-0.027163,-0.011616,0.21261,-0.055397,0.086071,-0.001606,0.15531,-0.15515,-0.1431,0.021071,0.05176,-0.035383,0.030086,0.13617,0.029885,0.069412,0.96066,-0.13983,0.058089,-0.025388,-0.0092368,-0.029217,-0.011996
0.11056,-0.14233,-0.30105,-0.27353,-0.040925,-0.084835,-0.0066345,-0.017803,-0.18621,0.081348,0.11219,0.048037,0.061378,-0.089471,0.077765,-0.023618,0.034763,-0.092515,-0.11229,0.023739,0.066849,0.021333,0.12077,0.018978,-0.17076,-0.039001,-0.035453,-0.20738,0.023707,-0.0035557,0.022814,-0.022406,-0.017815,-0.17574,-0.011434,-0.15262,-0.28023,-0.01162,-0.1322,0.04798,-0.12812,0.0021797,-0.10009,0.093683,-0.28989,-0.022326,-0.12485,0.0021947,-0.028584,-0.003713,-0.10645,-0.12401,-0.081476,-0.13642,-0.17501,-0.08627,-0.083145,0.066214,-0.12015,0.054955,0.074001,-0.015091,-0.15149,-0.084716,-0.04764,0.0097138,-0.066727,0.026818,0.050653,-0.063667,-0.0058026,-0.11999,0.12376,0.12965,-0.096531,0.10497,0.14941,0.026717,-0.023151,-0.24866,-0.10081,-0.17444,-0.066238,-0.19123,0.2072,0.060146,0.12143,0.028308,0.029812,0.16888,-0.039982,-0.1418,-0.060815,-0.13983,0.91739,-0.080534,0.11086,0.020787,0.013272,0.017595
-0.26167,0.28551,0.10025,0.04159,-0.2453,-0.18858,0.20161,-0.13011,0.1236,-0.15745,0.10503,-0.082948,-0.17444,0.15218,-0.21015,0.22562,-0.042282,-0.12925,-0.14713,-0.010752,-0.21645,-0.12791,0.080078,-0.019094,-0.12908,-0.096283,-0.13409,0.10139,-0.11738,-0.07696,0.023577,-0.013848,-0.055893,0.0722,-0.10687,0.13267,0.16121,0.050178,0.028111,-0.17069,-0.076276,0.11438,-0.13641,-0.22828,0.14279,-0.13911,-0.019663,0.012547,0.0095896,-0.11984,0.03713,0.04384,-0.046277,0.017911,0.051868,-0.15758,0.17515,0.13524,0.1585,0.011396,-0.078457,0.040101,0.28379,0.22843,-0.090413,0.10116,-0.095306,-0.068995,-0.19574,0.087032,0.012788,0.083053,-0.11657,0.058696,-0.0064239,-0.12387,-0.17928,-0.0366,-0.17939,0.03422,0.10364,0.10824,0.029318,0.033256,-0.29272,-0.066898,-0.060027,0.049658,0.00020879,-0.15827,0.05394,0.092921,0.10118,0.058089,-0.080534,0.97974,0.073601,0.046517,0.069804,0.0064799
-0.32871,0.46019,0.050885,0.050297,-0.33385,-0.26442,0.3289,-0.27566,0.10242,-0.30869,0.2884,0.11184,-0.28223,0.48497,-0.27882,0.35432,-0.18402,-0.26785,-0.36855,-0.066406,-0.24907,-0.23545,0.41611,-0.07149,-0.12159,-0.19176,-0.23477,0.14129,-0.055685,-0.18758,-0.063481,-0.058517,-0.072583,0.047101,-0.10222,0.023213,0.076878,0.26097,0.33416,-0.15193,-0.13278,0.2797,-0.19243,-0.26192,0.035107,-0.26549,-0.10682,0.22268,-0.013333,-0.25171,-0.20159,0.2284,-0.26034,-0.17837,0.032661,-0.21015,0.29971,0.12748,0.40791,-0.011227,-0.008352,0.041522,0.19562,0.17814,-0.15383,-0.059122,-0.21299,0.016941,-0.13547,-0.0032381,-0.093758,-0.017703,0.096308,-0.10656,-0.1243,-0.20031,0.015923,-0.21957,-0.19397,-0.021885,0.31216,0.0025079,-0.1251,-0.071014,0.010173,-0.043721,0.30489,-0.074734,-0.13571,-0.080826,-0.11406,-0.043979,0.1077,-0.025388,0.11086,0.073601,0.98307,0.13986,-0.050208,-0.0077244
-0.055131,0.20801,-0.13488,-0.084978,-0.12189,-0.064184,0.1979,-0.048677,-0.085164,-0.11687,0.15349,0.10766,-0.034377,0.17146,-0.087406,0.1827,-0.1619,-0.046733,-0.19748,-0.061711,-0.051599,-0.025211,0.14517,-0.075558,-0.012977,-0.03812,-0.14104,-0.051571,0.072312,-0.093153,-0.15466,-0.091472,-0.10598,0.00047234,0.1049,-0.13829,-0.036118,0.21382,0.058832,0.073893,-0.16324,0.014071,-0.041093,-0.040332,-0.085802,-0.10022,0.011403,0.10248,-0.0073057,-0.12867,-0.13327,0.078096,-0.17544,-0.13596,-0.019877,-0.11012,0.12725,-0.008715,0.083091,0.0092071,0.058972,-0.069203,0.056052,-0.027848,-0.071453,-0.035937,-0.046194,0.063236,0.0052028,-0.023042,-0.090618,-0.094643,-0.011923,-0.034409,-0.083101,-0.064712,0.057983,-0.020296,-0.12754,-0.073811,0.055367,-0.081561,-0.023183,-0.15873,0.067986,-0.024526,0.039308,-0.18121,-0.13961,-0.12274,-0.16528,-0.025647,-0.056297,-0.0092368,0.020787,0.046517,0.13986,0.9092,-0.082334,-0.069138
-0.038337,-0.11782,0.0311,-0.10944,-0.15464,-0.12838,-0.083674,-0.048274,0.017458,0.059267,-0.016646,0.019282,-0.034056,-0.0099566,-0.029505,-0.061321,0.15256,-0.10125,0.0060237,0.16975,-0.089532,-0.091591,0.010881,0.093291,-0.094081,0.049798,-0.043032,-0.038918,0.025972,0.045225,0.17656,-0.061152,0.055011,0.0065529,-0.016864,0.07538,-0.22925,-0.034291,-0.19842,-0.032978,-0.033621,0.02143,-0.11713,-0.056458,-0.053144,0.063909,-0.082044,-0.11448,0.10932,-0.0026158,-0.000878,-0.064587,-0.091088,0.069872,-0.18204,-0.1065,-0.012898,0.096848,-0.061632,0.10606,0.026228,0.064368,-0.074768,0.053877,0.033047,0.11931,-0.012748,-0.039589,-0.049504,-0.003552,0.050276,0.07395,0.045126,0.15957,-0.064995,-0.036059,-0.16632,-0.017811,0.041044,0.0030861,0.025339,-0.10124,0.12875,0.11693,-0.1227,-0.013359,0.10932,0.25337,0.048346,0.085436,0.12177,0.091992,0.054378,-0.029217,0.013272,0.069804,-0.050208,-0.082334,0.94759,0.053975
-0.094366,-0.038087,-0.0072135,-0.17787,-0.18625,-0.11774,-0.013053,0.013174,0.050186,-0.0013971,0.087215,0.067266,-0.15841,-0.057403,-0.046932,0.025509,0.21058,-0.093245,-0.033534,0.094726,-0.17706,-0.031686,0.084985,0.10318,-0.099363,0.062015,-0.044478,-0.062021,0.053952,-0.0029631,0.17986,0.087375,0.17215,0.018272,0.050161,0.031676,-0.19684,-0.069642,-0.07463,-0.029534,-0.070802,0.14028,-0.073694,-0.14547,-0.10696,0.0075633,-0.11619,-0.071565,0.15975,-0.098089,-0.11504,-0.17423,-0.14959,-0.017104,-0.12782,-0.071767,0.033108,0.082705,0.19534,0.081714,0.07149,0.14909,-0.049017,0.012513,0.0028168,0.1379,-0.026935,0.016612,-0.085122,-0.002918,0.10246,0.074361,0.053129,0.028417,-0.12221,0.016438,-0.22465,0.024027,-0.14123,-0.082588,0.14451,-0.084853,0.057755,0.011214,-0.13292,0.0060815,0.058206,0.16794,0.0052278,0.026349,0.11428,-0.045428,-0.083854,-0.011996,0.017595,0.0064799,-0.0077244,-0.069138,0.053975,0.933
