1.0422,-0.74774,-0.1782,0.74815,-0.47756,0.66964,-0.42772,0.35292,0.75896,0.34648,0.71668,0.56571,0.44113,0.3914,-0.77551,0.43735,0.6716,-0.74318,0.53511,0.67858,-0.26234,0.05006,0.46174,-0.53578,-0.48768,-0.59594,0.51966,0.43856,0.38272,0.5026,-0.3028,-0.51476,0.14098,-0.62274,-0.30432,0.54417,0.41775,-0.46245,0.0066779,-0.25833,0.081297,0.18015,0.50562,-0.50245,0.29945,0.41715,-0.59083,0.22773,0.45622,-0.1506,0.42561,-0.48638,0.075522,-0.19144,0.12714,0.63944,0.40019,0.20627,-0.4521,-0.49696,-0.26657,-0.42827,0.13941,-0.26803,-0.40899,0.42634,-0.31254,0.21527,0.12041,0.30487,-0.30142,0.16914,-0.094605,-0.38955,0.11976,0.43191,0.26909,0.27279,0.066245,0.20964,0.048365,0.22551,-0.31964,0.30504,0.38223,-0.25171,0.42858,-0.16022,-0.20776,0.31074,0.45117,-0.36037,-0.23793,0.47011,0.060985,0.31243,0.28411,-0.3428,-0.32603,0.0044416
-0.74774,0.90008,0.69581,-0.30519,0.55798,-0.36176,0.76236,-0.84693,-0.55045,-0.35198,-0.4995,-0.57815,-0.45648,-0.59655,0.38582,-0.23112,-0.47234,0.53554,-0.48836,-0.4321,0.72417,0.055619,-0.44952,0.023749,0.45953,0.39791,-0.4729,-0.45242,-0.3077,-0.50902,0.70317,0.086121,-0.24353,0.78245,0.59143,-0.50971,-0.50013,0.36746,-0.084301,0.5503,-0.13361,-0.29909,-0.4373,0.30561,-0.55919,-0.432,0.39174,-0.32086,-0.47929,0.25244,-0.32679,0.39209,-0.15612,0.14803,-0.22448,-0.59086,-0.42201,-0.24766,0.39713,0.19953,0.24952,0.17506,-0.14639,0.31953,0.34268,-0.54515,0.13535,-0.25631,-0.29857,-0.40427,0.24157,-0.25519,0.13174,0.35063,-0.27875,-0.45917,-0.32013,-0.37291,-0.096719,-0.25214,-0.10925,-0.34888,0.27036,-0.40222,-0.48278,0.16848,-0.55571,0.09735,0.246,-0.3352,-0.34299,0.14134,0.29257,-0.48414,-0.11313,-0.3689,-0.30322,0.231,0.24917,0.045371
-0.1782,0.69581,1.0832,0.28452,0.36749,-0.14294,0.62063,-0.59581,-0.21571,0.27807,-0.060316,-0.28198,0.035802,-0.39846,-0.17719,0.40397,-0.174,0.09731,-0.25892,-0.01869,0.6112,0.39886,-0.071476,-0.32945,0.16876,0.072725,-0.12745,0.07322,0.20673,-0.19517,0.5103,-0.1745,-0.37453,0.43681,0.60562,-0.19689,-0.25491,0.34852,-0.29204,0.69214,-0.38669,-0.31973,0.063913,0.081112,-0.48263,-0.16088,0.22361,-0.39732,-0.012203,0.33613,-0.21637,0.21902,0.30695,0.024859,-0.21883,-0.19209,-0.1795,-0.25808,0.020023,-0.22358,0.2952,-0.22334,-0.2102,0.25854,0.024745,-0.23881,-0.024787,-0.20107,-0.26228,-0.26165,0.24961,-0.29178,0.3754,0.18458,-0.29094,-0.25054,-0.17781,-0.048445,-0.29636,-0.10319,-0.10906,-0.17744,0.033524,-0.12011,-0.32071,-0.020467,-0.28822,0.12286,0.2341,-0.21614,-0.18502,-0.050989,0.31969,-0.061713,-0.11168,-0.23939,0.10387,0.15915,0.18104,0.30817
0.74815,-0.30519,0.28452,1.055,-0.27745,0.53128,-0.088877,0.057301,0.61998,0.3259,0.56969,0.41486,0.30828,0.20005,-0.69455,0.56189,0.52046,-0.59029,0.38004,0.58481,0.02086,0.24663,0.36152,-0.6634,-0.3387,-0.46758,0.40818,0.31792,0.45545,0.38343,-0.076631,-0.5581,-0.12903,-0.33235,-0.11314,0.40446,0.22354,-0.29058,-0.20668,-0.049956,-0.0049732,-0.083003,0.41247,-0.4485,0.12833,0.29667,-0.50974,-0.085394,0.33776,0.033522,0.32152,-0.29378,0.18144,-0.23436,0.075479,0.48277,0.29936,-0.0082518,-0.43065,-0.58018,-0.16562,-0.52244,-0.12949,-0.083592,-0.28764,0.23157,-0.24723,0.20996,0.033635,0.21774,-0.16413,-0.056666,-0.018202,-0.32823,-0.015113,0.16487,0.07625,0.15859,-0.25996,0.1232,-0.081041,0.065525,-0.19707,0.21991,0.14904,-0.2222,0.12335,-0.082538,-0.04309,0.072719,0.31776,-0.32858,-0.13385,0.35842,-0.063701,0.064045,0.19359,-0.28226,-0.17726,0.092188
-0.47756,0.55798,0.36749,-0.27745,0.95588,-0.24613,0.55649,-0.51825,-0.22539,0.31756,-0.085297,-0.40613,0.25779,-0.38758,-0.059914,0.25325,-0.30547,0.051623,-0.26551,-0.11562,0.65875,0.49481,0.09132,-0.32084,0.27613,0.094857,-0.18862,0.18414,0.24802,-0.16161,0.61822,-0.20421,-0.27402,0.45462,0.54535,-0.22631,-0.23758,0.50871,-0.2019,0.46089,-0.36679,-0.31688,-0.029278,0.18595,-0.43216,-0.069807,0.11272,-0.32717,0.188,0.40155,-0.31872,0.39683,0.35709,0.15664,-0.23078,-0.21078,-0.080888,-0.23793,0.10325,-0.18611,0.16585,-0.19393,-0.22819,0.26137,0.031794,-0.34678,0.15455,-0.24742,-0.31842,-0.12886,0.31347,-0.31382,0.22727,0.32732,-0.26397,-0.3478,-0.16368,0.19492,-0.27959,-0.0076379,0.024495,-0.21597,0.020484,-0.055623,-0.4281,-0.12757,-0.39659,0.27411,0.29316,-0.29879,-0.30824,0.031965,0.28494,-0.28348,-0.021079,-0.35848,-0.081491,0.18133,0.2723,0.21224
0.66964,-0.36176,-0.14294,0.53128,-0.24613,1.1279,-0.3505,0.25925,0.55796,-0.046686,0.52515,0.45296,-0.0055981,0.23144,-0.61712,0.14341,0.61471,-0.57298,0.40862,0.44937,-0.23643,-0.20735,0.26855,-0.44206,-0.45641,-0.53198,0.30327,0.088573,0.17463,0.39717,-0.34609,-0.42665,0.18205,-0.59731,-0.53195,0.30452,0.24733,-0.61376,0.087052,-0.28908,0.36636,0.18855,0.31025,-0.59841,0.33494,0.2905,-0.56152,0.20553,0.070871,-0.3334,0.52039,-0.53833,-0.19684,-0.33852,0.24608,0.31534,0.26642,0.18482,-0.45222,-0.37095,-0.417,-0.34271,0.065185,-0.24054,-0.32046,0.3425,-0.43583,0.29218,0.18563,0.26561,-0.37429,0.1757,-0.14384,-0.51322,0.19762,0.34715,0.17346,0.01226,0.046449,0.05505,-0.074662,0.18319,-0.15691,0.17545,0.36536,-0.21752,0.31713,-0.33884,-0.36746,0.23939,0.59505,-0.3437,-0.39032,0.42206,-0.073947,0.28363,0.083587,-0.48652,-0.41289,-0.30847
-0.42772,0.76236,0.62063,-0.088877,0.55649,-0.3505,1.113,-0.8612,-0.46014,-0.051443,-0.32818,-0.55629,-0.31694,-0.60515,0.12873,0.12762,-0.36676,0.33066,-0.4719,-0.26161,0.82011,0.30794,-0.31642,-0.22682,0.3798,0.29483,-0.37512,-0.3005,-0.0229,-0.42783,0.74371,-0.096985,-0.42967,0.68408,0.62262,-0.43437,-0.468,0.42577,-0.33662,0.6846,-0.23166,-0.46023,-0.20892,0.13233,-0.61339,-0.33892,0.34677,-0.49092,-0.3631,0.40251,-0.29212,0.35836,0.098533,-0.034356,-0.25819,-0.47725,-0.36862,-0.44308,0.16722,-0.081061,0.28919,-0.086633,-0.34395,0.37828,0.24061,-0.47956,0.073652,-0.22537,-0.35314,-0.38271,0.26673,-0.34654,0.30926,0.18229,-0.41854,-0.5098,-0.35511,-0.28283,-0.41833,-0.26943,-0.23965,-0.37835,0.22475,-0.30158,-0.54009,0.086796,-0.59855,0.1022,0.34782,-0.42504,-0.21904,0.024604,0.36817,-0.2798,-0.25123,-0.46511,-0.094691,0.18171,0.27894,0.1938
0.35292,-0.84693,-0.59581,0.057301,-0.51825,0.25925,-0.8612,0.76854,0.61437,0.037582,0.53028,0.42712,0.32321,0.32487,-0.49907,0.049788,0.51561,-0.54674,0.41619,0.49673,-0.30234,-0.22105,0.44396,-0.30073,-0.4415,-0.48823,0.35682,0.30007,0.17607,0.41875,-0.35426,-0.31864,0.3188,-0.57025,-0.43169,0.32261,0.39105,-0.46716,0.30734,-0.36753,0.24869,0.40428,0.28092,-0.36416,0.39452,0.37763,-0.4712,0.46385,0.32608,-0.25665,0.3535,-0.33364,-0.11871,-0.068456,0.21292,0.38825,0.36112,0.38699,-0.26721,-0.22176,-0.36935,-0.1747,0.41907,-0.27267,-0.36947,0.34421,-0.25265,0.16326,0.18648,0.34229,-0.31888,0.28955,-0.12921,-0.2656,0.29193,0.46447,0.33277,0.2558,0.33863,0.16804,0.1869,0.24234,-0.23882,0.26341,0.35244,-0.22517,0.4577,-0.2562,-0.34807,0.37837,0.26249,-0.17957,-0.34137,0.2977,0.17139,0.3706,0.10125,-0.30375,-0.32812,-0.23072
0.75896,-0.55045,-0.21571,0.61998,-0.22539,0.55796,-0.46014,0.61437,1.0364,0.14532,0.63857,0.57555,0.32363,0.42239,-0.66243,0.32267,0.65865,-0.69204,0.53564,0.64792,-0.30852,-0.02945,0.4145,-0.49967,-0.46432,-0.5558,0.52794,0.35752,0.29147,0.55928,-0.34756,-0.47833,0.19016,-0.59801,-0.40638,0.49542,0.42245,-0.49929,0.080588,-0.3683,0.20889,0.18393,0.39916,-0.51897,0.39461,0.42613,-0.61516,0.29247,0.4191,-0.17568,0.48354,-0.42824,-0.033349,-0.22095,0.18715,0.59748,0.42772,0.22619,-0.39765,-0.41631,-0.34674,-0.38701,0.13831,-0.30117,-0.38465,0.39894,-0.30674,0.29886,0.13904,0.38396,-0.32427,0.17051,-0.17066,-0.38028,0.18121,0.38351,0.26782,0.22717,0.088635,0.21941,0.08715,0.20294,-0.28001,0.29515,0.35381,-0.23932,0.38534,-0.21239,-0.26551,0.30919,0.36909,-0.32115,-0.30022,0.42287,0.047347,0.29797,0.1331,-0.39069,-0.3566,-0.10802
0.34648,-0.35198,0.27807,0.3259,0.31756,-0.046686,-0.051443,0.037582,0.14532,0.93833,0.37346,0.048642,0.57579,0.023082,-0.50564,0.52832,0.14493,-0.38304,0.12849,0.32464,0.24028,0.402,0.44819,-0.46165,-0.1422,-0.24612,0.17331,0.5368,0.44097,0.25712,0.21218,-0.40967,-0.10556,-0.077036,0.23245,0.19175,0.14487,0.11976,-0.089774,0.23287,-0.29465,0.0069047,0.33008,-0.10039,-0.101,0.19823,-0.20498,-0.03878,0.5272,0.17831,0.010229,0.008779,0.3649,0.063895,-0.11172,0.29724,0.23243,0.021681,-0.21742,-0.41013,0.047889,-0.36679,0.048429,0.0069315,-0.26412,0.012789,-0.085904,-0.12601,-0.098711,0.14449,0.11547,-0.032428,0.19031,0.076541,-0.048211,0.11398,0.057059,0.42833,-0.046906,0.20451,0.10738,0.090353,-0.21515,0.20659,0.0028733,-0.30333,0.16584,0.17224,0.10775,0.029773,-0.012917,-0.12744,0.063575,0.1667,0.079982,0.031575,0.17885,-0.026863,0.019861,0.20628
0.71668,-0.4995,-0.060316,0.56969,-0.085297,0.52515,-0.32818,0.53028,0.63857,0.37346,1.0284,0.47843,0.39369,0.33044,-0.68411,0.35813,0.58802,-0.65237,0.46081,0.57472,-0.18318,0.064848,0.49081,-0.51761,-0.41144,-0.54531,0.43561,0.37493,0.38633,0.45351,-0.28058,-0.48654,0.17579,-0.54408,-0.30028,0.42432,0.34573,-0.41171,0.083008,-0.26486,0.14175,0.18047,0.41772,-0.44697,0.28397,0.42677,-0.54377,0.24528,0.41084,-0.13773,0.36228,-0.35752,0.08129,-0.18787,0.17352,0.52546,0.41967,0.17618,-0.42445,-0.4466,-0.2752,-0.40507,0.11157,-0.22976,-0.38826,0.29927,-0.25075,0.20718,0.14368,0.3578,-0.24001,0.15979,-0.10816,-0.31455,0.1271,0.32805,0.22851,0.28389,0.013739,0.2192,0.076278,0.23192,-0.22053,0.25707,0.30839,-0.23107,0.32356,-0.11554,-0.21892,0.26547,0.40361,-0.28965,-0.22803,0.38032,0.074676,0.22886,0.22925,-0.31646,-0.24759,-0.067947
0.56571,-0.57815,-0.28198,0.41486,-0.40613,0.45296,-0.55629,0.42712,0.57555,0.048642,0.47843,0.94287,0.16132,0.36195,-0.52171,0.17068,0.58787,-0.55633,0.47079,0.50463,-0.26199,-0.14049,0.27894,-0.39444,-0.38385,-0.44366,0.41293,0.22345,0.13825,0.38008,-0.31895,-0.3684,0.20453,-0.49621,-0.34539,0.49099,0.31837,-0.51795,0.16228,-0.27405,0.24192,0.19327,0.30473,-0.39455,0.35322,0.2954,-0.50471,0.33835,0.24566,-0.21205,0.41419,-0.42913,-0.17735,-0.14724,0.1878,0.45574,0.2801,0.26648,-0.31014,-0.25542,-0.30119,-0.23627,0.1957,-0.25811,-0.29017,0.32446,-0.22791,0.23781,0.1294,0.25629,-0.2618,0.21423,-0.22701,-0.32386,0.20917,0.37286,0.22744,0.11505,0.15181,0.19886,0.084593,0.19853,-0.20694,0.27809,0.36837,-0.18341,0.35243,-0.21348,-0.23692,0.31102,0.39047,-0.27697,-0.28884,0.2954,0.10588,0.32774,0.076691,-0.34472,-0.32536,-0.13943
0.44113,-0.45648,0.035802,0.30828,0.25779,-0.0055981,-0.31694,0.32321,0.32363,0.57579,0.39369,0.16132,0.94805,0.16818,-0.51225,0.38393,0.23749,-0.49576,0.26359,0.40116,0.029219,0.30226,0.547,-0.41326,-0.20302,-0.34438,0.31694,0.63016,0.43435,0.34522,0.025076,-0.38598,0.061046,-0.26093,0.035197,0.30263,0.3208,0.015496,0.028126,-0.072867,-0.20911,0.1106,0.35862,-0.10683,0.057299,0.31001,-0.32882,0.13948,0.68809,0.07017,-0.0037443,-0.00364,0.34957,0.10668,-0.068277,0.42575,0.32914,0.15438,-0.2103,-0.35813,-0.066797,-0.28135,0.18232,-0.132,-0.37357,0.1292,-0.041429,-0.050781,-0.046895,0.25644,0.0046222,0.024508,0.032614,0.084819,0.071599,0.23527,0.19946,0.55961,0.11277,0.29394,0.2018,0.16676,-0.31173,0.24745,0.094487,-0.33872,0.25449,0.097394,0.015137,0.14032,-0.024679,-0.13546,-0.033577,0.13635,0.16422,0.13668,0.18048,-0.039653,-0.0068129,0.11108
0.3914,-0.59655,-0.39846,0.20005,-0.38758,0.23144,-0.60515,0.32487,0.42239,0.023082,0.33044,0.36195,0.16818,0.87488,-0.44397,0.042971,0.50462,-0.44162,0.40109,0.44131,-0.22369,-0.1294,0.29253,-0.39832,-0.28206,-0.40662,0.3922,0.26084,0.12117,0.31813,-0.22584,-0.34452,0.21094,-0.36509,-0.2974,0.34635,0.31247,-0.39489,0.2129,-0.30985,0.16798,0.25406,0.21885,-0.33226,0.33495,0.25698,-0.44106,0.34032,0.2397,-0.19886,0.32371,-0.29873,-0.15174,-0.027453,0.18102,0.36357,0.26031,0.32448,-0.1822,-0.2169,-0.28697,-0.20985,0.27145,-0.23131,-0.2516,0.21831,-0.16722,0.19689,0.10081,0.19751,-0.23459,0.18777,-0.2687,-0.16827,0.16023,0.35406,0.18353,0.14513,0.25578,0.15716,0.17042,0.17219,-0.16253,0.17532,0.27772,-0.19296,0.36092,-0.13554,-0.28088,0.30585,0.23663,-0.19125,-0.2912,0.22302,0.1607,0.31246,-0.016699,-0.25642,-0.1965,-0.16476
-0.77551,0.38582,-0.17719,-0.69455,-0.059914,-0.61712,0.12873,-0.49907,-0.66243,-0.50564,-0.68411,-0.52171,-0.51225,-0.44397,0.64969,-0.35975,-0.37342,0.44192,-0.42826,-0.38127,0.56455,-0.099919,-0.41752,0.07015,0.36099,0.33782,-0.41252,-0.43467,-0.39544,-0.44271,0.56935,0.11976,-0.084229,0.59761,0.39047,-0.39919,-0.4046,0.23214,0.078615,0.34755,0.049728,-0.10116,-0.44752,0.30033,-0.40846,-0.35479,0.29851,-0.13771,-0.43877,0.11301,-0.28159,0.33797,-0.29264,0.14996,-0.2035,-0.52797,-0.34977,-0.10327,0.40803,0.30792,0.12141,0.24156,0.039291,0.22615,0.30207,-0.42844,0.15427,-0.22043,-0.19898,-0.333,0.12767,-0.12048,0.033543,0.32241,-0.16889,-0.36093,-0.19668,-0.32459,0.073429,-0.2059,-0.047549,-0.28567,0.25853,-0.29376,-0.40673,0.16568,-0.44224,0.023005,0.14226,-0.20828,-0.3105,0.17865,0.18348,-0.5057,-0.046206,-0.23442,-0.31166,0.20852,0.19185,-0.082057
0.43735,-0.23112,0.40397,0.56189,0.25325,0.14341,0.12762,0.049788,0.32267,0.52832,0.35813,0.17068,0.38393,0.042971,-0.35975,0.9986,0.26011,-0.40057,0.17283,0.38946,0.24493,0.35761,0.32688,-0.53525,-0.21558,-0.34581,0.27799,0.33005,0.3981,0.24201,0.14936,-0.48842,-0.1835,-0.1318,0.14344,0.22238,0.14319,-0.0065885,-0.21149,0.27962,-0.18368,-0.1222,0.37186,-0.29162,-0.081798,0.20061,-0.25742,-0.13733,0.32423,0.18858,0.13806,-0.0784,0.33501,-0.18092,-0.034084,0.3002,0.20584,-0.060164,-0.27212,-0.49734,-0.0072649,-0.43132,-0.086603,0.030517,-0.23562,0.11482,-0.20404,0.05127,-0.074837,0.16391,-0.032624,-0.10067,0.25814,-0.15594,-0.14542,0.080634,0.06222,0.22403,-0.19358,0.06157,-0.08619,0.014574,-0.13535,0.1861,0.043868,-0.19771,0.089051,0.028946,0.077464,0.025032,0.085106,-0.22452,0.067102,0.33047,-0.11335,0.0059584,0.22585,-0.10352,-0.12099,0.21226
0.6716,-0.47234,-0.174,0.52046,-0.30547,0.61471,-0.36676,0.51561,0.65865,0.14493,0.58802,0.58787,0.23749,0.50462,-0.37342,0.26011,1.0302,-0.59718,0.49506,0.56691,-0.23413,-0.072738,0.31938,-0.44621,-0.42188,-0.49736,0.43612,0.21965,0.21633,0.38132,-0.29613,-0.43333,0.17009,-0.52036,-0.35639,0.40864,0.31946,-0.55205,0.1283,-0.28298,0.24158,0.18654,0.30518,-0.50323,0.33709,0.3286,-0.54656,0.30108,0.19349,-0.22111,0.45487,-0.48717,-0.13391,-0.1882,0.2161,0.45106,0.35075,0.21738,-0.35399,-0.35887,-0.32245,-0.34902,0.11357,-0.25134,-0.3156,0.35459,-0.35291,0.3086,0.17259,0.28458,-0.34448,0.2035,-0.17641,-0.40664,0.14102,0.41143,0.26502,0.091446,0.14519,0.14161,0.026418,0.21579,-0.22665,0.21412,0.38916,-0.13518,0.41407,-0.25696,-0.27476,0.3326,0.45585,-0.29061,-0.30533,0.40078,0.035964,0.33531,0.11394,-0.39672,-0.32485,-0.14447
-0.74318,0.53554,0.09731,-0.59029,0.051623,-0.57298,0.33066,-0.54674,-0.69204,-0.38304,-0.65237,-0.55633,-0.49576,-0.44162,0.44192,-0.40057,-0.59718,0.77492,-0.45023,-0.39408,0.66877,-0.020797,-0.42629,0.065605,0.39098,0.34293,-0.4402,-0.44815,-0.33377,-0.48917,0.61647,0.13042,-0.15311,0.67431,0.52286,-0.52541,-0.43598,0.3005,-0.012245,0.53293,-0.079621,-0.18655,-0.41222,0.29306,-0.4965,-0.39281,0.38879,-0.20972,-0.46254,0.16548,-0.31685,0.35031,-0.20277,0.13018,-0.1812,-0.5746,-0.38885,-0.14995,0.41197,0.24568,0.20406,0.15034,-0.0047527,0.26867,0.35263,-0.4375,0.14884,-0.21762,-0.25962,-0.3904,0.18981,-0.19291,0.15702,0.31995,-0.20471,-0.37935,-0.23664,-0.37464,-0.049938,-0.25411,-0.074003,-0.3338,0.25391,-0.30585,-0.4002,0.18531,-0.48415,0.035505,0.17493,-0.28987,-0.32473,0.12802,0.25597,-0.41516,-0.064805,-0.26882,-0.22707,0.22025,0.20931,-0.01069
0.53511,-0.48836,-0.25892,0.38004,-0.26551,0.40862,-0.4719,0.41619,0.53564,0.12849,0.46081,0.47079,0.26359,0.40109,-0.42826,0.17283,0.49506,-0.45023,0.96612,0.48493,-0.1806,-0.058955,0.33241,-0.36885,-0.38819,-0.44073,0.37542,0.22545,0.2123,0.37894,-0.25774,-0.3772,0.18565,-0.46849,-0.30072,0.3615,0.31084,-0.47586,0.1271,-0.28833,0.19075,0.22129,0.29155,-0.38659,0.29727,0.32612,-0.50137,0.32544,0.27419,-0.1856,0.38887,-0.34793,-0.017867,-0.12471,0.1494,0.43733,0.31815,0.25949,-0.29625,-0.30701,-0.34212,-0.28158,0.24324,-0.24796,-0.27911,0.27402,-0.27702,0.24662,0.161,0.24696,-0.26652,0.16993,-0.12832,-0.28291,0.16635,0.40341,0.22219,0.13988,0.1391,0.18122,0.13942,0.22529,-0.19566,0.21395,0.35426,-0.11419,0.35831,-0.17317,-0.27246,0.27014,0.30219,-0.28467,-0.29176,0.31478,0.11428,0.30004,0.088124,-0.2904,-0.26572,-0.14177
0.67858,-0.4321,-0.01869,0.58481,-0.11562,0.44937,-0.26161,0.49673,0.64792,0.32464,0.57472,0.50463,0.40116,0.44131,-0.38127,0.38946,0.56691,-0.39408,0.48493,1.0314,-0.16814,0.057656,0.41545,-0.48843,-0.44294,-0.49047,0.45268,0.35219,0.30989,0.42324,-0.22092,-0.4821,0.076301,-0.46089,-0.2403,0.40814,0.33772,-0.36176,0.015393,-0.1418,0.12145,0.12903,0.38582,-0.43864,0.23433,0.35825,-0.51198,0.16816,0.35978,-0.11461,0.3422,-0.37293,0.058308,-0.16429,0.16096,0.46679,0.31407,0.15453,-0.36198,-0.42422,-0.23678,-0.40838,0.068706,-0.18942,-0.38262,0.30568,-0.20202,0.19283,0.046108,0.30674,-0.24548,0.11318,-0.049509,-0.31324,0.12718,0.31404,0.20445,0.20146,0.01984,0.14071,0.051135,0.21075,-0.25725,0.24556,0.29555,-0.15739,0.31825,-0.2024,-0.15408,0.23699,0.29342,-0.28207,-0.22256,0.41222,0.022755,0.23945,0.22279,-0.30257,-0.28697,-0.026801
-0.26234,0.72417,0.6112,0.02086,0.65875,-0.23643,0.82011,-0.30234,-0.30852,0.24028,-0.18318,-0.26199,0.029219,-0.22369,0.56455,0.24493,-0.23413,0.66877,-0.1806,-0.16814,1.1531,0.32494,-0.14804,-0.29155,0.26153,0.18045,-0.26769,-0.13065,0.064742,-0.27036,0.63016,-0.18461,-0.34928,0.4951,0.44413,-0.34027,-0.34581,0.32289,-0.30706,0.57958,-0.21067,-0.35875,-0.14733,0.11276,-0.47835,-0.22915,0.17518,-0.42552,-0.19543,0.32784,-0.21207,0.30874,0.18747,-0.045615,-0.19131,-0.34046,-0.2356,-0.38308,0.0024787,-0.19459,0.15418,-0.16234,-0.32331,0.28657,0.16514,-0.33645,0.0028025,-0.14813,-0.28705,-0.16968,0.20223,-0.2861,0.32323,0.10271,-0.33538,-0.4083,-0.25383,-0.13566,-0.404,-0.15421,-0.15599,-0.28093,0.17739,-0.24315,-0.42071,0.034231,-0.51856,0.09172,0.2957,-0.32773,-0.19712,-0.0019716,0.24304,-0.22638,-0.24065,-0.41952,-0.047276,0.1204,0.21806,0.13257
0.05006,0.055619,0.39886,0.24663,0.49481,-0.20735,0.30794,-0.22105,-0.02945,0.402,0.064848,-0.14049,0.30226,-0.1294,-0.099919,0.35761,-0.072738,-0.020797,-0.058955,0.057656,0.32494,0.94358,0.19067,-0.44776,0.032205,-0.070621,0.07133,0.241,0.33519,0.083688,0.39572,-0.34788,-0.21459,0.1919,0.36311,0.0080714,-0.03145,0.25474,-0.21048,0.32684,-0.28319,-0.21887,0.20528,-0.032601,-0.26268,0.068347,-0.076631,-0.27667,0.32367,0.28695,-0.098782,0.19228,0.36666,-0.022036,-0.12639,0.098117,0.034903,-0.14651,-0.11074,-0.34815,0.071645,-0.31167,-0.19295,0.16167,-0.069246,-0.17284,-0.019614,-0.12467,-0.24116,-0.0016705,0.15552,-0.21354,0.21953,0.11219,-0.19123,-0.17355,-0.053066,0.24834,-0.30296,0.076456,-0.019142,-0.12443,-0.074716,0.016357,-0.22172,-0.14908,-0.17469,0.21188,0.21538,-0.17196,-0.10729,-0.086884,0.19074,-0.026845,-0.026812,-0.20827,0.089924,0.05503,0.17076,0.19394
0.46174,-0.44952,-0.071476,0.36152,0.09132,0.26855,-0.31642,0.44396,0.4145,0.44819,0.49081,0.27894,0.547,0.29253,-0.41752,0.32688,0.31938,-0.42629,0.33241,0.41545,-0.14804,0.19067,0.99558,-0.41892,-0.32498,-0.43842,0.29524,0.43107,0.44603,0.39676,-0.11833,-0.45263,0.11745,-0.42526,-0.18522,0.23452,0.28478,-0.2115,0.061859,-0.14811,0.015897,0.14665,0.34431,-0.32681,0.15372,0.32894,-0.50878,0.14512,0.45809,-0.054071,0.20627,-0.13637,0.18994,-0.10118,0.064712,0.37079,0.39289,0.14595,-0.35814,-0.38528,-0.25896,-0.35911,0.12901,-0.14892,-0.42209,0.19647,-0.21564,0.055372,0.027367,0.33996,-0.15632,0.13629,0.03085,-0.1988,0.085927,0.24641,0.15396,0.41907,0.045658,0.16989,0.088604,0.16469,-0.24031,0.23839,0.1334,-0.27914,0.26725,-0.088638,-0.12391,0.14772,0.13722,-0.20818,-0.16569,0.23305,0.045955,0.14855,0.17096,-0.20371,-0.20805,0.0047026
-0.53578,0.023749,-0.32945,-0.6634,-0.32084,-0.44206,-0.22682,-0.30073,-0.49967,-0.46165,-0.51761,-0.39444,-0.41326,-0.39832,0.07015,-0.53525,-0.44621,0.065605,-0.36885,-0.48843,-0.29155,-0.44776,-0.41892,0.53677,0.1929,0.17477,-0.2753,-0.29582,-0.31224,-0.28164,0.34115,0.079101,0.076741,0.29594,0.2523,-0.32374,-0.2288,0.022998,0.14611,0.22864,0.10213,0.040143,-0.27324,0.13916,-0.22522,-0.18921,0.20784,0.071514,-0.28571,-0.024141,-0.1142,0.13017,-0.25193,0.10215,-0.10967,-0.34973,-0.17608,0.040136,0.27734,0.22495,0.051313,0.21683,0.14292,0.010731,0.10085,-0.21879,0.032487,-0.12654,-0.068597,-0.15888,-0.01248,0.0082096,0.04415,0.15841,-0.031768,-0.075901,-0.020524,-0.19791,0.23342,-0.15692,0.092911,-0.10433,0.073519,-0.1777,-0.16137,0.10227,-0.13384,-0.10626,0.017623,-0.028964,-0.17478,0.067432,0.070431,-0.28783,0.034995,-0.0010882,-0.18015,0.087547,0.0093552,-0.090041
-0.48768,0.45953,0.16876,-0.3387,0.27613,-0.45641,0.3798,-0.4415,-0.46432,-0.1422,-0.41144,-0.38385,-0.20302,-0.28206,0.36099,-0.21558,-0.42188,0.39098,-0.38819,-0.44294,0.26153,0.032205,-0.32498,0.1929,0.90932,0.24429,-0.3135,-0.23463,-0.098082,-0.35939,0.6108,-0.023374,-0.17188,0.54865,0.50606,-0.34216,-0.32888,0.34196,-0.047051,0.39717,-0.16998,-0.23643,-0.25903,0.22054,-0.44354,-0.17726,0.23591,-0.22452,-0.23635,0.26329,-0.20068,0.3807,-0.042,0.096379,-0.13937,-0.36583,-0.25483,-0.18835,0.27217,0.076414,0.19799,0.051744,-0.17172,0.24557,0.23727,-0.4104,0.1633,-0.14356,-0.19014,-0.21654,0.23067,-0.15823,0.09971,0.29624,-0.24871,-0.36342,-0.20771,-0.18373,-0.11777,-0.11405,-0.015946,-0.25041,0.18117,-0.2195,-0.34769,0.096596,-0.45779,0.1781,0.18546,-0.29095,-0.16684,0.12738,0.27074,-0.38075,-0.087286,-0.31264,-0.25179,0.15048,0.21899,0.084163
-0.59594,0.39791,0.072725,-0.46758,0.094857,-0.53198,0.29483,-0.48823,-0.5558,-0.24612,-0.54531,-0.44366,-0.34438,-0.40662,0.33782,-0.34581,-0.49736,0.34293,-0.44073,-0.49047,0.18045,-0.070621,-0.43842,0.17477,0.24429,0.7935,-0.32879,-0.29781,-0.20897,-0.35167,0.59578,0.046431,-0.16495,0.56819,0.46895,-0.39041,-0.31218,0.27925,-0.029639,0.43463,-0.1422,-0.18629,-0.31281,0.2357,-0.43206,-0.28222,0.30528,-0.2045,-0.34004,0.25337,-0.23553,0.3123,-0.10596,0.11828,-0.17694,-0.45354,-0.29802,-0.15924,0.32725,0.15577,0.16394,0.1053,-0.11954,0.23117,0.22669,-0.39323,0.14781,-0.18619,-0.25414,-0.26998,0.20826,-0.1641,0.10833,0.2734,-0.22602,-0.31697,-0.13964,-0.22095,-0.056352,-0.11147,-0.051325,-0.24579,0.17923,-0.26741,-0.38744,0.10792,-0.4329,0.065562,0.23179,-0.25592,-0.24911,0.12958,0.2193,-0.37861,-0.021343,-0.2228,-0.24149,0.21228,0.22409,0.071573
0.51966,-0.4729,-0.12745,0.40818,-0.18862,0.30327,-0.37512,0.35682,0.52794,0.17331,0.43561,0.41293,0.31694,0.3922,-0.41252,0.27799,0.43612,-0.4402,0.37542,0.45268,-0.26769,0.07133,0.29524,-0.2753,-0.3135,-0.32879,0.97225,0.30976,0.23612,0.39232,-0.22053,-0.42555,0.11863,-0.41508,-0.25251,0.35216,0.36095,-0.34988,0.088172,-0.21945,0.099762,0.11929,0.30872,-0.38449,0.26331,0.34469,-0.46198,0.25943,0.34502,-0.07206,0.33865,-0.27083,-0.0023634,-0.1073,0.16482,0.43826,0.33306,0.198,-0.26853,-0.35225,-0.2412,-0.31642,0.11271,-0.17088,-0.31035,0.24489,-0.20013,0.17446,0.064512,0.28093,-0.2666,0.12573,-0.11915,-0.26641,0.10534,0.27419,0.22036,0.19628,0.067375,0.18601,0.085764,0.13773,-0.15026,0.20097,0.22117,-0.18278,0.25266,-0.11822,-0.16313,0.21839,0.19569,-0.2169,-0.21919,0.28117,0.081432,0.17754,0.13473,-0.20331,-0.20487,-0.067713
0.43856,-0.45242,0.07322,0.31792,0.18414,0.088573,-0.3005,0.30007,0.35752,0.5368,0.37493,0.22345,0.63016,0.26084,-0.43467,0.33005,0.21965,-0.44815,0.22545,0.35219,-0.13065,0.241,0.43107,-0.29582,-0.23463,-0.29781,0.30976,0.95863,0.40473,0.37721,-0.04704,-0.41263,0.041869,-0.26808,-0.033465,0.27593,0.33397,-0.052245,0.047657,-0.04447,-0.16084,0.094911,0.31996,-0.14381,0.11595,0.29938,-0.34539,0.14349,0.57266,0.0074386,0.086648,-0.078987,0.22629,0.066844,0.024267,0.35464,0.31178,0.1717,-0.23835,-0.36339,-0.053348,-0.31637,0.15547,-0.11031,-0.36066,0.11952,-0.11032,-0.032319,-0.066541,0.25286,-0.014342,0.040774,0.0048464,0.039111,0.11479,0.2499,0.21386,0.45924,0.092191,0.27691,0.20962,0.15747,-0.26871,0.29569,0.10481,-0.33106,0.29474,0.026228,-0.028659,0.1436,-7.7875e-05,-0.11692,-0.073324,0.15395,0.19163,0.17722,0.099379,-0.13277,-0.039543,0.081377
0.38272,-0.3077,0.20673,0.45545,0.24802,0.17463,-0.0229,0.17607,0.29147,0.44097,0.38633,0.13825,0.43435,0.12117,-0.39544,0.3981,0.21633,-0.33377,0.2123,0.30989,0.064742,0.33519,0.44603,-0.31224,-0.098082,-0.20897,0.23612,0.40473,0.97812,0.27835,0.067455,-0.45812,-0.10803,-0.19187,0.042337,0.16101,0.16209,-0.061389,-0.069635,0.047085,-0.12204,-0.023846,0.3435,-0.3101,0.0033812,0.31798,-0.33299,-0.0015755,0.38726,0.086801,0.15166,-0.046691,0.27245,-0.042177,0.019566,0.28664,0.28521,0.017719,-0.26921,-0.415,-0.094747,-0.38503,-0.05776,0.035383,-0.27692,0.11219,-0.15117,0.071048,0.0037815,0.25238,0.00098041,-0.065094,0.10814,-0.078116,-0.062986,0.096785,0.12294,0.3072,-0.15766,0.1476,0.081387,0.1037,-0.13345,0.19135,0.035711,-0.22874,0.063503,-0.0045986,0.011888,0.028498,0.12883,-0.14662,-0.012583,0.20413,0.004676,-0.00088851,0.15971,-0.16496,-0.033584,0.065966
0.5026,-0.50902,-0.19517,0.38343,-0.16161,0.39717,-0.42783,0.41875,0.55928,0.25712,0.45351,0.38008,0.34522,0.31813,-0.44271,0.24201,0.38132,-0.48917,0.37894,0.42324,-0.27036,0.083688,0.39676,-0.28164,-0.35939,-0.35167,0.39232,0.37721,0.27835,0.96983,-0.17319,-0.44279,0.16695,-0.45827,-0.27739,0.3452,0.35634,-0.32465,0.076319,-0.24059,0.16754,0.12101,0.32978,-0.38857,0.26889,0.37678,-0.51662,0.21796,0.43229,-0.12402,0.39187,-0.26947,0.072326,-0.1454,0.10186,0.44571,0.38453,0.18218,-0.29446,-0.36585,-0.24764,-0.30859,0.11739,-0.15758,-0.3469,0.23292,-0.24464,0.16453,0.096732,0.32421,-0.22642,0.16347,-0.095465,-0.25885,0.17482,0.31139,0.26148,0.26508,0.1105,0.2497,0.10886,0.15563,-0.21524,0.26949,0.25084,-0.23598,0.31638,-0.12078,-0.14681,0.23141,0.2481,-0.19399,-0.26773,0.29929,0.082841,0.22964,0.09874,-0.29223,-0.17828,-0.096487
-0.3028,0.70317,0.5103,-0.076631,0.61822,-0.34609,0.74371,-0.35426,-0.34756,0.21218,-0.28058,-0.31895,0.025076,-0.22584,0.56935,0.14936,-0.29613,0.61647,-0.25774,-0.22092,0.63016,0.39572,-0.11833,0.34115,0.6108,0.59578,-0.22053,-0.04704,0.067455,-0.17319,1.0839,-0.19526,-0.28902,0.46732,0.44622,-0.21563,-0.31832,0.34871,-0.28752,0.54588,-0.22327,-0.32209,-0.036319,0.077097,-0.41872,-0.19673,0.1491,-0.40851,-0.090646,0.32956,-0.21999,0.27802,0.17284,0.031496,-0.20637,-0.25902,-0.22305,-0.31843,0.042089,-0.18467,0.17062,-0.15503,-0.32535,0.28197,0.12199,-0.31415,0.028726,-0.14333,-0.28507,-0.22451,0.22447,-0.30416,0.22868,0.19244,-0.3133,-0.34928,-0.23644,-0.049917,-0.31558,-0.13655,-0.17167,-0.27221,0.1259,-0.12324,-0.36375,0.0038292,-0.43031,0.10248,0.314,-0.32921,-0.1861,0.010334,0.26702,-0.18425,-0.18059,-0.35634,-0.091262,0.10463,0.21701,0.19019
-0.51476,0.086121,-0.1745,-0.5581,-0.20421,-0.42665,-0.096985,-0.31864,-0.47833,-0.40967,-0.48654,-0.3684,-0.38598,-0.34452,0.11976,-0.48842,-0.43333,0.13042,-0.3772,-0.4821,-0.18461,-0.34788,-0.45263,0.079101,-0.023374,0.046431,-0.42555,-0.41263,-0.45812,-0.44279,-0.19526,0.61401,0.067266,0.36545,0.29535,-0.24231,-0.23312,0.13152,0.15979,0.29501,-0.027547,0.024313,-0.25086,0.17669,-0.20705,-0.26388,0.22781,0.038907,-0.28154,0.084339,-0.15737,0.15225,-0.22636,0.12945,-0.096496,-0.35589,-0.20735,0.058856,0.25513,0.22588,0.096783,0.16953,0.16228,0.14931,0.14698,-0.26408,0.035878,-0.18104,-0.098206,-0.21387,0.083555,-0.035262,0.022281,0.19332,-0.033589,-0.11807,-0.013618,-0.21449,0.16458,-0.11823,0.020809,-0.14741,0.062762,-0.19949,-0.1931,0.05709,-0.20461,-0.012391,-0.0061018,-0.055338,-0.16696,0.066613,0.10107,-0.25095,0.06136,-0.023531,-0.17478,0.11857,0.084443,-0.078657
0.14098,-0.24353,-0.37453,-0.12903,-0.27402,0.18205,-0.42967,0.3188,0.19016,-0.10556,0.17579,0.20453,0.061046,0.21094,-0.084229,-0.1835,0.17009,-0.15311,0.18565,0.076301,-0.34928,-0.21459,0.11745,0.076741,-0.17188,-0.16495,0.11863,0.041869,-0.10803,0.16695,-0.28902,0.067266,0.9164,-0.25969,-0.21917,0.13415,0.1162,-0.28088,0.2949,-0.14326,0.26159,0.27175,0.077756,-0.16527,0.21128,0.17749,-0.22787,0.36119,0.13847,-0.17373,0.22406,-0.18072,-0.16241,-0.014638,0.10977,0.14438,0.17083,0.282,-0.039115,-0.093275,-0.21757,-0.058445,0.34032,-0.11476,-0.16075,0.13718,-0.097124,0.069669,0.079846,0.16532,-0.22219,0.21434,-0.15317,-0.090999,0.19863,0.28429,0.17334,0.086892,0.29039,0.085867,0.16783,0.16644,-0.086003,0.12933,0.20564,-0.07926,0.24408,-0.092962,-0.18047,0.2098,0.17002,-0.1565,-0.14185,0.084392,0.13623,0.24965,0.021782,-0.16961,-0.17595,-0.13866
-0.62274,0.78245,0.43681,-0.33235,0.45462,-0.59731,0.68408,-0.57025,-0.59801,-0.077036,-0.54408,-0.49621,-0.26093,-0.36509,0.59761,-0.1318,-0.52036,0.67431,-0.46849,-0.46089,0.4951,0.1919,-0.42526,0.29594,0.54865,0.56819,-0.41508,-0.26808,-0.19187,-0.45827,0.46732,0.36545,-0.25969,1.0021,0.68243,-0.43815,-0.48643,0.50311,-0.19163,0.66754,-0.23936,-0.37496,-0.32708,0.32017,-0.59589,-0.40193,0.40177,-0.37898,-0.32189,0.37503,-0.38773,0.41491,0.00149,0.16553,-0.27305,-0.51553,-0.39582,-0.30389,0.34113,0.055233,0.33967,0.059442,-0.24518,0.33056,0.32496,-0.5435,0.15276,-0.28852,-0.34035,-0.40917,0.2803,-0.31044,0.18771,0.41479,-0.32129,-0.4586,-0.32669,-0.26714,-0.13821,-0.18396,-0.12424,-0.36589,0.23106,-0.35147,-0.49089,0.11276,-0.50874,0.16059,0.36048,-0.32609,-0.38808,0.14853,0.36393,-0.42173,-0.092517,-0.37003,-0.24478,0.25538,0.323,0.18852
-0.30432,0.59143,0.60562,-0.11314,0.54535,-0.53195,0.62262,-0.43169,-0.40638,0.23245,-0.30028,-0.34539,0.035197,-0.2974,0.39047,0.14344,-0.35639,0.52286,-0.30072,-0.2403,0.44413,0.36311,-0.18522,0.2523,0.50606,0.46895,-0.25251,-0.033465,0.042337,-0.27739,0.44622,0.29535,-0.21917,0.68243,0.93231,-0.14576,-0.26919,0.3579,-0.32581,0.6204,-0.36519,-0.376,0.037349,0.066489,-0.47802,-0.11168,0.17176,-0.36545,0.026536,0.34871,-0.18966,0.2207,0.31161,0.030866,-0.20423,-0.13152,-0.12222,-0.28271,-0.001858,-0.25573,0.28239,-0.23181,-0.24015,0.26782,0.013344,-0.26651,0.014972,-0.168,-0.25781,-0.21938,0.22606,-0.26963,0.30239,0.19402,-0.30955,-0.28395,-0.20137,0.0023,-0.35344,-0.06404,-0.068032,-0.18084,0.025912,-0.080433,-0.30843,-0.030383,-0.31381,0.16118,0.25729,-0.27697,-0.17422,-0.026206,0.28843,-0.082111,-0.099196,-0.26766,0.079479,0.12885,0.21759,0.24216
0.54417,-0.50971,-0.19689,0.40446,-0.22631,0.30452,-0.43437,0.32261,0.49542,0.19175,0.42432,0.49099,0.30263,0.34635,-0.39919,0.22238,0.40864,-0.52541,0.3615,0.40814,-0.34027,0.0080714,0.23452,-0.32374,-0.34216,-0.39041,0.35216,0.27593,0.16101,0.3452,-0.21563,-0.24231,0.13415,-0.43815,-0.14576,0.94532,0.26117,-0.35808,0.061666,-0.18789,0.08919,0.10295,0.34216,-0.29043,0.25582,0.30458,-0.46363,0.21682,0.3281,-0.095911,0.29522,-0.32751,-0.03352,-0.083588,0.083966,0.47874,0.28058,0.16711,-0.28312,-0.35529,-0.18452,-0.3098,0.12018,-0.18489,-0.28997,0.24124,-0.18576,0.16235,0.080014,0.17835,-0.20333,0.11751,-0.16728,-0.2397,0.14252,0.29889,0.24818,0.19241,0.094971,0.20034,0.076747,0.13405,-0.21118,0.24036,0.21465,-0.17461,0.28725,-0.082686,-0.12719,0.22422,0.32193,-0.23933,-0.18867,0.28427,0.083187,0.24687,0.13039,-0.26113,-0.2292,-0.0045172
0.41775,-0.50013,-0.25491,0.22354,-0.23758,0.24733,-0.468,0.39105,0.42245,0.14487,0.34573,0.31837,0.3208,0.31247,-0.4046,0.14319,0.31946,-0.43598,0.31084,0.33772,-0.34581,-0.03145,0.28478,-0.2288,-0.32888,-0.31218,0.36095,0.33397,0.16209,0.35634,-0.31832,-0.23312,0.1162,-0.48643,-0.26919,0.26117,0.94349,-0.34762,0.1803,-0.23893,0.074812,0.18424,0.29968,-0.36164,0.22224,0.32922,-0.46251,0.29874,0.31079,-0.16024,0.28068,-0.28535,-0.022868,-0.042044,0.12312,0.35859,0.33787,0.25491,-0.22814,-0.27793,-0.29388,-0.27475,0.2442,-0.20241,-0.33839,0.18473,-0.21556,0.21227,0.024253,0.2922,-0.23964,0.14012,-0.09908,-0.22902,0.19584,0.30821,0.22109,0.2306,0.16804,0.1677,0.1435,0.15664,-0.19504,0.18583,0.22078,-0.23767,0.31578,-0.19793,-0.22013,0.2113,0.13534,-0.17765,-0.29544,0.26957,0.13386,0.25996,0.045338,-0.21459,-0.22394,-0.13873
-0.46245,0.36746,0.34852,-0.29058,0.50871,-0.61376,0.42577,-0.46716,-0.49929,0.11976,-0.41171,-0.51795,0.015496,-0.39489,0.23214,-0.0065885,-0.55205,0.3005,-0.47586,-0.36176,0.32289,0.25474,-0.2115,0.022998,0.34196,0.27925,-0.34988,-0.052245,-0.061389,-0.32465,0.34871,0.13152,-0.28088,0.50311,0.3579,-0.35808,-0.34762,0.89195,-0.083909,0.56414,-0.30916,-0.19207,-0.090309,0.24828,-0.44688,-0.16021,0.23036,-0.23068,0.091812,0.3904,-0.29883,0.42437,0.22277,0.22109,-0.18611,-0.29485,-0.19918,-0.14259,0.22073,-0.083648,0.29511,-0.076829,-0.076875,0.33844,0.13476,-0.38567,0.17016,-0.22538,-0.27024,-0.18625,0.31052,-0.21627,0.29821,0.40491,-0.18327,-0.35691,-0.17622,0.067999,-0.1662,-0.017268,0.066295,-0.22615,0.092304,-0.10502,-0.43254,-0.060326,-0.38997,0.25044,0.34877,-0.27509,-0.34258,0.094275,0.30924,-0.24173,0.025093,-0.34005,-0.12721,0.22836,0.31709,0.21755
0.0066779,-0.084301,-0.29204,-0.20668,-0.2019,0.087052,-0.33662,0.30734,0.080588,-0.089774,0.083008,0.16228,0.028126,0.2129,0.078615,-0.21149,0.1283,-0.012245,0.1271,0.015393,-0.30706,-0.21048,0.061859,0.14611,-0.047051,-0.029639,0.088172,0.047657,-0.069635,0.076319,-0.28752,0.15979,0.2949,-0.19163,-0.32581,0.061666,0.1803,-0.083909,0.93724,-0.092982,0.25265,0.42413,0.011984,-0.08127,0.25784,0.092105,-0.19006,0.36314,0.042006,-0.1075,0.15879,-0.07827,-0.20999,0.063797,0.20179,-0.01764,0.087459,0.4054,0.091051,-7.5797e-05,-0.20997,0.0094883,0.46897,-0.02622,-0.011533,0.11573,-0.025607,0.16012,0.11311,0.17647,-0.078154,0.24084,-0.15049,0.052794,0.28327,0.21986,0.22221,0.062615,0.35742,0.13036,0.18736,0.12724,-0.015002,0.088402,0.21499,-0.046854,0.18864,-0.11611,-0.2018,0.22632,0.036732,-0.043195,-0.15744,0.058866,0.20772,0.24131,-0.17034,-0.053142,-0.10439,-0.22912
-0.25833,0.5503,0.69214,-0.049956,0.46089,-0.28908,0.6846,-0.36753,-0.3683,0.23287,-0.26486,-0.27405,-0.072867,-0.30985,0.34755,0.27962,-0.28298,0.53293,-0.28833,-0.1418,0.57958,0.32684,-0.14811,0.22864,0.39717,0.43463,-0.21945,-0.04447,0.047085,-0.24059,0.54588,0.29501,-0.14326,0.66754,0.6204,-0.18789,-0.23893,0.56414,-0.092982,1.0612,-0.27762,-0.34949,0.027671,0.050939,-0.52166,-0.22887,0.22514,-0.38811,-0.15042,0.28947,-0.17632,0.1994,0.21863,-0.051548,-0.1893,-0.30659,-0.26937,-0.29891,-0.036046,-0.21321,0.22547,-0.17125,-0.24382,0.24228,0.056182,-0.29659,-0.077641,-0.2143,-0.29401,-0.2285,0.14149,-0.28131,0.38532,0.10208,-0.29608,-0.26545,-0.24457,-0.13026,-0.29006,-0.17697,-0.19891,-0.24829,0.055223,-0.15409,-0.3078,-0.0091018,-0.31259,0.022819,0.22727,-0.22104,-0.18404,-0.077738,0.25529,-0.046284,-0.18207,-0.22245,0.10441,0.1279,0.11949,0.23931
0.081297,-0.13361,-0.38669,-0.0049732,-0.36679,0.36636,-0.23166,0.24869,0.20889,-0.29465,0.14175,0.24192,-0.20911,0.16798,0.049728,-0.18368,0.24158,-0.079621,0.19075,0.12145,-0.21067,-0.28319,0.015897,0.10213,-0.16998,-0.1422,0.099762,-0.16084,-0.12204,0.16754,-0.22327,-0.027547,0.26159,-0.23936,-0.36519,0.08919,0.074812,-0.30916,0.25265,-0.27762,0.91713,0.14709,-0.1562,-0.20792,0.097954,0.061113,-0.20802,0.22509,-0.25608,-0.1547,0.24868,-0.14986,-0.41794,-0.13465,0.13397,-0.069778,0.062014,0.16152,0.025615,0.023124,-0.23376,0.066952,0.16471,-0.071186,0.013385,0.016806,-0.15698,0.11815,0.064232,0.064312,-0.26204,0.1955,-0.11842,-0.18138,0.13603,0.089153,0.055204,-0.22634,0.1613,-0.060442,-0.0040341,-0.021327,0.063114,-0.047,0.084352,0.08656,-0.012602,-0.2317,-0.18384,0.12406,0.21988,-0.10618,-0.13228,0.0083386,-0.073349,0.12582,-0.064605,-0.1794,-0.18188,-0.23085
0.18015,-0.29909,-0.31973,-0.083003,-0.31688,0.18855,-0.46023,0.40428,0.18393,0.0069047,0.18047,0.19327,0.1106,0.25406,-0.10116,-0.1222,0.18654,-0.18655,0.22129,0.12903,-0.35875,-0.21887,0.14665,0.040143,-0.23643,-0.18629,0.11929,0.094911,-0.023846,0.12101,-0.32209,0.024313,0.27175,-0.37496,-0.376,0.10295,0.18424,-0.19207,0.42413,-0.34949,0.14709,0.91486,0.12304,-0.16803,0.24673,0.16262,-0.25928,0.39215,0.1418,-0.2171,0.18785,-0.17141,-0.18514,0.060603,0.1818,0.12024,0.15291,0.44603,-0.043401,-0.059343,-0.24943,-0.030793,0.517,-0.14051,-0.11743,0.18851,-0.13539,0.12549,0.11666,0.19945,-0.19724,0.25641,-0.09005,-0.023938,0.30141,0.32123,0.20902,0.097171,0.374,0.10363,0.20703,0.20575,-0.13994,0.15823,0.27779,-0.11157,0.30253,-0.18142,-0.21268,0.27563,0.087926,-0.099787,-0.2239,0.17476,0.2028,0.29087,-0.028191,-0.16387,-0.15873,-0.20652
0.50562,-0.4373,0.063913,0.41247,-0.029278,0.31025,-0.20892,0.28092,0.39916,0.33008,0.41772,0.30473,0.35862,0.21885,-0.44752,0.37186,0.30518,-0.41222,0.29155,0.38582,-0.14733,0.20528,0.34431,-0.27324,-0.25903,-0.31281,0.30872,0.31996,0.3435,0.32978,-0.036319,-0.25086,0.077756,-0.32708,0.037349,0.34216,0.29968,-0.090309,0.011984,0.027671,-0.1562,0.12304,0.96461,-0.27954,0.13301,0.3303,-0.35236,0.10802,0.35697,0.0071226,0.26498,-0.1938,0.18642,-0.10648,0.030777,0.34617,0.26579,0.14001,-0.28761,-0.35415,-0.12822,-0.36191,0.1367,-0.090455,-0.33306,0.28345,-0.21939,0.1304,0.046743,0.20296,-0.12674,0.06027,0.06539,-0.17448,0.056519,0.34423,0.19013,0.26501,0.047466,0.13333,0.084458,0.15998,-0.2127,0.26123,0.1877,-0.22294,0.29779,-0.061927,-0.063465,0.22053,0.24468,-0.15273,-0.088203,0.34814,0.034535,0.22877,0.27588,-0.19046,-0.13617,0.011061
-0.50245,0.30561,0.081112,-0.4485,0.18595,-0.59841,0.13233,-0.36416,-0.51897,-0.10039,-0.44697,-0.39455,-0.10683,-0.33226,0.30033,-0.29162,-0.50323,0.29306,-0.38659,-0.43864,0.11276,-0.032601,-0.32681,0.13916,0.22054,0.2357,-0.38449,-0.14381,-0.3101,-0.38857,0.077097,0.17669,-0.16527,0.32017,0.066489,-0.29043,-0.36164,0.24828,-0.08127,0.050939,-0.20792,-0.16803,-0.27954,0.81123,-0.35475,-0.23534,0.26214,-0.078839,-0.094453,0.22429,-0.31395,0.29442,-0.014404,0.22628,-0.18038,-0.29994,-0.21247,-0.033463,0.26753,0.12116,0.15736,0.060804,0.096245,0.19905,0.1744,-0.32887,0.17101,-0.29187,-0.24752,-0.24531,0.20981,-0.11172,0.10873,0.36791,-0.14027,-0.20842,-0.097206,-0.034013,0.058972,-0.0060835,0.10036,-0.16497,0.053848,-0.088971,-0.37068,0.021035,-0.27677,0.12231,0.22897,-0.17099,-0.29143,0.13435,0.26533,-0.36076,0.042237,-0.18893,-0.11135,0.23844,0.26158,0.11487
0.29945,-0.55919,-0.48263,0.12833,-0.43216,0.33494,-0.61339,0.39452,0.39461,-0.101,0.28397,0.35322,0.057299,0.33495,-0.40846,-0.081798,0.33709,-0.4965,0.29727,0.23433,-0.47835,-0.26268,0.15372,-0.22522,-0.44354,-0.43206,0.26331,0.11595,0.0033812,0.26889,-0.41872,-0.20705,0.21128,-0.59589,-0.47802,0.25582,0.22224,-0.44688,0.25784,-0.52166,0.097954,0.24673,0.13301,-0.35475,0.85105,0.23959,-0.41559,0.42905,0.13719,-0.24072,0.36302,-0.29664,-0.19047,-0.033596,0.26828,0.26286,0.21047,0.41974,-0.089225,-0.151,-0.31144,-0.16072,0.381,-0.16917,-0.14889,0.29578,-0.17194,0.24855,0.16455,0.26246,-0.23554,0.29127,-0.25717,-0.1374,0.31363,0.45433,0.30816,0.10159,0.36401,0.15509,0.17031,0.2596,-0.14546,0.2125,0.3315,-0.12289,0.37827,-0.1872,-0.23642,0.38111,0.27049,-0.10563,-0.3183,0.26442,0.1969,0.39615,-0.038927,-0.22038,-0.24033,-0.22532
0.41715,-0.432,-0.16088,0.29667,-0.069807,0.2905,-0.33892,0.37763,0.42613,0.19823,0.42677,0.2954,0.31001,0.25698,-0.35479,0.20061,0.3286,-0.39281,0.32612,0.35825,-0.22915,0.068347,0.32894,-0.18921,-0.17726,-0.28222,0.34469,0.29938,0.31798,0.37678,-0.19673,-0.26388,0.17749,-0.40193,-0.11168,0.30458,0.32922,-0.16021,0.092105,-0.22887,0.061113,0.16262,0.3303,-0.23534,0.23959,0.98288,-0.4369,0.22343,0.3023,-0.10955,0.27808,-0.1685,0.092521,-0.11387,0.15826,0.29584,0.37979,0.1073,-0.25627,-0.32136,-0.28132,-0.32136,0.083513,-0.10971,-0.30352,0.15454,-0.17131,0.19473,0.11621,0.35046,-0.19707,0.1424,-0.070009,-0.26516,0.06292,0.23388,0.18902,0.21215,-0.0034883,0.15641,0.07524,0.15782,-0.15997,0.27228,0.19009,-0.21487,0.17383,-0.17065,-0.14485,0.15272,0.20568,-0.18945,-0.19736,0.26701,0.050993,0.13197,0.10757,-0.27488,-0.23908,-0.072199
-0.59083,0.39174,0.22361,-0.50974,0.11272,-0.56152,0.34677,-0.4712,-0.61516,-0.20498,-0.54377,-0.50471,-0.32882,-0.44106,0.29851,-0.25742,-0.54656,0.38879,-0.50137,-0.51198,0.17518,-0.076631,-0.50878,0.20784,0.23591,0.30528,-0.46198,-0.34539,-0.33299,-0.51662,0.1491,0.22781,-0.22787,0.40177,0.17176,-0.46363,-0.46251,0.23036,-0.19006,0.22514,-0.20802,-0.25928,-0.35236,0.26214,-0.41559,-0.4369,0.77319,-0.21627,-0.32151,0.30722,-0.2964,0.31814,-0.069375,0.16001,-0.19307,-0.4601,-0.33436,-0.16186,0.30996,0.13493,0.32025,0.15437,-0.0011251,0.25638,0.20444,-0.4003,0.10693,-0.298,-0.24587,-0.32891,0.22,-0.16157,0.25452,0.28679,-0.26629,-0.30089,-0.22334,-0.24735,-0.012098,-0.18048,-0.011155,-0.22868,0.10326,-0.28076,-0.38696,0.13554,-0.37913,0.098921,0.23548,-0.25591,-0.28671,0.10996,0.31999,-0.28535,-0.045915,-0.22229,-0.091388,0.22522,0.271,0.12366
0.22773,-0.32086,-0.39732,-0.085394,-0.32717,0.20553,-0.49092,0.46385,0.29247,-0.03878,0.24528,0.33835,0.13948,0.34032,-0.13771,-0.13733,0.30108,-0.20972,0.32544,0.16816,-0.42552,-0.27667,0.14512,0.071514,-0.22452,-0.2045,0.25943,0.14349,-0.0015755,0.21796,-0.40851,0.038907,0.36119,-0.37898,-0.36545,0.21682,0.29874,-0.23068,0.36314,-0.38811,0.22509,0.39215,0.10802,-0.078839,0.42905,0.22343,-0.21627,0.93673,0.15306,-0.14847,0.2659,-0.21321,-0.13,0.031877,0.19683,0.18299,0.23895,0.39622,-0.036338,-0.088394,-0.24652,-0.11985,0.43258,-0.1635,-0.21328,0.19967,-0.15419,0.15937,0.12922,0.22558,-0.19557,0.25656,-0.13391,-0.10969,0.25511,0.37448,0.24697,0.13345,0.36682,0.15221,0.23242,0.23053,-0.15374,0.18446,0.27296,-0.089179,0.34317,-0.13893,-0.23655,0.34391,0.16886,-0.12133,-0.23868,0.23368,0.2208,0.32671,0.025699,-0.17525,-0.14688,-0.18805
0.45622,-0.47929,-0.012203,0.33776,0.188,0.070871,-0.3631,0.32608,0.4191,0.5272,0.41084,0.24566,0.68809,0.2397,-0.43877,0.32423,0.19349,-0.46254,0.27419,0.35978,-0.19543,0.32367,0.45809,-0.28571,-0.23635,-0.34004,0.34502,0.57266,0.38726,0.43229,-0.090646,-0.28154,0.13847,-0.32189,0.026536,0.3281,0.31079,0.091812,0.042006,-0.15042,-0.25608,0.1418,0.35697,-0.094453,0.13719,0.3023,-0.32151,0.15306,0.94759,0.10464,0.091114,-0.046482,0.29768,0.084276,-0.0080672,0.45966,0.35692,0.18102,-0.17984,-0.34982,-0.067363,-0.28981,0.16305,-0.13416,-0.35315,0.12579,-0.067884,-0.0010646,-0.034207,0.28467,-0.019665,0.0274,0.0024075,0.019824,0.11023,0.22098,0.20398,0.51825,0.091295,0.30156,0.16784,0.18465,-0.31311,0.24867,0.10228,-0.30281,0.26039,0.12459,0.038432,0.15075,0.017666,-0.12427,-0.05172,0.15196,0.16919,0.11135,0.14354,-0.082059,-0.027732,0.10255
-0.1506,0.25244,0.33613,0.033522,0.40155,-0.3334,0.40251,-0.25665,-0.17568,0.17831,-0.13773,-0.21205,0.07017,-0.19886,0.11301,0.18858,-0.22111,0.16548,-0.1856,-0.11461,0.32784,0.28695,-0.054071,-0.024141,0.26329,0.25337,-0.07206,0.0074386,0.086801,-0.12402,0.32956,0.084339,-0.17373,0.37503,0.34871,-0.095911,-0.16024,0.3904,-0.1075,0.28947,-0.1547,-0.2171,0.0071226,0.22429,-0.24072,-0.10955,0.30722,-0.14847,0.10464,0.92748,-0.098811,0.18298,0.24435,-0.0013747,-0.11976,-0.025633,-0.015369,-0.21579,-0.055009,-0.31124,0.10642,-0.24886,-0.19627,0.16387,-0.058151,-0.12089,0.0052507,-0.079423,-0.24539,-0.068754,0.12873,-0.14379,0.23944,0.057952,-0.26673,-0.21891,-0.097618,0.094571,-0.3278,-0.050105,-0.076534,-0.1638,0.009343,-0.038347,-0.28238,-0.10463,-0.27808,0.090045,0.20506,-0.18501,-0.1077,-0.062791,0.17295,-0.0054398,-0.12401,-0.23886,0.11748,0.06089,0.12258,0.15325
0.42561,-0.32679,-0.21637,0.32152,-0.31872,0.52039,-0.29212,0.3535,0.48354,0.010229,0.36228,0.41419,-0.0037443,0.32371,-0.28159,0.13806,0.45487,-0.31685,0.38887,0.3422,-0.21207,-0.098782,0.20627,-0.1142,-0.20068,-0.23553,0.33865,0.086648,0.15166,0.39187,-0.21999,-0.15737,0.22406,-0.38773,-0.18966,0.29522,0.28068,-0.29883,0.15879,-0.17632,0.24868,0.18785,0.26498,-0.31395,0.36302,0.27808,-0.2964,0.2659,0.091114,-0.098811,1.0216,-0.39393,-0.16369,-0.28948,0.24346,0.28286,0.19516,0.13671,-0.32443,-0.29385,-0.33256,-0.27746,-0.0013601,-0.17956,-0.25064,0.27391,-0.31771,0.2827,0.15381,0.24841,-0.37715,0.16195,-0.071846,-0.43647,0.090387,0.25666,0.11983,-0.059558,0.046635,0.011063,-0.017607,0.14357,-0.058798,0.13332,0.2977,-0.12268,0.22367,-0.27789,-0.24877,0.21491,0.388,-0.20123,-0.29311,0.29579,-0.0094633,0.2253,0.011033,-0.34104,-0.36914,-0.17566
-0.48638,0.39209,0.21902,-0.29378,0.39683,-0.53833,0.35836,-0.33364,-0.42824,0.008779,-0.35752,-0.42913,-0.00364,-0.29873,0.33797,-0.0784,-0.48717,0.35031,-0.34793,-0.37293,0.30874,0.19228,-0.13637,0.13017,0.3807,0.3123,-0.27083,-0.078987,-0.046691,-0.26947,0.27802,0.15225,-0.18072,0.41491,0.2207,-0.32751,-0.28535,0.42437,-0.07827,0.1994,-0.14986,-0.17141,-0.1938,0.29442,-0.29664,-0.1685,0.31814,-0.21321,-0.046482,0.18298,-0.39393,0.9453,0.17361,0.1251,-0.16416,-0.28891,-0.1624,-0.13059,0.22198,-0.041289,0.15658,-0.02203,-0.091183,0.26544,0.11998,-0.37324,0.1803,-0.21161,-0.23414,-0.14737,0.25448,-0.1966,0.21723,0.31077,-0.22738,-0.38327,-0.11685,0.011861,-0.1882,-0.048684,-0.0021516,-0.2576,0.14854,-0.11015,-0.42149,0.0078562,-0.45884,0.14757,0.22926,-0.2474,-0.31632,0.10836,0.27985,-0.31953,-0.056333,-0.32283,-0.072595,0.20475,0.26398,0.13201
0.075522,-0.15612,0.30695,0.18144,0.35709,-0.19684,0.098533,-0.11871,-0.033349,0.3649,0.08129,-0.17735,0.34957,-0.15174,-0.29264,0.33501,-0.13391,-0.20277,-0.017867,0.058308,0.18747,0.36666,0.18994,-0.25193,-0.042,-0.10596,-0.0023634,0.22629,0.27245,0.072326,0.17284,-0.22636,-0.16241,0.00149,0.31161,-0.03352,-0.022868,0.22277,-0.20999,0.21863,-0.41794,-0.18514,0.18642,-0.014404,-0.19047,0.092521,-0.069375,-0.13,0.29768,0.24435,-0.16369,0.17361,0.9138,0.044039,-0.092279,0.063135,0.12382,-0.098738,-0.098593,-0.32612,0.074134,-0.29859,-0.052267,0.10744,-0.21253,-0.038718,-0.047926,-0.097267,-0.11356,0.10645,0.097126,-0.12725,0.29156,0.07373,-0.17478,0.00020008,0.033024,0.3041,-0.13977,0.095298,0.071575,-0.002107,-0.10655,0.091322,-0.10414,-0.18637,-0.030818,0.11728,0.13181,-0.034979,-0.13871,-0.071409,0.15912,0.085347,-0.0016634,-0.039395,0.20232,0.064118,0.070808,0.26035
-0.19144,0.14803,0.024859,-0.23436,0.15664,-0.33852,-0.034356,-0.068456,-0.22095,0.063895,-0.18787,-0.14724,0.10668,-0.027453,0.14996,-0.18092,-0.1882,0.13018,-0.12471,-0.16429,-0.045615,-0.022036,-0.10118,0.10215,0.096379,0.11828,-0.1073,0.066844,-0.042177,-0.1454,0.031496,0.12945,-0.014638,0.16553,0.030866,-0.083588,-0.042044,0.22109,0.063797,-0.051548,-0.13465,0.060603,-0.10648,0.22628,-0.033596,-0.11387,0.16001,0.031877,0.084276,-0.0013747,-0.28948,0.1251,0.044039,0.89557,-0.051396,-0.042325,-0.029689,0.098481,0.18705,0.016592,0.13082,-0.022631,0.15611,0.068601,0.035692,-0.19277,0.1076,-0.14178,-0.13228,-0.055419,0.12692,-0.029787,-0.036168,0.29766,0.0094476,-0.0085384,0.077729,0.079119,0.17812,0.062262,0.1983,-0.019758,-0.0021813,-0.011321,-0.15393,-0.048396,-0.055139,0.085768,0.049441,-0.012008,-0.20176,0.045473,0.041931,-0.18809,0.14111,-0.03361,-0.09191,0.10924,0.077504,0.034095
0.12714,-0.22448,-0.21883,0.075479,-0.23078,0.24608,-0.25819,0.21292,0.18715,-0.11172,0.17352,0.1878,-0.068277,0.18102,-0.2035,-0.034084,0.2161,-0.1812,0.1494,0.16096,-0.19131,-0.12639,0.064712,-0.10967,-0.13937,-0.17694,0.16482,0.024267,0.019566,0.10186,-0.20637,-0.096496,0.10977,-0.27305,-0.20423,0.083966,0.12312,-0.18611,0.20179,-0.1893,0.13397,0.1818,0.030777,-0.18038,0.26828,0.15826,-0.19307,0.19683,-0.0080672,-0.11976,0.24346,-0.16416,-0.092279,-0.051396,0.95426,0.0071163,0.097629,0.15678,-0.044224,-0.09964,-0.17615,-0.13103,0.06943,-0.026379,-0.086954,0.059349,-0.1255,0.19483,0.079305,0.19437,-0.16979,0.093754,-0.11943,-0.1479,0.1336,0.11906,0.073448,-0.012222,0.10333,0.06898,0.01983,0.049963,-0.010929,0.037106,0.10161,-0.06087,0.042466,-0.20095,-0.22459,0.099014,0.16392,-0.091553,-0.17438,0.051082,0.053054,0.12181,-0.12949,-0.17461,-0.18579,-0.19897
0.63944,-0.59086,-0.19209,0.48277,-0.21078,0.31534,-0.47725,0.38825,0.59748,0.29724,0.52546,0.45574,0.42575,0.36357,-0.52797,0.3002,0.45106,-0.5746,0.43733,0.46679,-0.34046,0.098117,0.37079,-0.34973,-0.36583,-0.45354,0.43826,0.35464,0.28664,0.44571,-0.25902,-0.35589,0.14438,-0.51553,-0.13152,0.47874,0.35859,-0.29485,-0.01764,-0.30659,-0.069778,0.12024,0.34617,-0.29994,0.26286,0.29584,-0.4601,0.18299,0.45966,-0.025633,0.28286,-0.28891,0.063135,-0.042325,0.0071163,0.95407,0.36512,0.19558,-0.35198,-0.39642,-0.2281,-0.33072,0.14893,-0.25872,-0.33832,0.29107,-0.23628,0.1348,0.063863,0.27915,-0.21134,0.15135,-0.16056,-0.25422,0.10609,0.29984,0.25106,0.26807,0.080107,0.22615,0.12016,0.2166,-0.251,0.24439,0.25182,-0.20492,0.33308,-0.043935,-0.15582,0.24455,0.28663,-0.26593,-0.17329,0.30535,0.056245,0.22139,0.23989,-0.26424,-0.24456,-0.021476
0.40019,-0.42201,-0.1795,0.29936,-0.080888,0.26642,-0.36862,0.36112,0.42772,0.23243,0.41967,0.2801,0.32914,0.26031,-0.34977,0.20584,0.35075,-0.38885,0.31815,0.31407,-0.2356,0.034903,0.39289,-0.17608,-0.25483,-0.29802,0.33306,0.31178,0.28521,0.38453,-0.22305,-0.20735,0.17083,-0.39582,-0.12222,0.28058,0.33787,-0.19918,0.087459,-0.26937,0.062014,0.15291,0.26579,-0.21247,0.21047,0.37979,-0.33436,0.23895,0.35692,-0.015369,0.19516,-0.1624,0.12382,-0.029689,0.097629,0.36512,0.98208,0.082357,-0.27935,-0.34402,-0.2727,-0.31661,0.083104,-0.15846,-0.31262,0.23887,-0.22833,0.1561,0.067378,0.37239,-0.18095,0.089262,-0.036112,-0.25523,0.086993,0.25579,0.17767,0.27694,0.047198,0.15347,0.063808,0.15787,-0.19737,0.15218,0.17002,-0.22983,0.24611,-0.15511,-0.22409,0.1443,0.17785,-0.21166,-0.18011,0.23368,0.041416,0.13613,0.14574,-0.24935,-0.21128,-0.085547
0.20627,-0.24766,-0.25808,-0.0082518,-0.23793,0.18482,-0.44308,0.38699,0.22619,0.021681,0.17618,0.26648,0.15438,0.32448,-0.10327,-0.060164,0.21738,-0.14995,0.25949,0.15453,-0.38308,-0.14651,0.14595,0.040136,-0.18835,-0.15924,0.198,0.1717,0.017719,0.18218,-0.31843,0.058856,0.282,-0.30389,-0.28271,0.16711,0.25491,-0.14259,0.4054,-0.29891,0.16152,0.44603,0.14001,-0.033463,0.41974,0.1073,-0.16186,0.39622,0.18102,-0.21579,0.13671,-0.13059,-0.098738,0.098481,0.15678,0.19558,0.082357,0.93511,0.0052368,-0.068854,-0.16825,-0.072732,0.49551,-0.13544,-0.12111,0.20751,-0.098876,0.1296,0.090871,0.16581,-0.10345,0.23683,-0.13979,0.01977,0.30678,0.38297,0.21442,0.11575,0.36641,0.16338,0.20132,0.21499,-0.11682,0.15674,0.26937,-0.12931,0.37069,-0.079811,-0.18555,0.31992,0.098088,-0.057344,-0.18595,0.21474,0.26851,0.34886,-0.019037,-0.090844,-0.13426,-0.15979
-0.4521,0.39713,0.020023,-0.43065,0.10325,-0.45222,0.16722,-0.26721,-0.39765,-0.21742,-0.42445,-0.31014,-0.2103,-0.1822,0.40803,-0.27212,-0.35399,0.41197,-0.29625,-0.36198,0.0024787,-0.11074,-0.35814,0.27734,0.27217,0.32725,-0.26853,-0.23835,-0.26921,-0.29446,0.042089,0.25513,-0.039115,0.34113,-0.001858,-0.28312,-0.22814,0.22073,0.091051,-0.036046,0.025615,-0.043401,-0.28761,0.26753,-0.089225,-0.25627,0.30996,-0.036338,-0.17984,-0.055009,-0.32443,0.22198,-0.098593,0.18705,-0.044224,-0.35198,-0.27935,0.0052368,0.85703,0.17733,0.16739,0.15953,0.17337,0.20227,0.24267,-0.20575,0.19957,-0.083181,-0.13174,-0.20956,0.2226,-0.025314,-0.017051,0.32111,-0.075853,-0.11053,-0.020295,-0.15284,0.12072,-0.030951,0.07086,-0.12433,0.21508,-0.12059,-0.27013,0.15542,-0.25815,0.11636,0.15205,-0.073144,-0.18374,0.14652,0.16328,-0.24642,0.10433,-0.094303,-0.19607,0.31538,0.23554,0.013506
-0.49696,0.19953,-0.22358,-0.58018,-0.18611,-0.37095,-0.081061,-0.22176,-0.41631,-0.41013,-0.4466,-0.25542,-0.35813,-0.2169,0.30792,-0.49734,-0.35887,0.24568,-0.30701,-0.42422,-0.19459,-0.34815,-0.38528,0.22495,0.076414,0.15577,-0.35225,-0.36339,-0.415,-0.36585,-0.18467,0.22588,-0.093275,0.055233,-0.25573,-0.35529,-0.27793,-0.083648,-7.5797e-05,-0.21321,0.023124,-0.059343,-0.35415,0.12116,-0.151,-0.32136,0.13493,-0.088394,-0.34982,-0.31124,-0.29385,-0.041289,-0.32612,0.016592,-0.09964,-0.39642,-0.34402,-0.068854,0.17733,0.72394,0.074015,0.19515,0.11248,0.073014,0.1244,-0.25433,0.074193,-0.11866,-0.086262,-0.21278,0.039177,-0.010825,0.022821,0.21473,-0.044701,-0.18281,-0.11301,-0.22874,0.15851,-0.14178,0.018067,-0.1744,0.11958,-0.23248,-0.23391,0.078992,-0.23327,-0.07403,0.0044757,-0.12267,-0.18623,0.046051,0.041508,-0.29195,0.024064,-0.098826,-0.19932,0.079111,0.042967,-0.14488
-0.26657,0.24952,0.2952,-0.16562,0.16585,-0.417,0.28919,-0.36935,-0.34674,0.047889,-0.2752,-0.30119,-0.066797,-0.28697,0.12141,-0.0072649,-0.32245,0.20406,-0.34212,-0.23678,0.15418,0.071645,-0.25896,0.051313,0.19799,0.16394,-0.2412,-0.053348,-0.094747,-0.24764,0.17062,0.096783,-0.21757,0.33967,0.28239,-0.18452,-0.29388,0.29511,-0.20997,0.22547,-0.23376,-0.24943,-0.12822,0.15736,-0.31144,-0.28132,0.32025,-0.24652,-0.067363,0.10642,-0.33256,0.15658,0.074134,0.13082,-0.17615,-0.2281,-0.2727,-0.16825,0.16739,0.074015,0.9066,-0.066427,-0.067297,0.24296,0.05868,-0.20245,0.049645,-0.18183,-0.19587,-0.20496,0.17311,-0.098264,0.17502,0.21693,-0.21027,-0.12277,-0.11015,-0.016978,-0.024038,-0.024478,-0.022678,-0.14961,0.092066,-0.12423,-0.26701,0.025753,-0.18063,0.15684,0.20396,-0.10015,-0.13497,-0.0078685,0.26316,-0.09697,-0.020184,-0.1084,0.047274,0.1629,0.15858,0.19281
-0.42827,0.17506,-0.22334,-0.52244,-0.19393,-0.34271,-0.086633,-0.1747,-0.38701,-0.36679,-0.40507,-0.23627,-0.28135,-0.20985,0.24156,-0.43132,-0.34902,0.15034,-0.28158,-0.40838,-0.16234,-0.31167,-0.35911,0.21683,0.051744,0.1053,-0.31642,-0.31637,-0.38503,-0.30859,-0.15503,0.16953,-0.058445,0.059442,-0.23181,-0.3098,-0.27475,-0.076829,0.0094883,-0.17125,0.066952,-0.030793,-0.36191,0.060804,-0.16072,-0.32136,0.15437,-0.11985,-0.28981,-0.24886,-0.27746,-0.02203,-0.29859,-0.022631,-0.13103,-0.33072,-0.31661,-0.072732,0.15953,0.19515,-0.066427,0.74778,0.14262,0.033708,0.10458,-0.23757,0.074662,-0.18571,-0.10145,-0.1678,-0.0095814,-8.2671e-05,-0.0073821,0.1693,-0.088801,-0.12953,-0.083779,-0.18979,0.20125,-0.081554,0.028986,-0.11989,0.10824,-0.20626,-0.17644,0.055727,-0.19078,-0.025334,-0.023177,-0.062102,-0.15411,0.041302,0.12195,-0.29349,0.053067,-0.020738,-0.16921,0.095449,0.067138,-0.077976
0.13941,-0.14639,-0.2102,-0.12949,-0.22819,0.065185,-0.34395,0.41907,0.13831,0.048429,0.11157,0.1957,0.18232,0.27145,0.039291,-0.086603,0.11357,-0.0047527,0.24324,0.068706,-0.32331,-0.19295,0.12901,0.14292,-0.17172,-0.11954,0.11271,0.15547,-0.05776,0.11739,-0.32535,0.16228,0.34032,-0.24518,-0.24015,0.12018,0.2442,-0.076875,0.46897,-0.24382,0.16471,0.517,0.1367,0.096245,0.381,0.083513,-0.0011251,0.43258,0.16305,-0.19627,-0.0013601,-0.091183,-0.052267,0.15611,0.06943,0.14893,0.083104,0.49551,0.17337,0.11248,-0.067297,0.14262,0.93557,-0.079193,-0.081922,0.21116,-0.034371,0.069323,0.091626,0.097163,-0.055501,0.30888,-0.046198,0.081003,0.31832,0.3897,0.2536,0.10197,0.40255,0.13931,0.25507,0.19683,-0.12546,0.15824,0.20714,-0.05037,0.32958,-0.066937,-0.14108,0.31631,0.038499,-0.05621,-0.10169,0.20959,0.29335,0.33914,0.10983,0.00094436,-0.058629,-0.06926
-0.26803,0.31953,0.25854,-0.083592,0.26137,-0.24054,0.37828,-0.27267,-0.30117,0.0069315,-0.22976,-0.25811,-0.132,-0.23131,0.22615,0.030517,-0.25134,0.26867,-0.24796,-0.18942,0.28657,0.16167,-0.14892,0.010731,0.24557,0.23117,-0.17088,-0.11031,0.035383,-0.15758,0.28197,0.14931,-0.11476,0.33056,0.26782,-0.18489,-0.20241,0.33844,-0.02622,0.24228,-0.071186,-0.14051,-0.090455,0.19905,-0.16917,-0.10971,0.25638,-0.1635,-0.13416,0.16387,-0.17956,0.26544,0.10744,0.068601,-0.026379,-0.25872,-0.15846,-0.13544,0.20227,0.073014,0.24296,0.033708,-0.079193,0.98918,0.089583,-0.26085,0.019363,-0.12373,-0.17197,-0.095182,0.14679,-0.15938,0.22292,0.11649,-0.21335,-0.28267,-0.18087,-0.068612,-0.24199,-0.15306,-0.082357,-0.19174,0.13834,-0.089948,-0.26207,-0.0013697,-0.35502,0.038659,0.13374,-0.21197,-0.11059,0.034453,0.18616,-0.15006,-0.09597,-0.26943,-0.092208,0.049102,0.13143,0.075387
-0.40899,0.34268,0.024745,-0.28764,0.031794,-0.32046,0.24061,-0.36947,-0.38465,-0.26412,-0.38826,-0.29017,-0.37357,-0.2516,0.30207,-0.23562,-0.3156,0.35263,-0.27911,-0.38262,0.16514,-0.069246,-0.42209,0.10085,0.23727,0.22669,-0.31035,-0.36066,-0.27692,-0.3469,0.12199,0.14698,-0.16075,0.32496,0.013344,-0.28997,-0.33839,0.13476,-0.011533,0.056182,0.013385,-0.11743,-0.33306,0.1744,-0.14889,-0.30352,0.20444,-0.21328,-0.35315,-0.058151,-0.25064,0.11998,-0.21253,0.035692,-0.086954,-0.33832,-0.31262,-0.12111,0.24267,0.1244,0.05868,0.10458,-0.081922,0.089583,0.83916,-0.28192,0.08531,-0.069545,-0.21015,-0.2324,0.067525,-0.074432,0.064691,0.19903,-0.16538,-0.27595,-0.17033,-0.26726,-0.029511,-0.1139,-0.077661,-0.21353,0.16047,-0.18134,-0.23001,0.1566,-0.35779,0.083683,0.15662,-0.1523,-0.092074,0.058639,0.19873,-0.27092,-0.067318,-0.18192,-0.21731,0.10892,0.13556,0.031155
0.42634,-0.54515,-0.23881,0.23157,-0.34678,0.3425,-0.47956,0.34421,0.39894,0.012789,0.29927,0.32446,0.1292,0.21831,-0.42844,0.11482,0.35459,-0.4375,0.27402,0.30568,-0.33645,-0.17284,0.19647,-0.21879,-0.4104,-0.39323,0.24489,0.11952,0.11219,0.23292,-0.31415,-0.26408,0.13718,-0.5435,-0.26651,0.24124,0.18473,-0.38567,0.11573,-0.29659,0.016806,0.18851,0.28345,-0.32887,0.29578,0.15454,-0.4003,0.19967,0.12579,-0.12089,0.27391,-0.37324,-0.038718,-0.19277,0.059349,0.29107,0.23887,0.20751,-0.20575,-0.25433,-0.20245,-0.23757,0.21116,-0.26085,-0.28192,0.89629,-0.23275,0.19289,0.13204,0.23344,-0.25694,0.22171,0.00076592,-0.25221,0.17867,0.44054,0.3107,0.064362,0.21859,0.089444,0.086727,0.20566,-0.12895,0.21558,0.35817,-0.11903,0.34612,-0.18906,-0.23678,0.32384,0.29963,-0.21114,-0.17782,0.4118,0.030787,0.36946,0.2246,-0.20789,-0.29567,-0.10039
-0.31254,0.13535,-0.024787,-0.24723,0.15455,-0.43583,0.073652,-0.25265,-0.30674,-0.085904,-0.25075,-0.22791,-0.041429,-0.16722,0.15427,-0.20404,-0.35291,0.14884,-0.27702,-0.20202,0.0028025,-0.019614,-0.21564,0.032487,0.1633,0.14781,-0.20013,-0.11032,-0.15117,-0.24464,0.028726,0.035878,-0.097124,0.15276,0.014972,-0.18576,-0.21556,0.17016,-0.025607,-0.077641,-0.15698,-0.13539,-0.21939,0.17101,-0.17194,-0.17131,0.10693,-0.15419,-0.067884,0.0052507,-0.31771,0.1803,-0.047926,0.1076,-0.1255,-0.23628,-0.22833,-0.098876,0.19957,0.074193,0.049645,0.074662,-0.034371,0.019363,0.08531,-0.23275,0.84169,-0.068781,-0.1445,-0.1031,0.20156,-0.049258,-0.014966,0.26226,-0.12149,-0.1803,-0.051256,0.041768,-0.033219,0.017809,0.092846,-0.13182,0.069958,-0.035691,-0.21605,-0.01474,-0.25378,0.11272,0.10725,-0.14903,-0.16848,0.032649,0.17617,-0.28399,0.073408,-0.11884,-0.13255,0.15796,0.16792,0.046091
0.21527,-0.25631,-0.20107,0.20996,-0.24742,0.29218,-0.22537,0.16326,0.29886,-0.12601,0.20718,0.23781,-0.050781,0.19689,-0.22043,0.05127,0.3086,-0.21762,0.24662,0.19283,-0.14813,-0.12467,0.055372,-0.12654,-0.14356,-0.18619,0.17446,-0.032319,0.071048,0.16453,-0.14333,-0.18104,0.069669,-0.28852,-0.168,0.16235,0.21227,-0.22538,0.16012,-0.2143,0.11815,0.12549,0.1304,-0.29187,0.24855,0.19473,-0.298,0.15937,-0.0010646,-0.079423,0.2827,-0.21161,-0.097267,-0.14178,0.19483,0.1348,0.1561,0.1296,-0.083181,-0.11866,-0.18183,-0.18571,0.069323,-0.12373,-0.069545,0.19289,-0.068781,0.96341,0.067445,0.19288,-0.21734,0.12664,-0.15638,-0.21587,0.086001,0.18137,0.10472,-0.021205,0.044904,0.027656,0.026729,0.095105,0.033633,0.085812,0.11296,0.018506,0.050298,-0.22293,-0.17112,0.14553,0.24011,-0.11098,-0.18254,0.19091,-0.048329,0.13845,-0.081328,-0.24391,-0.20514,-0.11692
0.12041,-0.29857,-0.26228,0.033635,-0.31842,0.18563,-0.35314,0.18648,0.13904,-0.098711,0.14368,0.1294,-0.046895,0.10081,-0.19898,-0.074837,0.17259,-0.25962,0.161,0.046108,-0.28705,-0.24116,0.027367,-0.068597,-0.19014,-0.25414,0.064512,-0.066541,0.0037815,0.096732,-0.28507,-0.098206,0.079846,-0.34035,-0.25781,0.080014,0.024253,-0.27024,0.11311,-0.29401,0.064232,0.11666,0.046743,-0.24752,0.16455,0.11621,-0.24587,0.12922,-0.034207,-0.24539,0.15381,-0.23414,-0.11356,-0.13228,0.079305,0.063863,0.067378,0.090871,-0.13174,-0.086262,-0.19587,-0.10145,0.091626,-0.17197,-0.21015,0.13204,-0.1445,0.067445,0.84064,0.09044,-0.16522,0.16997,-0.053502,-0.17256,0.05974,0.26512,0.21636,-0.052009,0.25949,0.089511,0.093435,0.1578,0.021226,0.084618,0.18085,-0.027703,0.18801,-0.10895,-0.10885,0.20251,0.16641,-0.098315,-0.14039,0.11347,0.056093,0.22843,0.023048,-0.18912,-0.16296,-0.11334
0.30487,-0.40427,-0.26165,0.21774,-0.12886,0.26561,-0.38271,0.34229,0.38396,0.14449,0.3578,0.25629,0.25644,0.19751,-0.333,0.16391,0.28458,-0.3904,0.24696,0.30674,-0.16968,-0.0016705,0.33996,-0.15888,-0.21654,-0.26998,0.28093,0.25286,0.25238,0.32421,-0.22451,-0.21387,0.16532,-0.40917,-0.21938,0.17835,0.2922,-0.18625,0.17647,-0.2285,0.064312,0.19945,0.20296,-0.24531,0.26246,0.35046,-0.32891,0.22558,0.28467,-0.068754,0.24841,-0.14737,0.10645,-0.055419,0.19437,0.27915,0.37239,0.16581,-0.20956,-0.21278,-0.20496,-0.1678,0.097163,-0.095182,-0.2324,0.23344,-0.1031,0.19288,0.09044,0.97152,-0.22696,0.09249,-0.1008,-0.24028,0.072868,0.18287,0.17804,0.24522,0.059621,0.13227,0.047875,0.13494,-0.15024,0.24777,0.191,-0.24188,0.16897,-0.15434,-0.15092,0.11575,0.15148,-0.20081,-0.19648,0.2532,0.056127,0.15664,0.10891,-0.2968,-0.25122,-0.13111
-0.30142,0.24157,0.24961,-0.16413,0.31347,-0.37429,0.26673,-0.31888,-0.32427,0.11547,-0.24001,-0.2618,0.0046222,-0.23459,0.12767,-0.032624,-0.34448,0.18981,-0.26652,-0.24548,0.20223,0.15552,-0.15632,-0.01248,0.23067,0.20826,-0.2666,-0.014342,0.00098041,-0.22642,0.22447,0.083555,-0.22219,0.2803,0.22606,-0.20333,-0.23964,0.31052,-0.078154,0.14149,-0.26204,-0.19724,-0.12674,0.20981,-0.23554,-0.19707,0.22,-0.19557,-0.019665,0.12873,-0.37715,0.25448,0.097126,0.12692,-0.16979,-0.21134,-0.18095,-0.10345,0.2226,0.039177,0.17311,-0.0095814,-0.055501,0.14679,0.067525,-0.25694,0.20156,-0.21734,-0.16522,-0.22696,0.90494,-0.17528,0.14699,0.27728,-0.15443,-0.19056,-0.05081,0.065775,-0.13169,-0.027104,0.016621,-0.08425,0.034728,-0.042744,-0.31004,-0.076018,-0.27106,0.20515,0.24118,-0.18342,-0.19179,0.062153,0.18694,-0.1972,0.024595,-0.21272,-0.12119,0.089769,0.2217,0.11396
0.16914,-0.25519,-0.29178,-0.056666,-0.31382,0.1757,-0.34654,0.28955,0.17051,-0.032428,0.15979,0.21423,0.024508,0.18777,-0.12048,-0.10067,0.2035,-0.19291,0.16993,0.11318,-0.2861,-0.21354,0.13629,0.0082096,-0.15823,-0.1641,0.12573,0.040774,-0.065094,0.16347,-0.30416,-0.035262,0.21434,-0.31044,-0.26963,0.11751,0.14012,-0.21627,0.24084,-0.28131,0.1955,0.25641,0.06027,-0.11172,0.29127,0.1424,-0.16157,0.25656,0.0274,-0.14379,0.16195,-0.1966,-0.12725,-0.029787,0.093754,0.15135,0.089262,0.23683,-0.025314,-0.010825,-0.098264,-8.2671e-05,0.30888,-0.15938,-0.074432,0.22171,-0.049258,0.12664,0.16997,0.09249,-0.17528,0.91853,-0.07723,-0.12803,0.18715,0.28081,0.17399,0.060408,0.24744,0.070928,0.1029,0.15402,-0.013594,0.086164,0.21862,-0.01486,0.22361,-0.15454,-0.14811,0.22263,0.21322,-0.10334,-0.1561,0.19171,0.11423,0.23411,0.065353,-0.1035,-0.13125,-0.11011
-0.094605,0.13174,0.3754,-0.018202,0.22727,-0.14384,0.30926,-0.12921,-0.17066,0.19031,-0.10816,-0.22701,0.032614,-0.2687,0.033543,0.25814,-0.17641,0.15702,-0.12832,-0.049509,0.32323,0.21953,0.03085,0.04415,0.09971,0.10833,-0.11915,0.0048464,0.10814,-0.095465,0.22868,0.022281,-0.15317,0.18771,0.30239,-0.16728,-0.09908,0.29821,-0.15049,0.38532,-0.11842,-0.09005,0.06539,0.10873,-0.25717,-0.070009,0.25452,-0.13391,0.0024075,0.23944,-0.071846,0.21723,0.29156,-0.036168,-0.11943,-0.16056,-0.036112,-0.13979,-0.017051,0.022821,0.17502,-0.0073821,-0.046198,0.22292,0.064691,0.00076592,-0.014966,-0.15638,-0.053502,-0.1008,0.14699,-0.07723,0.98386,-0.062919,-0.19699,-0.12745,-0.15197,-0.063684,-0.27418,-0.13895,-0.08621,-0.18554,0.012543,-0.061408,-0.20316,-0.082546,-0.18028,-0.12631,0.099901,-0.16623,-0.068764,-0.13552,0.07373,0.088397,-0.16719,-0.13105,0.16464,-0.050078,-0.0013602,0.089727
-0.38955,0.35063,0.18458,-0.32823,0.32732,-0.51322,0.18229,-0.2656,-0.38028,0.076541,-0.31455,-0.32386,0.084819,-0.16827,0.32241,-0.15594,-0.40664,0.31995,-0.28291,-0.31324,0.10271,0.11219,-0.1988,0.15841,0.29624,0.2734,-0.26641,0.039111,-0.078116,-0.25885,0.19244,0.19332,-0.090999,0.41479,0.19402,-0.2397,-0.22902,0.40491,0.052794,0.10208,-0.18138,-0.023938,-0.17448,0.36791,-0.1374,-0.26516,0.28679,-0.10969,0.019824,0.057952,-0.43647,0.31077,0.07373,0.29766,-0.1479,-0.25422,-0.25523,0.01977,0.32111,0.21473,0.21693,0.1693,0.081003,0.11649,0.19903,-0.25221,0.26226,-0.21587,-0.17256,-0.24028,0.27728,-0.12803,-0.062919,0.88855,-0.088858,-0.17756,-0.049258,0.081543,0.10137,0.089195,0.15368,-0.11015,0.038084,-0.093938,-0.27791,0.0010913,-0.17742,0.191,0.19987,-0.087979,-0.34826,0.15424,0.21626,-0.30029,0.1202,-0.089734,-0.2098,0.21808,0.27656,0.082615
0.11976,-0.27875,-0.29094,-0.015113,-0.26397,0.19762,-0.41854,0.29193,0.18121,-0.048211,0.1271,0.20917,0.071599,0.16023,-0.16889,-0.14542,0.14102,-0.20471,0.16635,0.12718,-0.33538,-0.19123,0.085927,-0.031768,-0.24871,-0.22602,0.10534,0.11479,-0.062986,0.17482,-0.3133,-0.033589,0.19863,-0.32129,-0.30955,0.14252,0.19584,-0.18327,0.28327,-0.29608,0.13603,0.30141,0.056519,-0.14027,0.31363,0.06292,-0.26629,0.25511,0.11023,-0.26673,0.090387,-0.22738,-0.17478,0.0094476,0.1336,0.10609,0.086993,0.30678,-0.075853,-0.044701,-0.21027,-0.088801,0.31832,-0.21335,-0.16538,0.17867,-0.12149,0.086001,0.05974,0.072868,-0.15443,0.18715,-0.19699,-0.088858,0.89309,0.24593,0.11516,0.024267,0.2546,0.082877,0.17439,0.096319,-0.081983,0.067381,0.12733,-0.11602,0.18348,-0.14426,-0.22681,0.19778,0.11056,-0.11251,-0.18708,0.10731,0.23853,0.21406,-0.047308,-0.14914,-0.14764,-0.17981
0.43191,-0.45917,-0.25054,0.16487,-0.3478,0.34715,-0.5098,0.46447,0.38351,0.11398,0.32805,0.37286,0.23527,0.35406,-0.36093,0.080634,0.41143,-0.37935,0.40341,0.31404,-0.4083,-0.17355,0.24641,-0.075901,-0.36342,-0.31697,0.27419,0.2499,0.096785,0.31139,-0.34928,-0.11807,0.28429,-0.4586,-0.28395,0.29889,0.30821,-0.35691,0.21986,-0.26545,0.089153,0.32123,0.34423,-0.20842,0.45433,0.23388,-0.30089,0.37448,0.22098,-0.21891,0.25666,-0.38327,0.00020008,-0.0085384,0.11906,0.29984,0.25579,0.38297,-0.11053,-0.18281,-0.12277,-0.12953,0.3897,-0.28267,-0.27595,0.44054,-0.1803,0.18137,0.26512,0.18287,-0.19056,0.28081,-0.12745,-0.17756,0.24593,0.92515,0.37863,0.14072,0.49323,0.19055,0.16622,0.34187,-0.17055,0.27702,0.477,-0.14212,0.67854,-0.1845,-0.18491,0.49485,0.27819,-0.12492,-0.27454,0.43249,0.17339,0.56623,0.15456,-0.17847,-0.23812,-0.10019
0.26909,-0.32013,-0.17781,0.07625,-0.16368,0.17346,-0.35511,0.33277,0.26782,0.057059,0.22851,0.22744,0.19946,0.18353,-0.19668,0.06222,0.26502,-0.23664,0.22219,0.20445,-0.25383,-0.053066,0.15396,-0.020524,-0.20771,-0.13964,0.22036,0.21386,0.12294,0.26148,-0.23644,-0.013618,0.17334,-0.32669,-0.20137,0.24818,0.22109,-0.17622,0.22221,-0.24457,0.055204,0.20902,0.19013,-0.097206,0.30816,0.18902,-0.22334,0.24697,0.20398,-0.097618,0.11983,-0.11685,0.033024,0.077729,0.073448,0.25106,0.17767,0.21442,-0.020295,-0.11301,-0.11015,-0.083779,0.2536,-0.18087,-0.17033,0.3107,-0.051256,0.10472,0.21636,0.17804,-0.05081,0.17399,-0.15197,-0.049258,0.11516,0.37863,0.9363,0.11574,0.29633,0.11696,0.16447,0.15075,-0.10087,0.21438,0.21209,-0.074063,0.3019,-0.10598,-0.11568,0.26853,0.1669,-0.052918,-0.12884,0.23449,0.08177,0.31398,0.071679,-0.091149,-0.15871,-0.046489
0.27279,-0.37291,-0.048445,0.15859,0.19492,0.01226,-0.28283,0.2558,0.22717,0.42833,0.28389,0.11505,0.55961,0.14513,-0.32459,0.22403,0.091446,-0.37464,0.13988,0.20146,-0.13566,0.24834,0.41907,-0.19791,-0.18373,-0.22095,0.19628,0.45924,0.3072,0.26508,-0.049917,-0.21449,0.086892,-0.26714,0.0023,0.19241,0.2306,0.067999,0.062615,-0.13026,-0.22634,0.097171,0.26501,-0.034013,0.10159,0.21215,-0.24735,0.13345,0.51825,0.094571,-0.059558,0.011861,0.3041,0.079119,-0.012222,0.26807,0.27694,0.11575,-0.15284,-0.22874,-0.016978,-0.18979,0.10197,-0.068612,-0.26726,0.064362,0.041768,-0.021205,-0.052009,0.24522,0.065775,0.060408,-0.063684,0.081543,0.024267,0.14072,0.11574,0.93959,0.075308,0.22886,0.13283,0.11657,-0.20279,0.23389,0.033309,-0.24857,0.17456,0.096615,-0.0050627,0.093539,-0.0021353,-0.10269,-0.065038,0.07193,0.15069,0.08259,0.09729,-0.059205,-0.0087538,0.017781
0.066245,-0.096719,-0.29636,-0.25996,-0.27959,0.046449,-0.41833,0.33863,0.088635,-0.046906,0.013739,0.15181,0.11277,0.25578,0.073429,-0.19358,0.14519,-0.049938,0.1391,0.01984,-0.404,-0.30296,0.045658,0.23342,-0.11777,-0.056352,0.067375,0.092191,-0.15766,0.1105,-0.31558,0.16458,0.29039,-0.13821,-0.35344,0.094971,0.16804,-0.1662,0.35742,-0.29006,0.1613,0.374,0.047466,0.058972,0.36401,-0.0034883,-0.012098,0.36682,0.091295,-0.3278,0.046635,-0.1882,-0.13977,0.17812,0.10333,0.080107,0.047198,0.36641,0.12072,0.15851,-0.024038,0.20125,0.40255,-0.24199,-0.029511,0.21859,-0.033219,0.044904,0.25949,0.059621,-0.13169,0.24744,-0.27418,0.10137,0.2546,0.49323,0.29633,0.075308,0.92388,0.10215,0.17316,0.22054,-0.11203,0.12102,0.32991,-0.067304,0.52669,-0.086606,-0.14322,0.37325,0.045844,-0.047759,-0.13706,0.11633,0.17172,0.47565,-0.035496,-0.056489,-0.16462,-0.12578
0.20964,-0.25214,-0.10319,0.1232,-0.0076379,0.05505,-0.26943,0.16804,0.21941,0.20451,0.2192,0.19886,0.29394,0.15716,-0.2059,0.06157,0.14161,-0.25411,0.18122,0.14071,-0.15421,0.076456,0.16989,-0.15692,-0.11405,-0.11147,0.18601,0.27691,0.1476,0.2497,-0.13655,-0.11823,0.085867,-0.18396,-0.06404,0.20034,0.1677,-0.017268,0.13036,-0.17697,-0.060442,0.10363,0.13333,-0.0060835,0.15509,0.15641,-0.18048,0.15221,0.30156,-0.050105,0.011063,-0.048684,0.095298,0.062262,0.06898,0.22615,0.15347,0.16338,-0.030951,-0.14178,-0.024478,-0.081554,0.13931,-0.15306,-0.1139,0.089444,0.017809,0.027656,0.089511,0.13227,-0.027104,0.070928,-0.13895,0.089195,0.082877,0.19055,0.11696,0.22886,0.10215,0.93274,0.10873,0.16664,-0.14207,0.1277,0.10452,-0.097719,0.1646,-0.016516,-0.035566,0.16404,0.052903,-0.094182,-0.087087,0.039018,0.16349,0.145,-0.035552,-0.071343,-0.0030806,-0.020267
0.048365,-0.10925,-0.10906,-0.081041,0.024495,-0.074662,-0.23965,0.1869,0.08715,0.10738,0.076278,0.084593,0.2018,0.17042,-0.047549,-0.08619,0.026418,-0.074003,0.13942,0.051135,-0.15599,-0.019142,0.088604,0.092911,-0.015946,-0.051325,0.085764,0.20962,0.081387,0.10886,-0.17167,0.020809,0.16783,-0.12424,-0.068032,0.076747,0.1435,0.066295,0.18736,-0.19891,-0.0040341,0.20703,0.084458,0.10036,0.17031,0.07524,-0.011155,0.23242,0.16784,-0.076534,-0.017607,-0.0021516,0.071575,0.1983,0.01983,0.12016,0.063808,0.20132,0.07086,0.018067,-0.022678,0.028986,0.25507,-0.082357,-0.077661,0.086727,0.092846,0.026729,0.093435,0.047875,0.016621,0.1029,-0.08621,0.15368,0.17439,0.16622,0.16447,0.13283,0.17316,0.10873,0.93194,0.05008,-0.082119,0.079571,0.016719,-0.090399,0.10482,-0.0087491,-0.019695,0.13186,-0.033129,-0.011361,-0.027672,-0.015974,0.22263,0.089533,-0.031737,-0.025685,0.044834,-0.069903
0.22551,-0.34888,-0.17744,0.065525,-0.21597,0.18319,-0.37835,0.24234,0.20294,0.090353,0.23192,0.19853,0.16676,0.17219,-0.28567,0.014574,0.21579,-0.3338,0.22529,0.21075,-0.28093,-0.12443,0.16469,-0.10433,-0.25041,-0.24579,0.13773,0.15747,0.1037,0.15563,-0.27221,-0.14741,0.16644,-0.36589,-0.18084,0.13405,0.15664,-0.22615,0.12724,-0.24829,-0.021327,0.20575,0.15998,-0.16497,0.2596,0.15782,-0.22868,0.23053,0.18465,-0.1638,0.14357,-0.2576,-0.002107,-0.019758,0.049963,0.2166,0.15787,0.21499,-0.12433,-0.1744,-0.14961,-0.11989,0.19683,-0.19174,-0.21353,0.20566,-0.13182,0.095105,0.1578,0.13494,-0.08425,0.15402,-0.18554,-0.11015,0.096319,0.34187,0.15075,0.11657,0.22054,0.16664,0.05008,0.90724,-0.12762,0.15784,0.24058,-0.054169,0.31325,-0.097898,-0.14438,0.3104,0.13231,-0.14195,-0.1476,0.23127,0.12487,0.27254,0.028332,-0.16431,-0.12636,-0.08951
-0.31964,0.27036,0.033524,-0.19707,0.020484,-0.15691,0.22475,-0.23882,-0.28001,-0.21515,-0.22053,-0.20694,-0.31173,-0.16253,0.25853,-0.13535,-0.22665,0.25391,-0.19566,-0.25725,0.17739,-0.074716,-0.24031,0.073519,0.18117,0.17923,-0.15026,-0.26871,-0.13345,-0.21524,0.1259,0.062762,-0.086003,0.23106,0.025912,-0.21118,-0.19504,0.092304,-0.015002,0.055223,0.063114,-0.13994,-0.2127,0.053848,-0.14546,-0.15997,0.10326,-0.15374,-0.31311,0.009343,-0.058798,0.14854,-0.10655,-0.0021813,-0.010929,-0.251,-0.19737,-0.11682,0.21508,0.11958,0.092066,0.10824,-0.12546,0.13834,0.16047,-0.12895,0.069958,0.033633,0.021226,-0.15024,0.034728,-0.013594,0.012543,0.038084,-0.081983,-0.17055,-0.10087,-0.20279,-0.11203,-0.14207,-0.082119,-0.12762,0.92425,-0.15173,-0.27645,0.069309,-0.35145,-0.05786,0.06975,-0.16158,-0.06087,0.038465,0.093994,-0.17861,-0.093898,-0.19716,-0.16541,0.050223,0.039742,-0.025534
0.30504,-0.40222,-0.12011,0.21991,-0.055623,0.17545,-0.30158,0.26341,0.29515,0.20659,0.25707,0.27809,0.24745,0.17532,-0.29376,0.1861,0.21412,-0.30585,0.21395,0.24556,-0.24315,0.016357,0.23839,-0.1777,-0.2195,-0.26741,0.20097,0.29569,0.19135,0.26949,-0.12324,-0.19949,0.12933,-0.35147,-0.080433,0.24036,0.18583,-0.10502,0.088402,-0.15409,-0.047,0.15823,0.26123,-0.088971,0.2125,0.27228,-0.28076,0.18446,0.24867,-0.038347,0.13332,-0.11015,0.091322,-0.011321,0.037106,0.24439,0.15218,0.15674,-0.12059,-0.23248,-0.12423,-0.20626,0.15824,-0.089948,-0.18134,0.21558,-0.035691,0.085812,0.084618,0.24777,-0.042744,0.086164,-0.061408,-0.093938,0.067381,0.27702,0.21438,0.23389,0.12102,0.1277,0.079571,0.15784,-0.15173,0.93282,0.19731,-0.1885,0.23245,-0.073564,-0.069437,0.16559,0.15391,-0.10183,-0.108,0.20514,0.066514,0.21757,0.091088,-0.18148,-0.12328,-0.058072
0.38223,-0.48278,-0.32071,0.14904,-0.4281,0.36536,-0.54009,0.35244,0.35381,0.0028733,0.30839,0.36837,0.094487,0.27772,-0.40673,0.043868,0.38916,-0.4002,0.35426,0.29555,-0.42071,-0.22172,0.1334,-0.16137,-0.34769,-0.38744,0.22117,0.10481,0.035711,0.25084,-0.36375,-0.1931,0.20564,-0.49089,-0.30843,0.21465,0.22078,-0.43254,0.21499,-0.3078,0.084352,0.27779,0.1877,-0.37068,0.3315,0.19009,-0.38696,0.27296,0.10228,-0.28238,0.2977,-0.42149,-0.10414,-0.15393,0.10161,0.25182,0.17002,0.26937,-0.27013,-0.23391,-0.26701,-0.17644,0.20714,-0.26207,-0.23001,0.35817,-0.21605,0.11296,0.18085,0.191,-0.31004,0.21862,-0.20316,-0.27791,0.12733,0.477,0.21209,0.033309,0.32991,0.10452,0.016719,0.24058,-0.27645,0.19731,0.90564,-0.11161,0.50933,-0.24336,-0.2648,0.36856,0.24577,-0.1885,-0.28155,0.31543,0.10634,0.47879,0.068296,-0.26,-0.33247,-0.16421
-0.25171,0.16848,-0.020467,-0.2222,-0.12757,-0.21752,0.086796,-0.22517,-0.23932,-0.30333,-0.23107,-0.18341,-0.33872,-0.19296,0.16568,-0.19771,-0.13518,0.18531,-0.11419,-0.15739,0.034231,-0.14908,-0.27914,0.10227,0.096596,0.10792,-0.18278,-0.33106,-0.22874,-0.23598,0.0038292,0.05709,-0.07926,0.11276,-0.030383,-0.17461,-0.23767,-0.060326,-0.046854,-0.0091018,0.08656,-0.11157,-0.22294,0.021035,-0.12289,-0.21487,0.13554,-0.089179,-0.30281,-0.10463,-0.12268,0.0078562,-0.18637,-0.048396,-0.06087,-0.20492,-0.22983,-0.12931,0.15542,0.078992,0.025753,0.055727,-0.05037,-0.0013697,0.1566,-0.11903,-0.01474,0.018506,-0.027703,-0.24188,-0.076018,-0.01486,-0.082546,0.0010913,-0.11602,-0.14212,-0.074063,-0.24857,-0.067304,-0.097719,-0.090399,-0.054169,0.069309,-0.1885,-0.11161,0.83795,-0.26208,-0.03315,0.10618,-0.068201,0.019706,0.031376,0.15313,-0.12648,-0.046956,-0.096221,-0.061587,0.12194,0.052201,0.0093422
0.42858,-0.55571,-0.28822,0.12335,-0.39659,0.31713,-0.59855,0.4577,0.38534,0.16584,0.32356,0.35243,0.25449,0.36092,-0.44224,0.089051,0.41407,-0.48415,0.35831,0.31825,-0.51856,-0.17469,0.26725,-0.13384,-0.45779,-0.4329,0.25266,0.29474,0.063503,0.31638,-0.43031,-0.20461,0.24408,-0.50874,-0.31381,0.28725,0.31578,-0.38997,0.18864,-0.31259,-0.012602,0.30253,0.29779,-0.27677,0.37827,0.17383,-0.37913,0.34317,0.26039,-0.27808,0.22367,-0.45884,-0.030818,-0.055139,0.042466,0.33308,0.24611,0.37069,-0.25815,-0.23327,-0.18063,-0.19078,0.32958,-0.35502,-0.35779,0.34612,-0.25378,0.050298,0.18801,0.16897,-0.27106,0.22361,-0.18028,-0.17742,0.18348,0.67854,0.3019,0.17456,0.52669,0.1646,0.10482,0.31325,-0.35145,0.23245,0.50933,-0.26208,0.89669,-0.20498,-0.22035,0.50902,0.21321,-0.17202,-0.27197,0.39815,0.1592,0.61733,0.13512,-0.26192,-0.30231,-0.10011
-0.16022,0.09735,0.12286,-0.082538,0.27411,-0.33884,0.1022,-0.2562,-0.21239,0.17224,-0.11554,-0.21348,0.097394,-0.13554,0.023005,0.028946,-0.25696,0.035505,-0.17317,-0.2024,0.09172,0.21188,-0.088638,-0.10626,0.1781,0.065562,-0.11822,0.026228,-0.0045986,-0.12078,0.10248,-0.012391,-0.092962,0.16059,0.16118,-0.082686,-0.19793,0.25044,-0.11611,0.022819,-0.2317,-0.18142,-0.061927,0.12231,-0.1872,-0.17065,0.098921,-0.13893,0.12459,0.090045,-0.27789,0.14757,0.11728,0.085768,-0.20095,-0.043935,-0.15511,-0.079811,0.11636,-0.07403,0.15684,-0.025334,-0.066937,0.038659,0.083683,-0.18906,0.11272,-0.22293,-0.10895,-0.15434,0.20515,-0.15454,-0.12631,0.191,-0.14426,-0.1845,-0.10598,0.096615,-0.086606,-0.016516,-0.0087491,-0.097898,-0.05786,-0.073564,-0.24336,-0.03315,-0.20498,0.88891,0.18205,-0.076912,-0.027348,-0.022828,0.16961,-0.13053,-0.026487,-0.13376,-0.046509,0.083614,0.18512,0.14284
-0.20776,0.246,0.2341,-0.04309,0.29316,-0.36746,0.34782,-0.34807,-0.26551,0.10775,-0.21892,-0.23692,0.015137,-0.28088,0.14226,0.077464,-0.27476,0.17493,-0.27246,-0.15408,0.2957,0.21538,-0.12391,0.017623,0.18546,0.23179,-0.16313,-0.028659,0.011888,-0.14681,0.314,-0.0061018,-0.18047,0.36048,0.25729,-0.12719,-0.22013,0.34877,-0.2018,0.22727,-0.18384,-0.21268,-0.063465,0.22897,-0.23642,-0.14485,0.23548,-0.23655,0.038432,0.20506,-0.24877,0.22926,0.13181,0.049441,-0.22459,-0.15582,-0.22409,-0.18555,0.15205,0.0044757,0.20396,-0.023177,-0.14108,0.13374,0.15662,-0.23678,0.10725,-0.17112,-0.10885,-0.15092,0.24118,-0.14811,0.099901,0.19987,-0.22681,-0.18491,-0.11568,-0.0050627,-0.14322,-0.035566,-0.019695,-0.14438,0.06975,-0.069437,-0.2648,0.10618,-0.22035,0.18205,0.94279,-0.17854,-0.1046,-0.017134,0.21344,-0.069401,-0.077412,-0.20593,0.03939,0.04531,0.20021,0.1882
0.31074,-0.3352,-0.21614,0.072719,-0.29879,0.23939,-0.42504,0.37837,0.30919,0.029773,0.26547,0.31102,0.14032,0.30585,-0.20828,0.025032,0.3326,-0.28987,0.27014,0.23699,-0.32773,-0.17196,0.14772,-0.028964,-0.29095,-0.25592,0.21839,0.1436,0.028498,0.23141,-0.32921,-0.055338,0.2098,-0.32609,-0.27697,0.22422,0.2113,-0.27509,0.22632,-0.22104,0.12406,0.27563,0.22053,-0.17099,0.38111,0.15272,-0.25591,0.34391,0.15075,-0.18501,0.21491,-0.2474,-0.034979,-0.012008,0.099014,0.24455,0.1443,0.31992,-0.073144,-0.12267,-0.10015,-0.062102,0.31631,-0.21197,-0.1523,0.32384,-0.14903,0.14553,0.20251,0.11575,-0.18342,0.22263,-0.16623,-0.087979,0.19778,0.49485,0.26853,0.093539,0.37325,0.16404,0.13186,0.3104,-0.16158,0.16559,0.36856,-0.068201,0.50902,-0.076912,-0.17854,0.93048,0.23416,-0.10979,-0.23098,0.25633,0.12955,0.39463,0.075297,-0.15216,-0.17277,-0.067565
0.45117,-0.34299,-0.18502,0.31776,-0.30824,0.59505,-0.21904,0.26249,0.36909,-0.012917,0.40361,0.39047,-0.024679,0.23663,-0.3105,0.085106,0.45585,-0.32473,0.30219,0.29342,-0.19712,-0.10729,0.13722,-0.17478,-0.16684,-0.24911,0.19569,-7.7875e-05,0.12883,0.2481,-0.1861,-0.16696,0.17002,-0.38808,-0.17422,0.32193,0.13534,-0.34258,0.036732,-0.18404,0.21988,0.087926,0.24468,-0.29143,0.27049,0.20568,-0.28671,0.16886,0.017666,-0.1077,0.388,-0.31632,-0.13871,-0.20176,0.16392,0.28663,0.17785,0.098088,-0.18374,-0.18623,-0.13497,-0.15411,0.038499,-0.11059,-0.092074,0.29963,-0.16848,0.24011,0.16641,0.15148,-0.19179,0.21322,-0.068764,-0.34826,0.11056,0.27819,0.1669,-0.0021353,0.045844,0.052903,-0.033129,0.13231,-0.06087,0.15391,0.24577,0.019706,0.21321,-0.027348,-0.1046,0.23416,0.98345,-0.26476,-0.22672,0.27542,-0.084809,0.20817,0.1041,-0.33362,-0.29581,-0.17158
-0.36037,0.14134,-0.050989,-0.32858,0.031965,-0.3437,0.024604,-0.17957,-0.32115,-0.12744,-0.28965,-0.27697,-0.13546,-0.19125,0.17865,-0.22452,-0.29061,0.12802,-0.28467,-0.28207,-0.0019716,-0.086884,-0.20818,0.067432,0.12738,0.12958,-0.2169,-0.11692,-0.14662,-0.19399,0.010334,0.066613,-0.1565,0.14853,-0.026206,-0.23933,-0.17765,0.094275,-0.043195,-0.077738,-0.10618,-0.099787,-0.15273,0.13435,-0.10563,-0.18945,0.10996,-0.12133,-0.12427,-0.062791,-0.20123,0.10836,-0.071409,0.045473,-0.091553,-0.26593,-0.21166,-0.057344,0.14652,0.046051,-0.0078685,0.041302,-0.05621,0.034453,0.058639,-0.21114,0.032649,-0.11098,-0.098315,-0.20081,0.062153,-0.10334,-0.13552,0.15424,-0.11251,-0.12492,-0.052918,-0.10269,-0.047759,-0.094182,-0.011361,-0.14195,0.038465,-0.10183,-0.1885,0.031376,-0.17202,-0.022828,-0.017134,-0.10979,-0.26476,0.83266,0.10711,-0.22292,0.037976,-0.082209,-0.13142,0.077343,0.10638,0.028027
-0.23793,0.29257,0.31969,-0.13385,0.28494,-0.39032,0.36817,-0.34137,-0.30022,0.063575,-0.22803,-0.28884,-0.033577,-0.2912,0.18348,0.067102,-0.30533,0.25597,-0.29176,-0.22256,0.24304,0.19074,-0.16569,0.070431,0.27074,0.2193,-0.21919,-0.073324,-0.012583,-0.26773,0.26702,0.10107,-0.14185,0.36393,0.28843,-0.18867,-0.29544,0.30924,-0.15744,0.25529,-0.13228,-0.2239,-0.088203,0.26533,-0.3183,-0.19736,0.31999,-0.23868,-0.05172,0.17295,-0.29311,0.27985,0.15912,0.041931,-0.17438,-0.17329,-0.18011,-0.18595,0.16328,0.041508,0.26316,0.12195,-0.10169,0.18616,0.19873,-0.17782,0.17617,-0.18254,-0.14039,-0.19648,0.18694,-0.1561,0.07373,0.21626,-0.18708,-0.27454,-0.12884,-0.065038,-0.13706,-0.087087,-0.027672,-0.1476,0.093994,-0.108,-0.28155,0.15313,-0.27197,0.16961,0.21344,-0.23098,-0.22672,0.10711,0.95105,-0.10332,-0.10518,-0.21946,0.093502,0.099593,0.11188,0.19544
0.47011,-0.48414,-0.061713,0.35842,-0.28348,0.42206,-0.2798,0.2977,0.42287,0.1667,0.38032,0.2954,0.13635,0.22302,-0.5057,0.33047,0.40078,-0.41516,0.31478,0.41222,-0.22638,-0.026845,0.23305,-0.28783,-0.38075,-0.37861,0.28117,0.15395,0.20413,0.29929,-0.18425,-0.25095,0.084392,-0.42173,-0.082111,0.28427,0.26957,-0.24173,0.058866,-0.046284,0.0083386,0.17476,0.34814,-0.36076,0.26442,0.26701,-0.28535,0.23368,0.15196,-0.0054398,0.29579,-0.31953,0.085347,-0.18809,0.051082,0.30535,0.23368,0.21474,-0.24642,-0.29195,-0.09697,-0.29349,0.20959,-0.15006,-0.27092,0.4118,-0.28399,0.19091,0.11347,0.2532,-0.1972,0.19171,0.088397,-0.30029,0.10731,0.43249,0.23449,0.07193,0.11633,0.039018,-0.015974,0.23127,-0.17861,0.20514,0.31543,-0.12648,0.39815,-0.13053,-0.069401,0.25633,0.27542,-0.22292,-0.10332,0.95676,0.017462,0.30631,0.29013,-0.27557,-0.31207,-0.025044
0.060985,-0.11313,-0.11168,-0.063701,-0.021079,-0.073947,-0.25123,0.17139,0.047347,0.079982,0.074676,0.10588,0.16422,0.1607,-0.046206,-0.11335,0.035964,-0.064805,0.11428,0.022755,-0.24065,-0.026812,0.045955,0.034995,-0.087286,-0.021343,0.081432,0.19163,0.004676,0.082841,-0.18059,0.06136,0.13623,-0.092517,-0.099196,0.083187,0.13386,0.025093,0.20772,-0.18207,-0.073349,0.2028,0.034535,0.042237,0.1969,0.050993,-0.045915,0.2208,0.16919,-0.12401,-0.0094633,-0.056333,-0.0016634,0.14111,0.053054,0.056245,0.041416,0.26851,0.10433,0.024064,-0.020184,0.053067,0.29335,-0.09597,-0.067318,0.030787,0.073408,-0.048329,0.056093,0.056127,0.024595,0.11423,-0.16719,0.1202,0.23853,0.17339,0.08177,0.15069,0.17172,0.16349,0.22263,0.12487,-0.093898,0.066514,0.10634,-0.046956,0.1592,-0.026487,-0.077412,0.12955,-0.084809,0.037976,-0.10518,0.017462,0.92866,0.12912,-0.071545,0.013842,0.015981,-0.068984
0.31243,-0.3689,-0.23939,0.064045,-0.35848,0.28363,-0.46511,0.3706,0.29797,0.031575,0.22886,0.32774,0.13668,0.31246,-0.23442,0.0059584,0.33531,-0.26882,0.30004,0.23945,-0.41952,-0.20827,0.14855,-0.0010882,-0.31264,-0.2228,0.17754,0.17722,-0.00088851,0.22964,-0.35634,-0.023531,0.24965,-0.37003,-0.26766,0.24687,0.25996,-0.34005,0.24131,-0.22245,0.12582,0.29087,0.22877,-0.18893,0.39615,0.13197,-0.22229,0.32671,0.11135,-0.23886,0.2253,-0.32283,-0.039395,-0.03361,0.12181,0.22139,0.13613,0.34886,-0.094303,-0.098826,-0.1084,-0.020738,0.33914,-0.26943,-0.18192,0.36946,-0.11884,0.13845,0.22843,0.15664,-0.21272,0.23411,-0.13105,-0.089734,0.21406,0.56623,0.31398,0.08259,0.47565,0.145,0.089533,0.27254,-0.19716,0.21757,0.47879,-0.096221,0.61733,-0.13376,-0.20593,0.39463,0.20817,-0.082209,-0.21946,0.30631,0.12912,0.92542,0.10508,-0.2262,-0.25226,-0.099961
0.28411,-0.30322,0.10387,0.19359,-0.081491,0.083587,-0.094691,0.10125,0.1331,0.17885,0.22925,0.076691,0.18048,-0.016699,-0.31166,0.22585,0.11394,-0.22707,0.088124,0.22279,-0.047276,0.089924,0.17096,-0.18015,-0.25179,-0.24149,0.13473,0.099379,0.15971,0.09874,-0.091262,-0.17478,0.021782,-0.24478,0.079479,0.13039,0.045338,-0.12721,-0.17034,0.10441,-0.064605,-0.028191,0.27588,-0.11135,-0.038927,0.10757,-0.091388,0.025699,0.14354,0.11748,0.011033,-0.072595,0.20232,-0.09191,-0.12949,0.23989,0.14574,-0.019037,-0.19607,-0.19932,0.047274,-0.16921,0.10983,-0.092208,-0.21731,0.2246,-0.13255,-0.081328,0.023048,0.10891,-0.12119,0.065353,0.16464,-0.2098,-0.047308,0.15456,0.071679,0.09729,-0.035496,-0.035552,-0.031737,0.028332,-0.16541,0.091088,0.068296,-0.061587,0.13512,-0.046509,0.03939,0.075297,0.1041,-0.13142,0.093502,0.29013,-0.071545,0.10508,0.94685,-0.14981,-0.13366,0.11456
-0.3428,0.231,0.15915,-0.28226,0.18133,-0.48652,0.18171,-0.30375,-0.39069,-0.026863,-0.31646,-0.34472,-0.039653,-0.25642,0.20852,-0.10352,-0.39672,0.22025,-0.2904,-0.30257,0.1204,0.05503,-0.20371,0.087547,0.15048,0.21228,-0.20331,-0.13277,-0.16496,-0.29223,0.10463,0.11857,-0.16961,0.25538,0.12885,-0.26113,-0.21459,0.22836,-0.053142,0.1279,-0.1794,-0.16387,-0.19046,0.23844,-0.22038,-0.27488,0.22522,-0.17525,-0.082059,0.06089,-0.34104,0.20475,0.064118,0.10924,-0.17461,-0.26424,-0.24935,-0.090844,0.31538,0.079111,0.1629,0.095449,0.00094436,0.049102,0.10892,-0.20789,0.15796,-0.24391,-0.18912,-0.2968,0.089769,-0.1035,-0.050078,0.21808,-0.14914,-0.17847,-0.091149,-0.059205,-0.056489,-0.071343,-0.025685,-0.16431,0.050223,-0.18148,-0.26,0.12194,-0.26192,0.083614,0.04531,-0.15216,-0.33362,0.077343,0.099593,-0.27557,0.013842,-0.2262,-0.14981,0.85459,0.23759,0.11605
-0.32603,0.24917,0.18104,-0.17726,0.2723,-0.41289,0.27894,-0.32812,-0.3566,0.019861,-0.24759,-0.32536,-0.0068129,-0.1965,0.19185,-0.12099,-0.32485,0.20931,-0.26572,-0.28697,0.21806,0.17076,-0.20805,0.0093552,0.21899,0.22409,-0.20487,-0.039543,-0.033584,-0.17828,0.21701,0.084443,-0.17595,0.323,0.21759,-0.2292,-0.22394,0.31709,-0.10439,0.11949,-0.18188,-0.15873,-0.13617,0.26158,-0.24033,-0.23908,0.271,-0.14688,-0.027732,0.12258,-0.36914,0.26398,0.070808,0.077504,-0.18579,-0.24456,-0.21128,-0.13426,0.23554,0.042967,0.15858,0.067138,-0.058629,0.13143,0.13556,-0.29567,0.16792,-0.20514,-0.16296,-0.25122,0.2217,-0.13125,-0.0013602,0.27656,-0.14764,-0.23812,-0.15871,-0.0087538,-0.16462,-0.0030806,0.044834,-0.12636,0.039742,-0.12328,-0.33247,0.052201,-0.30231,0.18512,0.20021,-0.17277,-0.29581,0.10638,0.11188,-0.31207,0.015981,-0.25226,-0.13366,0.23759,0.89191,0.13888
0.0044416,0.045371,0.30817,0.092188,0.21224,-0.30847,0.1938,-0.23072,-0.10802,0.20628,-0.067947,-0.13943,0.11108,-0.16476,-0.082057,0.21226,-0.14447,-0.01069,-0.14177,-0.026801,0.13257,0.19394,0.0047026,-0.090041,0.084163,0.071573,-0.067713,0.081377,0.065966,-0.096487,0.19019,-0.078657,-0.13866,0.18852,0.24216,-0.0045172,-0.13873,0.21755,-0.22912,0.23931,-0.23085,-0.20652,0.011061,0.11487,-0.22532,-0.072199,0.12366,-0.18805,0.10255,0.15325,-0.17566,0.13201,0.26035,0.034095,-0.19897,-0.021476,-0.085547,-0.15979,0.013506,-0.14488,0.19281,-0.077976,-0.06926,0.075387,0.031155,-0.10039,0.046091,-0.11692,-0.11334,-0.13111,0.11396,-0.11011,0.089727,0.082615,-0.17981,-0.10019,-0.046489,0.017781,-0.12578,-0.020267,-0.069903,-0.08951,-0.025534,-0.058072,-0.16421,0.0093422,-0.10011,0.14284,0.1882,-0.067565,-0.17158,0.028027,0.19544,-0.025044,-0.068984,-0.099961,0.11456,0.11605,0.13888,0.91181
